tree
version=v4
num_class=1
num_tree_per_iteration=1
label_index=0
max_feature_idx=191
objective=regression
feature_names=hour day_of_week day_of_month month quarter year hour_sin hour_cos day_sin day_cos month_sin month_cos is_asia_session is_europe_session is_us_session is_weekend price_range price_change price_change_pct high_low_ratio close_open_ratio high_close_ratio low_close_ratio upper_shadow lower_shadow body_size body_direction return_1 return_4 return_24 return_96 log_return_1 log_return_4 volume_log volume_change volume_ma_4 volume_ma_24 volume_ma_96 volume_ratio_4 volume_ratio_24 price_volume price_volume_log rsi_14 rsi_28 macd macd_signal macd_hist bb_upper bb_lower bb_width bb_position atr_14 atr_28 gk_volatility sma_4 ema_4 close_sma_ratio_4 sma_12 ema_12 close_sma_ratio_12 sma_24 ema_24 close_sma_ratio_24 sma_48 ema_48 close_sma_ratio_48 sma_96 ema_96 close_sma_ratio_96 target_lag_1 close_lag_1 volume_lag_1 target_lag_2 close_lag_2 volume_lag_2 target_lag_3 close_lag_3 volume_lag_3 target_lag_4 close_lag_4 volume_lag_4 target_lag_6 close_lag_6 volume_lag_6 target_lag_8 close_lag_8 volume_lag_8 target_lag_12 close_lag_12 volume_lag_12 target_lag_16 close_lag_16 volume_lag_16 target_lag_24 close_lag_24 volume_lag_24 target_lag_48 close_lag_48 target_lag_72 close_lag_72 target_lag_96 close_lag_96 target_rolling_mean_4 target_rolling_std_4 target_rolling_min_4 target_rolling_max_4 target_rolling_median_4 target_rolling_range_4 close_rolling_mean_4 close_rolling_std_4 return_rolling_mean_4 return_rolling_std_4 volume_rolling_mean_4 volume_rolling_std_4 target_rolling_mean_12 target_rolling_std_12 target_rolling_min_12 target_rolling_max_12 target_rolling_median_12 target_rolling_range_12 close_rolling_mean_12 close_rolling_std_12 return_rolling_mean_12 return_rolling_std_12 volume_rolling_mean_12 volume_rolling_std_12 target_rolling_mean_24 target_rolling_std_24 target_rolling_min_24 target_rolling_max_24 target_rolling_median_24 target_rolling_range_24 close_rolling_mean_24 close_rolling_std_24 return_rolling_mean_24 return_rolling_std_24 volume_rolling_mean_24 volume_rolling_std_24 target_rolling_mean_48 target_rolling_std_48 target_rolling_min_48 target_rolling_max_48 target_rolling_median_48 target_rolling_range_48 close_rolling_mean_48 close_rolling_std_48 return_rolling_mean_48 return_rolling_std_48 volume_rolling_mean_48 volume_rolling_std_48 target_rolling_mean_96 target_rolling_std_96 target_rolling_min_96 target_rolling_max_96 target_rolling_median_96 target_rolling_range_96 close_rolling_mean_96 close_rolling_std_96 return_rolling_mean_96 return_rolling_std_96 volume_rolling_mean_96 volume_rolling_std_96 target_rolling_skew_24 target_rolling_kurt_24 target_rolling_skew_96 target_rolling_kurt_96 volatility_12 range_volatility_12 volatility_24 range_volatility_24 volatility_48 range_volatility_48 volatility_96 range_volatility_96 momentum_4 momentum_ratio_4 momentum_12 momentum_ratio_12 momentum_24 momentum_ratio_24 momentum_48 momentum_ratio_48 roc_4 roc_12 roc_24 target_diff_1 target_diff_4 target_diff_24 target_diff_96 rsi_price_cross bb_volume_cross momentum_volatility
feature_infos=[0:23] [0:6] [1:31] [1:12] [1:4] [2012:2023] [-1:1] [-1:1] [-0.97492790222167969:0.97492790222167969] [-0.90096884965896606:1] [-1:1] [-1:1] [0:1] [0:1] [0:1] [0:1] [0:7238.7099609375] [-3113.31005859375:3839.010009765625] [-0.24843749403953552:0.81902289390563965] [1:2.4998571872711182] [0.75156247615814209:1.8190228939056396] [1:1.3460068702697754] [0.40002286434173584:1] [0:1859.6400146484375] [0:3895.1201171875] [0:3839.010009765625] [-1:1] [-0.24179309606552124:0.81902289390563965] [-0.49791231751441956:0.56736361980438232] [-0.63358217477798462:0.75675678253173828] [-0.6858677864074707:0.8130914568901062] [-0.27679899334907532:0.59829944372177124] [-0.68898051977157593:0.44939500093460083] [0:9.3207798004150391] [-1:39182.3828125] [0.00012264249380677938:6465.45361328125] [0.0074786581099033356:2889.700927734375] [0.044748522341251373:1453.9327392578125] [0:88427.2421875] [0:8492.8681640625] [-3674872:4674349] [-22024.90625:26430.56640625] [0:100] [0:100] [-1596.213134765625:1232.3720703125] [-1467.419677734375:1117.055908203125] [-683.44036865234375:577.7354736328125] [4.321467399597168:69694.1328125] [3.9012260437011719:67897.8203125] [0:1.12082839012146] [-0.56213229894638062:1.5621323585510254] [0:2367.40576171875] [0:1755.2674560546875] [0:0.039997473359107971] [4.255000114440918:68573.3984375] [4.2789459228515625:68577.9921875] [0.61046421527862549:1.3120236396789551] [4.1958332061767578:68499.21875] [4.2217645645141602:68415.828125] [0.46742707490921021:1.3940252065658569] [4.2029166221618652:68276.5859375] [4.2345671653747559:68087.3671875] [0.41929468512535095:1.3473156690597534] [4.2858333587646484:67929.828125] [4.298774242401123:67697.09375] [0.41491299867630005:1.4974362850189209] [4.2856249809265137:67553.25] [4.3283658027648926:67388.078125] [0.37972813844680786:1.4916210174560547] [-0.27679899334907532:0.59829944372177124] [4.1500000953674316:68720.6484375] [0.00049056997522711754:11166.6904296875] [-0.27679899334907532:0.29868981242179871] [4.1700000762939453:68720.6484375] [0:11166.6904296875] [-0.27679899334907532:0.27429461479187012] [4.1700000762939453:68720.6484375] [0:10876.72265625] [-0.20661425590515137:0.59829944372177124] [4.1399998664855957:68562.96875] [0:10876.72265625] [-0.22509858012199402:0.59829944372177124] [4.1399998664855957:68550] [0:11166.6904296875] [-0.27679899334907532:0.59829944372177124] [4.1399998664855957:68720.6484375] [0:11166.6904296875] [-0.27679899334907532:0.24170765280723572] [4.2100000381469727:68720.6484375] [0:10876.72265625] [-0.22554542124271393:0.59829944372177124] [4.2100000381469727:68720.6484375] [0:10876.72265625] [-0.27679899334907532:0.59829944372177124] [4.1700000762939453:68720.6484375] [0:11166.6904296875] [-0.22554542124271393:0.26528114080429077] [4.2300000190734863:68627.0078125] [-0.2223116010427475:0.59829944372177124] [4.1399998664855957:68562.96875] [-0.27679899334907532:0.26528114080429077] [4.1700000762939453:68562.96875] [-0.17224512994289398:0.11234875023365021] [0:0.39579102396965027] [-0.27679899334907532:0.030261160805821419] [-0.11935427039861679:0.59829944372177124] [-0.17365731298923492:0.13789263367652893] [0:0.82061105966567993] [4.255000114440918:68573.3984375] [0:2869.417724609375] [-0.15720537304878235:0.1205311045050621] [0:0.47946470975875854] [0.00012264249380677938:6465.45361328125] [0.00029733052360825241:5079.14892578125] [-0.077939808368682861:0.034141547977924347] [0:0.23614117503166199] [-0.27679899334907532:0.00074101524660363793] [-0.010169439949095249:0.59829944372177124] [-0.10733222216367722:0.05014406144618988] [0:0.82061105966567993] [4.1958332061767578:68499.21875] [0:2603.370361328125] [-0.07242940366268158:0.075452238321304321] [0:0.28565070033073425] [0.0076166666112840176:3459.182861328125] [0.026384925469756126:3558.50244140625] [-0.041832543909549713:0.023477889597415924] [0:0.17955568432807922] [-0.27679899334907532:0] [0:0.59829944372177124] [-0.050887718796730042:0.020983926951885223] [0:0.82061105966567993] [4.2029166221618652:68276.5859375] [0:2658.15869140625] [-0.037988908588886261:0.038054924458265305] [0:0.21172873675823212] [0.0074786581099033356:2889.700927734375] [0.036637794226408005:2777.56591796875] [-0.024124966934323311:0.016897097229957581] [0:0.12788873910903931] [-0.27679899334907532:0] [0:0.59829944372177124] [-0.016051305457949638:0.015384581871330738] [0:0.82061105966567993] [4.2858333587646484:67929.828125] [0:2814.18359375] [-0.020648587495088577:0.020412735641002655] [0:0.1501019150018692] [0.0037393290549516678:2199.3701171875] [0.02590683288872242:2119.911865234375] [-0.012061888352036476:0.0061982646584510803] [0.00025077641475945711:0.10307835787534714] [-0.27679899334907532:0] [0:0.59829944372177124] [-0.010534083470702171:0.0057671102695167065] [0.0016036834567785263:0.82384490966796875] [4.2856249809265137:67553.25] [0.0032696772832423449:3475.297607421875] [-0.0089141065254807472:0.0077994433231651783] [0.00025195788475684822:0.11723805963993073] [0.044748522341251373:1453.9327392578125] [0.29353252053260803:1599.13525390625] [-4.898979663848877:4.898979663848877] [-3:24] [-9.7825641632080078:9.7979593276977539] [-0.92992216348648071:96] [0:0.81245094537734985] [0:2461.052490234375] [0:0.88019782304763794] [0:1892.1650390625] [0:0.88600450754165649] [0:1423.201904296875] [0.0024687554687261581:1.0093885660171509] [0:1099.2958984375] [-6981.2998046875:4876.7099609375] [0.50208771228790283:1.5673636198043823] [-7952.77001953125:5024.240234375] [0.39247685670852661:1.5063636302947998] [-7780.97021484375:7016.33984375] [0.36641782522201538:1.7567567825317383] [-10513.2900390625:7576.81005859375] [0.3141142725944519:2.250293493270874] [-49.791233062744141:56.736362457275391] [-60.752315521240234:50.636363983154297] [-63.358219146728516:75.675674438476562] [-0.59829944372177124:0.82061105966567993] [-0.69360965490341187:0.72505402565002441] [-0.54081237316131592:0.58950871229171753] [-0.28122395277023315:0.5951504111289978] [-8.9720430374145508:27.744447708129883] [-4649.5830078125:688.09979248046875] [-691.78271484375:830.2493896484375]
tree_sizes=6511 6430 6433 6472 6427 6476 6375 6352 6351 6451 6402 6410 6415 6304 6442 6385 6408 6337 6368 6452 6381 6405 6404 6290 6411 6376 6431 5911 6430 6267 6378 6358 6351 6283 6314 6349 6361 6296 6408 6367 6236 6246 6285 6016 6231 6071 6275 6375 6216 6208 6251 6204 5606 6142 6256 4511 6152 5579 4801 4648 6156 5742 4970 5359 4407 5613 5921 5802 4200 5046 4298 4322 5257 4648 4894 4021 4416 5317 4792 4881 4445 4882 4014 3677 4845 4458 5597 4535 4569 4428 4741 4683 4494 4206 4496 5586 5201 4875 4985 3709 3957 3869 3882 4382 2703 4480 4545 5153 4331 5287 4863 4247 4676 4886 3353 4100 4160 3546 4516 3453 3865 3568 3839 3530 3676 3967 4715 4046 5369 3523 4581 3896 4061 3975 4457 3848 4791 4195 4012 4141 4603 4075 4394 4067 3914 4258 3808 4610 4280 4170 4511 4757 3601 4447 3893 3698 3716 4375 4228 4007 4702 4355 4001 4673 4806 4428 4280 4496 4708 3603 4532 4298 3284 3439 3604 4185 4083 3732 4102 3271 4952 4821 3708 5094 4115 4282 5132 4671 4915 4217 3206 3526 2840 3114 3522 3360 2507 2734 4169 2983 3401 3163 4048 3292 3101 3447 3874 4645 4110 4670 3789 3733 3564 3782 4203 3657 3332 3757 3559 3758 4102 3623 3615 3895 4601 3848 3663 4411 3378 3580 3876 3439 3038 3760 3334 3507 3913 3226 2984 3498 3063 3778 3493 4075 3310 3465 3439 3612 4551 3197 3088 2951 5130 3152 4015 2971 3231 3295 3210 3428 3690 3944 4028 4209 3598 3254 4380 3602 3116 3040 2798 4346 3843 3914 3214 3355 3744 2571 2563 2841 3293 3588 3081 4312 4356 3230 3175 3114 3016 3055 2664 3712 3187 3618 3374 3412 3572 3578 3832 3739 3491 2336 2704 3732 3793 3072 3608 3116 3125 3156 3936 3055 3470 4201 4038 3103 2886 3420 2632 3293 2505 3761 3571 3740 2891 2586 2644 2908 2799 2653 3333 3414 3162 3280 3350 2071 2734 2494 2499 2471 2300 2179 2313 3552 2860 3307 2620 2554 3186 2855 3169 2969 3430 2514 2749 3195 2767 2996 3193 3199 3333 2848 2822 3307 2706 3155 2970 2773 2735 2796 2929 2636 2688 3254 2407 2667 2364 2623 2889 2909 3080 3123 3286 3107 2641 2684 3509 2994 3364 3129 2829 3066 2951 2913 2578 2730 3689 2620 2636 2417 3122 2578 2866 2957 2833 2488 2494 2491 3067 2205 2542 2319 2542 2480 2714 2385 2938 2605 3079 2809 3133 2396 2448 3137 2904 2375 2214 3022 2630 2358 2369 2389 2841 2443 2229 2795 2748 2446 1982 3032 2695 2608 2200 2418 2554 2867 2382 2471 2382 1933 2301 2623 2114 2247 2380 2578 2252 1901 2629 1765 1950 1778 2830 1854 2325 2340 2717 2863 2937 2503 2785 2614 2227 2359 2927 2614 2422 2289 2179 1883 2097 2672 2936 2461 2539 2349 2434 2322 2442 2184 1964 2280 1891 2577 2179 2709 2691 2362 2201 2506 1865 2223 2384 1957 2300 3522 2104 2172 2143 2616 2930 2939 2793 2898 2634 2063 2564 1748 2106 2061 2867 2388 2756 2769 2433 1999 2450 2551 2597 1871 1949 2263 1865 2055 2639 2179 2151 2394 2672 2183 3010 1768 2406 2421 2330 2469 2410 2089 2331 2457 2335 2487 2566 2522 2760 2121 2264 2258 1867 2322 1990 1769 1966 1572 1538 1828 1864 2024 1984 1808 1998 2073 2285 2411 1844 2454 2120 2051 1983 1485 2189 2154 2413 2306 1820 2884 2041 2110 2081 2141 2534 1903 2325 2379 2002 2335 2244 1815 1829 2557 2230 2214 2401 2089 2353 2617 1900 2003 2365 2351 1747 1318 1898 2000 1836 1577 2083 2117 1772 2296 1761 1986 2084 1989 1854 2289 1788 2498 2004 2216 2385 2478 2581 1622 2735 2004 2397 2074 1666 2149 1921 1530 1952 1597 2165 2337 2729 1982 2948 2046 2255 1632 1546 2065 2155 2377 1908 1557 1563 1937 1734 2112 1644 1796 2228 1812 1800 2043 1856 1858 1656 1915 1730 1823 2109 2024 1786 1948 2078 2539 1992 1981 2211 1980 1479 1595 1954 2141 2048 1809 1901 2029 1740 2106 1462 2173 2069 1798 1901 1680 2046 1778 2145 2272 1715 1864 1837 1840 1837 1642 1821 2341 1831 2870 2640 2083 2175 2250 1970 2237 983 1288 1687 1270 1081 1177 1029 1486 1384 1774 1903 1559 1910 2054 1892 2467 1796 2204 1814 1730 1963 1627 1810 1969 1616 2026 1658 2227 1840 2187 1913 1796 1766 1631 1267 1246 1252 1558 1568 1494 2208 2075 2190 2304 1241 2043 1793 1627 1670 2436 1630 2223 1787 1596 1692 1483 1239 1477 2532 1993 1549 1320 1560 1404 1796 1654 1387 1575 1661 2022 1290 1229 1072 1856 1724 1271 1826 1433 1390 1571 2463 1786 1370 1170 1098 1426 1468 2104 1507 2204 1761 1637 1800 1863 1970 1277 1915 1557 1436 1251 1583 1479 1698 1307 1497 1778 1883 1786 2136 1861 1774 2082 1497 1995 1868 1689 1539 1554 897 1750 1527 1736 1476 1500 1531 1315 1135 1737 1597 1406 1181 1327 1151 1182 1701 1864 1250 1247 1309 1980 2190 1565 1927 1875 1948 1220 1377 1785 970 1465 1608 1563 1210 1793 1237 2374 1631 1804 2176 1639 1844 1706 1259 1880 1919 2012 1914 1482 1435 1577 2092 1894 1657 1850 2092 1093 1510 1423 1673 1693 1219 1585 1308 1365 1481 1784 1242 1536 1437 1382 1713

Tree=0
num_leaves=63
num_cat=0
split_feature=185 188 188 187 187 186 187 186 188 185 188 188 186 100 100 188 18 116 187 185 27 187 187 187 187 186 185 188 185 187 188 27 187 27 27 100 27 185 188 27 185 27 27 100 186 185 189 185 27 185 100 185 100 27 188 185 188 188 187 27 100 27
split_gain=1.4495 1.0205 0.927257 0.639557 0.44215 0.284347 0.26301 0.234038 0.201009 0.100755 0.0952179 0.085628 0.0814982 0.080678 0.0766383 0.0740244 0.0559507 0.0546173 0.0521078 0.0378167 0.0358468 0.0338898 0.0305196 0.0302893 0.0256123 0.0253161 0.0224546 0.020522 0.0204011 0.0154032 0.0145426 0.0142706 0.0136754 0.0123573 0.0123534 0.0121635 0.0113607 0.00848266 0.00805183 0.00787392 0.00907717 0.00765133 0.00759177 0.00744873 0.0073887 0.00685276 0.00681295 0.00670554 0.00623443 0.00531892 0.0051328 0.00510842 0.0048148 0.00468265 0.00467796 0.00450651 0.00442394 0.00420989 0.00416595 0.00408733 0.00399874 0.003979
threshold=-0.0031445105560123916 0.0075557606760412463 -0.017720014788210389 0.031134116463363174 -0.031529180705547326 0.0015373599599115553 -0.0058047552593052379 0.010282257106155159 0.032360779121518142 0.0037447222275659446 -0.0011834315955638883 -0.031751466915011399 -0.0083156172186136228 -0.0043693208135664454 0.0092030651867389696 -0.0010327171185053883 -0.012358452659100292 -0.05860456079244613 0.014445124194025995 0.0010478987824171784 0.0087071303278207796 0.0051496650557965049 -0.01732754427939653 -0.0019780095899477597 0.0016180339152924719 -0.0041373984422534696 0.0043051915708929309 -0.0048059348482638589 -0.031689370051026337 0.0051496650557965049 -0.010633029043674467 -0.0026806209934875365 0.0018404927104711535 0.0031342215370386843 -0.00084471650188788761 0.001145423681009561 0.003287470201030374 0.0010478987824171784 0.00027078224229626363 0.0026644706958904867 -0.00085577403660863627 0.0014367765397764745 -0.0016289400518871842 0.0049677535425871619 -0.010887560900300739 0.00025034397549461579 0.0016027973615564408 -0.0069329307880252591 0.016667260788381103 -0.00030563779000658536 -0.001234110561199486 0.00063715703436173509 0.0023266040952876215 -1.0000000180025095e-35 -0.0050637053791433564 0.01181745156645775 0.017714291810989383 0.0024842317216098313 0.0046703030820935973 -0.0010202780831605194 -6.5753156377468245e-05 -0.0032817114843055602
decision_type=2 2 2 2 2 2 2 2 2 2 2 2 2 2 2 2 2 2 2 2 2 2 2 2 2 2 2 2 2 2 2 2 2 2 2 2 2 2 2 2 2 2 2 2 2 2 2 2 2 2 2 2 2 2 2 2 2 2 2 2 2 2
left_child=2 5 4 7 11 10 12 13 -5 24 16 28 30 26 -6 25 22 -10 -9 34 33 42 -2 31 38 54 46 -14 -1 -22 52 37 59 -17 -12 -25 45 -18 61 40 -36 -27 57 -23 -16 -26 -3 -35 -31 -33 -15 -37 -4 -47 -8 -24 -20 -11 -28 -21 -29 -7
right_child=1 3 6 8 14 9 15 18 17 21 19 -13 27 50 44 20 23 -19 56 32 29 43 55 35 36 41 58 60 -30 48 -32 49 -34 47 39 51 -38 -39 -40 -41 -42 -43 -44 -45 -46 53 -48 -49 -50 -51 -52 -53 -54 -55 -56 -57 -58 -59 -60 -61 -62 -63
leaf_value=-0.0017888761438214079 -0.00060598314640741976 2.2224340616511748e-05 -0.00040212003153646008 0.00057161378825943689 -0.00058004796008497581 -5.2132372161680252e-05 -0.00014030547170776258 0.00031884450723876042 0.0022548118659100704 7.4463080325269299e-05 -2.3922225533394792e-05 -0.00066997254553484691 -0.00017162018322097343 0.00022151090290710429 -0.00036101330989186053 -5.054822111130249e-05 -0.0001371128240784489 0.0012071646000325633 0.00042865798535276231 3.2118533430111558e-05 4.3539035192011907e-05 0.00016872168889653372 -0.00021712950544973728 -2.8115399382948684e-05 3.6328051832202262e-05 -8.9154571817374057e-05 0.00011416727477118327 -9.5253291881568805e-05 -0.00092641168747088071 0.00010646915189969512 -0.0002222347057149672 -3.7573244235920538e-05 8.265131131333418e-05 -3.8867988942305765e-05 1.9253113511739105e-06 4.9103059169773093e-06 0.00014889020039699429 -4.4272225914411472e-05 5.5988947849694234e-05 6.7887585720146547e-05 2.8150812023984535e-05 -3.2626924152051213e-05 0.00015416877870373151 0.00026162944926265197 -0.00014478283465935819 6.1717966018194262e-05 9.2686661351297904e-05 2.4517115994658586e-05 0.00030657350407040573 1.4545744007833827e-05 0.00032854011099354085 3.3928561207440665e-05 -0.00022996435102880635 0.00010529444318970789 -8.1014379043196401e-05 -2.4344160231602813e-05 0.000632565809529775 0.00011937760651455236 0.00020769260133259078 6.4140462601438566e-05 -1.1985815544761238e-05 2.615621976659874e-05
leaf_weight=313 192 2346 1440 397 1384 616 4529 3364 136 6530 5918 211 5311 2611 465 4555 2385 254 936 15670 2020 6173 469 7864 3912 3566 1838 3857 126 721 3772 10223 12290 1802 18428 14215 2672 2732 13523 3132 32248 12825 3679 1747 862 5811 2902 6853 414 2967 1740 8288 810 7306 4812 459 938 5445 1806 5616 1253 11159
leaf_count=313 192 2346 1440 397 1384 616 4529 3364 136 6530 5918 211 5311 2611 465 4555 2385 254 936 15670 2020 6173 469 7864 3912 3566 1838 3857 126 721 3772 10223 12290 1802 18428 14215 2672 2732 13523 3132 32248 12825 3679 1747 862 5811 2902 6853 414 2967 1740 8288 810 7306 4812 459 938 5445 1806 5616 1253 11159
internal_value=2.21662e-05 5.66707e-05 -0.000106803 0.000265742 -0.000592224 3.75677e-05 -7.86716e-05 0.000229054 0.00110755 8.7822e-05 1.359e-05 -0.00130626 -0.000180807 0.000160112 -0.000415278 -3.84195e-05 -1.9962e-05 0.0016133 0.000400464 3.13356e-05 1.2496e-05 0.000138386 -0.000231863 -1.47754e-05 6.09985e-05 -7.02168e-05 0.000105726 -0.00012705 -0.00157683 0.000101994 -0.000271323 -4.55581e-05 5.6866e-05 -1.00167e-05 1.72343e-05 4.27706e-06 8.69486e-05 -9.04871e-05 4.01959e-05 2.204e-05 1.891e-05 -4.58431e-05 0.000110741 0.000191123 -0.000231968 7.63451e-05 6.19411e-05 1.30504e-05 0.000192762 -2.69874e-05 0.00026779 1.62645e-05 -0.000346879 8.71353e-05 -0.000111375 -0.000138007 0.000538858 9.61414e-05 0.000164654 4.12725e-05 -7.77761e-05 2.22243e-05
internal_weight=292838 230937 61901 19268 3361 211669 58540 18481 787 68573 143096 650 16443 13243 2711 42097 49794 390 5238 93302 16365 23574 1120 48674 44999 25732 8892 10421 439 3155 6022 18307 33576 13210 59726 30367 19701 5117 25298 53808 50676 16391 15654 7920 1327 17029 5248 8655 1135 13190 4351 22503 2250 13117 9341 928 1874 11975 3644 21286 5110 11775
internal_count=292838 230937 61901 19268 3361 211669 58540 18481 787 68573 143096 650 16443 13243 2711 42097 49794 390 5238 93302 16365 23574 1120 48674 44999 25732 8892 10421 439 3155 6022 18307 33576 13210 59726 30367 19701 5117 25298 53808 50676 16391 15654 7920 1327 17029 5248 8655 1135 13190 4351 22503 2250 13117 9341 928 1874 11975 3644 21286 5110 11775
is_linear=0
shrinkage=1


Tree=1
num_leaves=63
num_cat=0
split_feature=185 187 187 186 186 186 185 186 187 185 187 27 186 187 187 186 49 187 18 185 187 27 78 185 185 189 78 78 187 78 27 27 185 185 186 78 185 185 187 186 27 189 186 185 27 27 185 185 27 27 186 187 185 185 27 185 27 78 186 186 27 186
split_gain=1.36973 1.00014 0.779456 0.587946 0.329599 0.296043 0.227069 0.211179 0.150021 0.129888 0.123212 0.064636 0.0568858 0.054529 0.0532134 0.0495619 0.0480482 0.046455 0.0391987 0.0386245 0.0345825 0.0308916 0.0306252 0.0300918 0.0244863 0.0214165 0.0213207 0.0187975 0.0168793 0.0161354 0.0159891 0.0149159 0.0147277 0.0134803 0.0131488 0.0132411 0.0126625 0.0114672 0.0113088 0.00974229 0.00947489 0.00939394 0.00939156 0.00933679 0.00942333 0.00820751 0.00819848 0.00800721 0.00789869 0.00760396 0.00757559 0.00751976 0.00750797 0.00727532 0.00655407 0.00605006 0.00555837 0.00536635 0.0050038 0.00493664 0.00486822 0.00436755
threshold=-0.0050318916328251353 0.0075394781306386003 -0.019716683775186535 0.031863173469901092 0.00091565845650620769 -0.031193793751299378 0.010136072989553215 -0.0067356936633586875 0.031134116463363174 0.003419465036131442 -0.0016525971586816011 0.0042933137156069287 0.0049220561049878606 -0.0086748977191746218 0.015827951952815059 -0.0042461513075977555 0.18278392404317859 -0.031529180705547326 -0.017300179228186604 0.00060095769003964971 -0.001606789242941886 -0.00040858103602658952 -0.00064964545890688885 -0.019834565930068489 0.0074018016457557687 0.048620948567986495 -0.00095112729468382884 0.0015850130585022273 0.00066699713352136325 0.0020638791611418132 0.01387667888775468 -0.00060495693469420065 -0.0085172234103083593 -0.009235283359885214 -0.0012543183402158318 0.0017730343388393523 0.0018872321816161277 -0.031689370051026337 -0.014214109163731335 0.0036213678540661935 0.0017187583143822851 0.018599194474518303 0.002463234588503838 -0.0013570336159318683 0.0021832332713529472 0.0048787936102598914 -0.012540792580693958 -0.012540792580693958 -0.00076197023736312975 0.0024384382413700227 -0.0015358354430645702 0.0026055020280182366 0.020425841212272648 0.0067248884588480004 -0.0031115581514313813 9.0959718363592415e-05 0.0013684178702533247 0.0049426930490881213 -0.0012939223088324068 0.0090022413060069102 0.002000094274990261 -0.00099136115750297882
decision_type=2 2 2 2 2 2 2 2 2 2 2 2 2 2 2 2 2 2 2 2 2 2 2 2 2 2 2 2 2 2 2 2 2 2 2 2 2 2 2 2 2 2 2 2 2 2 2 2 2 2 2 2 2 2 2 2 2 2 2 2 2 2
left_child=2 4 5 6 10 17 12 13 -5 22 15 32 36 47 59 18 -10 37 38 31 33 24 28 -7 -11 -25 61 -20 54 58 -22 -12 -9 -13 35 -28 49 -1 -2 -30 -34 -15 -24 44 -33 -14 -43 -4 -38 -3 57 -32 -16 -23 -6 -56 -45 -31 -21 -8 -29 -17
right_child=1 3 7 8 9 23 14 11 16 21 19 20 45 41 52 26 -18 -19 27 29 30 53 42 25 -26 -27 34 60 39 50 51 43 40 -35 -36 -37 48 -39 -40 -41 -42 46 -44 56 -46 -47 -48 -49 -50 -51 -52 -53 -54 -55 55 -57 -58 -59 -60 -61 -62 -63
leaf_value=-0.0016860242448623187 -0.00060994272083698335 -7.1319256199544555e-06 -0.00038548625073687873 0.00054418327983530234 -8.0140016675326771e-05 -0.00065417899629939828 0.00020988605204009172 -0.00024168325633763544 0.0011392930473023818 6.6320395915520219e-05 -5.7132242351925001e-05 -0.0001277337132025459 0.00016840307485282402 -0.00025958669612205298 0.00037760755134915033 -0.00012072297840208181 0.0021752148447333813 -0.00067858327626092957 -0.00016748100415785744 -2.846797748743423e-05 -1.1834962769014179e-05 0.00015515790639008525 4.9381450053570786e-05 -0.00047900772770724981 0.00013313963655794129 -0.0001499340425608071 -5.8453342430370325e-05 -8.1209601746179931e-05 1.3622775916116842e-05 6.4680322931837374e-06 0 -3.840103638208471e-05 -0.00017007714043445644 -3.2280122764884063e-05 0 0 5.9548482846919118e-05 -0.00087393191837249913 -0.00014292252228152282 5.8047590898617758e-05 -9.1693661338221753e-05 -0.00022384576533331674 0.00011027682473011485 -2.5784825276383535e-06 2.176657380355002e-07 0.00028598904707479746 -0.00011937113345504708 -0.00026451115277194206 0.00016563795789671496 8.074155984218813e-05 8.1424878452012898e-05 0.00015800933852012602 0.00056970957935123534 0.00029244383227874021 -1.0164226044869122e-05 2.0454227409230648e-05 3.9815742809752859e-05 5.57118880041954e-05 1.3494045958716103e-05 0.00032431480289295018 0 -6.0985013593248834e-05
leaf_weight=300 199 2296 2043 357 913 798 1924 1356 275 15151 6723 3566 4175 1542 1232 2769 117 170 3017 2812 6125 3781 12248 663 8755 470 12737 9262 10432 5065 465 14412 2987 2948 10821 4775 2335 117 204 9521 5794 1531 3622 28694 8138 1251 3799 2629 1479 1234 4973 824 1052 762 14347 9597 3056 4440 17914 1907 803 5134
leaf_count=300 199 2296 2043 357 913 798 1924 1356 275 15151 6723 3566 4175 1542 1232 2769 117 170 3017 2812 6125 3781 12248 663 8755 470 12737 9262 10432 5065 465 14412 2987 2948 10821 4775 2335 117 204 9521 5794 1531 3622 28694 8138 1251 3799 2629 1479 1234 4973 824 1052 762 14347 9597 3056 4440 17914 1907 803 5134
internal_value=-5.13728e-08 2.5e-05 -0.000167801 0.000230722 7.75359e-06 -0.000679279 0.000197034 -0.000131203 0.00105938 5.32561e-05 -1.99317e-05 -7.96584e-05 0.000123215 -0.000237347 0.000348717 -5.82783e-05 0.00148908 -0.00128517 -0.000108025 0 -3.62388e-05 0.000106338 2.81213e-05 -0.000487045 9.14211e-05 -0.000355858 -3.93502e-05 -9.75243e-05 1.49985e-05 2.49057e-05 6.20239e-06 -1.45535e-05 -0.000137832 -8.68432e-05 -2.64155e-05 -4.24815e-05 6.56864e-05 -0.00149542 -0.00041118 3.55737e-05 -0.000120073 -0.000178506 6.42277e-05 -9.00498e-06 -2.37992e-05 0.000198301 -0.000152213 -0.000320658 0.000104637 1.93448e-05 4.93918e-05 0.000103515 0.00047276 0.000181516 -9.144e-07 1.48169e-06 1.03017e-06 3.10507e-05 7.07659e-06 0.000270796 -7.50572e-05 -8.38198e-05
internal_weight=292838 254711 38127 19634 235077 2518 18885 35609 749 89129 145948 24065 12770 11544 6115 49721 392 587 13485 96227 13928 28449 60680 1931 23906 1133 36236 13082 44810 35204 7414 61023 10137 6514 28333 17512 7344 417 403 19953 8781 6872 15870 54300 22550 5426 5330 4672 3814 3530 14478 1289 2284 4543 24857 23944 31750 9505 20726 3831 10065 7903
internal_count=292838 254711 38127 19634 235077 2518 18885 35609 749 89129 145948 24065 12770 11544 6115 49721 392 587 13485 96227 13928 28449 60680 1931 23906 1133 36236 13082 44810 35204 7414 61023 10137 6514 28333 17512 7344 417 403 19953 8781 6872 15870 54300 22550 5426 5330 4672 3814 3530 14478 1289 2284 4543 24857 23944 31750 9505 20726 3831 10065 7903
is_linear=0
shrinkage=0.03


Tree=2
num_leaves=63
num_cat=0
split_feature=185 187 187 186 186 186 185 186 187 185 187 93 93 187 116 27 187 27 187 185 78 187 93 27 187 93 93 185 93 186 185 27 27 186 93 187 78 185 185 27 187 186 185 27 78 27 185 78 93 187 21 27 186 93 93 187 93 187 27 93 93 93
split_gain=1.294 0.926637 0.773405 0.547796 0.358048 0.286248 0.207509 0.170286 0.139149 0.10962 0.101194 0.0736053 0.0692529 0.0599845 0.0565532 0.0541997 0.0481079 0.0468508 0.0408821 0.0352151 0.029152 0.0286291 0.0283422 0.0269872 0.0233714 0.0224746 0.0199911 0.018338 0.0175474 0.0170945 0.0161102 0.0174104 0.0156412 0.0153029 0.0144716 0.0139379 0.0132656 0.0128345 0.0126695 0.0122778 0.0116799 0.0103483 0.0101136 0.0101872 0.00980041 0.00971705 0.00933115 0.00920847 0.00886254 0.00871534 0.00827823 0.0074069 0.00721873 0.00696886 0.00681386 0.00672901 0.00677968 0.00668899 0.00657957 0.006233 0.00565107 0.00508964
threshold=-0.0041685001924633971 0.0075394781306386003 -0.015519385226070879 0.031863173469901092 -0.031193793751299378 0.0011754647712223234 0.010608410462737085 -0.0053305432666093102 0.031134116463363174 0.0038301752647385006 -0.0013470754493027923 -0.004159271949902176 0.0057049628812819728 -0.031529180705547326 -0.05860456079244613 0.004168557235971094 0.015827951952815059 -0.0080489567480981333 -0.0080176591873168928 0.0015167308738455179 -0.0010386196081526575 -0.00011720212933141737 0.00081548737944103788 -0.00040858103602658952 -0.011551306117326019 0.0019029842806048693 -0.0026972246123477812 0.0082164397463202494 -0.0034899914171546693 0.0031732503557577734 -0.00078631294309161593 -0.00055508202058263112 0.012175677809864284 0.0035399509361013774 -0.0065382285974919787 -0.023629467003047463 0.0013496170286089184 -0.0071519971825182429 -0.0082007092423737032 -0.0015516644343733785 -0.00030655438604298974 0.0028971977299079303 -0.00068115623435005535 0.00079992791870608937 -0.0035993538331240411 0.0016448039095848801 -0.031689370051026337 -0.0032306363573297854 0.002768265083432198 -0.0031244907295331355 1.0311946272850039 0.00067744968691840779 0.0062987057026475677 0.0019461420015431943 -0.002828369382768869 -0.023629467003047463 0.016293129883706573 0.0012473574606701734 0.0026644706958904867 0.016293129883706573 0.003027698840014637 -0.0081422678194940073
decision_type=2 2 2 2 2 2 2 2 2 2 2 2 2 2 2 2 2 2 2 2 2 2 2 2 2 2 2 2 2 2 2 2 2 2 2 2 2 2 2 2 2 2 2 2 2 2 2 2 2 2 2 2 2 2 2 2 2 2 2 2 2 2
left_child=2 5 4 6 13 10 11 18 -5 20 17 29 35 46 -10 37 26 24 25 39 33 38 49 27 50 -4 -8 -11 -18 61 31 -24 -23 47 -20 -6 -21 -9 -17 -12 60 -22 43 -41 58 -39 -1 -7 -26 -19 -2 -44 -34 57 -29 56 -14 -38 -35 -57 -36 -3
right_child=1 3 7 8 12 9 16 15 14 23 19 -13 55 -15 -16 21 28 22 34 36 41 32 30 -25 48 -27 -28 54 -30 -31 -32 -33 52 44 40 -37 53 45 -40 42 -42 -43 51 -45 -46 -47 -48 -49 -50 -51 -52 -53 -54 -55 -56 59 -58 -59 -60 -61 -62 -63
leaf_value=-0.0016355277214527824 -0.00024314347311666618 7.7045206972735634e-06 -0.00032880288932263669 0.00052914603899909462 -0.00082292063427822921 -4.8268996267376911e-05 0.00014771940683652705 -0.00018371420021998431 0.0021358947271614202 7.2284851591456574e-05 -6.2002289797078607e-05 0.00023568690191632513 -0.00050477384650682809 -0.00066382768883482368 0.0010732864261225677 -9.434137203876195e-05 0.00036715569981973269 -0.00012673449517883623 -0.00023870382755777808 6.3598399221723122e-06 5.0347642350332963e-05 0 -0.00011221239972067292 0.0001897105514443396 -0.00015513523869119567 -0.00017905555205447216 0.00032612660667898883 0 0.00060628754518380983 0.00012518992510740742 -6.5643475863840232e-06 -3.1820438282750733e-05 2.7183024710758563e-05 4.7625677177799933e-06 -0.00015053965522787425 -0.00048780209780844381 6.2970321508153954e-06 -0.00013446058672653358 -1.3434319295474914e-05 -4.1093575157492055e-05 -2.1260662474737871e-05 0.00011140473896090582 4.739589200596723e-07 -3.107992609460173e-06 6.4980832180989162e-05 -6.6368757339258159e-05 -0.00084782554217158472 7.4586432620875634e-06 0 -6.2535841883305633e-05 -0.0006587033999613472 3.9941288076345719e-05 0.00018849786250761896 0.00011164520927992467 0.00014313703233082427 -0.00022512416247826646 -0.00022784467673036095 5.7634477441038288e-05 6.6869045556037349e-05 0 -9.2216287753149453e-06 7.6454189623772017e-05
leaf_weight=300 572 3295 2649 353 346 3173 1270 1976 122 13827 3502 3900 396 223 266 4295 1365 3256 1745 10163 14195 5104 3266 3578 1132 2369 2277 318 840 3788 18552 13912 821 9219 6915 1139 4007 3677 3762 10390 1114 3822 31382 18898 7117 7485 117 16315 568 10317 121 5116 676 1902 6710 965 498 8930 2031 149 502 1848
leaf_count=300 572 3295 2649 353 346 3173 1270 1976 122 13827 3502 3900 396 223 266 4295 1365 3256 1745 10163 14195 5104 3266 3578 1132 2369 2277 318 840 3788 18552 13912 821 9219 6915 1139 4007 3677 3762 10390 1114 3822 31382 18898 7117 7485 117 16315 568 10317 121 5116 676 1902 6710 965 498 8930 2031 149 502 1848
internal_value=-5.33415e-08 2.75473e-05 -0.000143925 0.000226986 -0.000536812 1.04495e-05 0.000194079 -0.000105887 0.00103133 5.59807e-05 -1.44939e-05 0.000125106 -0.000410605 -0.00120134 0.00144833 -6.08446e-05 0.000345305 -4.8248e-05 -0.000186765 3.85335e-06 3.24188e-05 -1.99115e-05 -4.1558e-05 0.000109245 -0.000179778 -0.000261121 0.000266506 9.47166e-05 0.000465172 7.51271e-05 -2.68966e-05 -4.79811e-05 2.48303e-05 1.69266e-05 -0.000148985 -0.000576232 3.44759e-05 -0.000105369 -5.84288e-05 -6.98021e-06 -0.000128862 6.41351e-05 -3.82275e-06 -1.70961e-05 3.66002e-05 -9.01485e-05 -0.00145173 -8.46149e-07 -0.000106478 -7.90455e-05 -0.000337754 6.41762e-06 0.000110083 5.27204e-05 0.000136707 -0.000280537 -0.000367494 4.28939e-05 1.73106e-05 -0.000197159 -0.000142998 3.53292e-05
internal_weight=292838 245615 47223 19324 4133 226291 18583 43090 741 80305 145986 12831 3493 640 388 27796 5752 51696 15294 94290 55872 14658 49303 24433 2393 5018 3547 20855 2205 8931 35730 17178 6601 37855 10276 1485 25002 13138 8057 69288 8531 18017 65786 29288 18367 11162 417 19488 1700 13573 693 36498 1497 14839 7028 2008 894 12937 11250 1114 7417 5143
internal_count=292838 245615 47223 19324 4133 226291 18583 43090 741 80305 145986 12831 3493 640 388 27796 5752 51696 15294 94290 55872 14658 49303 24433 2393 5018 3547 20855 2205 8931 35730 17178 6601 37855 10276 1485 25002 13138 8057 69288 8531 18017 65786 29288 18367 11162 417 19488 1700 13573 693 36498 1497 14839 7028 2008 894 12937 11250 1114 7417 5143
is_linear=0
shrinkage=0.03


Tree=3
num_leaves=63
num_cat=0
split_feature=185 186 187 187 186 187 186 187 185 185 93 186 187 116 187 187 27 78 93 27 93 185 93 187 27 187 185 78 93 93 27 187 186 93 185 187 187 187 27 186 27 78 78 185 27 27 187 185 93 27 185 185 185 93 78 187 186 27 93 187 185 186
split_gain=1.22304 0.842648 0.811589 0.472839 0.357382 0.263617 0.210455 0.14713 0.122797 0.104105 0.0798035 0.0769122 0.0618564 0.0587907 0.0558326 0.0533051 0.0429224 0.038051 0.0365637 0.0344292 0.0331685 0.0330287 0.0286771 0.0262575 0.0255471 0.0254545 0.0206879 0.0201566 0.016458 0.0164215 0.0150636 0.0148746 0.0131059 0.0122628 0.0119595 0.0118075 0.0113471 0.0110253 0.0106227 0.0105908 0.0103934 0.00965851 0.00917049 0.00838805 0.00828215 0.00815207 0.0080984 0.00786096 0.00785916 0.0073706 0.00729515 0.00727045 0.00713834 0.00680266 0.00648082 0.00624482 0.00593218 0.00588605 0.00579767 0.0056565 0.00564741 0.00555251
threshold=-0.0024227404501289125 0.0090022413060069102 -0.015519385226070879 0.031134116463363174 -0.031193793751299378 0.0022778732236474757 -0.0053305432666093102 0.0099468464031815546 0.033219575881958015 0.0049869392532855281 0.009162128437310459 -0.00061896373517811288 -0.0016525971586816011 -0.05860456079244613 -0.031529180705547326 -0.0069745390210300675 -0.0092710610479116422 -0.0047233721707016221 -0.0018438976840116081 0.0060216137208044538 -0.0014854954206384716 0.0016945864190347495 0.00088941428111866127 -0.011551306117326019 -0.00087236365652643133 -0.023629467003047463 0.01181745156645775 0.00027464808954391634 0.00042568081698846077 -0.0065382285974919787 0.0023851499427109961 0.017555319704115394 0.0028971977299079303 0.0012358197709545495 0.0009302458493039013 -0.0047009463887661687 -0.0047009463887661687 -0.00061313665355555702 0.0017187583143822851 -0.0026466829003766175 0.0015708667924627664 0.0027620643377304081 0.0025755248498171572 0.0042032131459563979 -0.0017108400352299211 -0.0019732936052605505 0.0042415738571435222 3.4058773962897255e-05 0.0075784195214509973 0.022555174306035045 0.0088843279518187063 -0.031689370051026337 -0.0058562178164720527 -0.0010532044689171014 0.0019342039013281467 -0.023629467003047463 0.0025808832142502074 1.0000000180025095e-35 -0.004036734113469719 0.00030302350933197891 0.0085220830515027064 -0.0022419382585212584
decision_type=2 2 2 2 2 2 2 2 2 2 2 2 2 2 2 2 2 2 2 2 2 2 2 2 2 2 2 2 2 2 2 2 2 2 2 2 2 2 2 2 2 2 2 2 2 2 2 2 2 2 2 2 2 2 2 2 2 2 2 2 2 2
left_child=2 5 4 7 14 11 15 17 -5 20 25 16 28 -10 51 22 23 43 -9 40 30 38 -4 -2 26 -6 -11 61 35 -17 34 -20 -21 59 -7 -8 48 53 44 41 -14 -29 -41 57 -13 -36 -22 -46 -30 -34 -25 -1 -42 -31 56 -12 -35 -3 -45 -23 -26 -18
right_child=1 3 6 8 10 9 12 18 13 24 55 21 19 -15 -16 29 27 -19 31 32 46 33 -24 50 60 -27 -28 39 36 37 -32 -33 49 54 45 -37 -38 -39 -40 42 52 -43 -44 58 47 -47 -48 -49 -50 -51 -52 -53 -54 -55 -56 -57 -58 -59 -60 -61 -62 -63
leaf_value=-0.0015865435049452273 -0.00035399552342495715 0 -0.00031392262626382856 0.00053713565123813612 -0.0007512636754992176 -1.4271179655735619e-06 -0.00020602889285913705 0.00026735306766641757 0.0021513708958536483 9.5613245645589001e-05 -0.00029363307217452776 -5.6096101602430706e-05 -7.8502933859262531e-05 0.0010489075132972447 -0.00064489265573427839 -0.00021191950143698251 -0.00010840409484169468 0.00025470565332845105 0.00038796009355146634 4.2372021079954712e-06 7.3873976417440678e-05 -7.1684320175262407e-06 -0.0001739916092877765 -0.00016949529079286692 0.00018817147783872993 -0.00043023537835386284 0.00018785329377519775 -5.6455379326659256e-05 -9.7941818749651589e-05 -0.00016595983524226234 9.523606120182984e-05 0.00064540989298907537 7.0464204382543016e-05 2.7589043777974575e-05 0 -9.6586761628338075e-05 -3.4588581139341952e-05 -2.9809915173901578e-05 3.8060641870080509e-05 -6.6398731184339238e-06 -7.5399853791391578e-05 -1.1902748758397924e-05 4.7452172267896453e-05 0 -8.6495380235441411e-06 5.3928197294941922e-05 0.0001445615567168184 1.4907431285935315e-05 -8.0189889027819787e-06 0.00026226451469689058 -1.4823958986023521e-05 -0.00082558800796447666 -1.1942331892709311e-05 -9.4175238070074531e-05 0.0001241578577803472 -0.00012612476410331342 7.3500565933239871e-05 8.8636852904081748e-05 0.00014754542286417465 3.3077703747157861e-05 0.00035048378262022309 -4.5631076579248955e-05
leaf_weight=300 533 1138 2869 338 490 11085 1414 2456 114 11141 823 2317 4029 256 225 1973 2152 2200 1545 3613 9716 3701 4034 633 2430 1546 3398 7458 7998 2960 2869 561 2409 6108 3671 7038 8778 1901 7244 20251 2021 13501 3269 178 27646 9687 2508 23294 1400 287 934 118 13103 5255 1741 886 7110 1705 2955 10473 544 8508
leaf_count=300 533 1138 2869 338 490 11085 1414 2456 114 11141 823 2317 4029 256 225 1973 2152 2200 1545 3613 9716 3701 4034 633 2430 1546 3398 7458 7998 2960 2869 561 2409 6108 3671 7038 8778 1901 7244 20251 2021 13501 3269 178 27646 9687 2508 23294 1400 287 934 118 13103 5255 1741 886 7110 1705 2955 10473 544 8508
internal_value=-5.57535e-08 3.60187e-05 -0.000104156 0.000266138 -0.000500736 2.07712e-05 -7.94596e-05 0.000222665 0.00102639 7.55021e-05 -0.000382451 -3.85621e-07 -4.7883e-05 0.00143152 -0.00116552 -0.000165273 -2.76518e-05 0.000143421 0.000361368 -1.37355e-05 4.79424e-05 1.68589e-05 -0.000234341 -0.000161907 0.000136859 -0.000515028 0.000118209 -2.22652e-05 -7.9971e-05 -0.000124585 2.87431e-05 0.000463798 4.6041e-05 4.31558e-05 2.03231e-05 -0.000116682 -6.20721e-05 -0.000106059 3.94799e-06 -1.2952e-05 -3.42097e-05 -2.84729e-05 2.41385e-07 9.99246e-05 -4.10665e-07 3.94945e-05 8.96093e-05 1.82824e-06 -8.61433e-05 9.64897e-05 -8.6908e-05 -0.00140881 -2.14161e-05 -0.000121875 6.26608e-05 -0.000215628 5.34216e-05 5.33782e-05 0.00013736 2.15108e-05 0.000222958 -5.9715e-05
internal_weight=292838 217368 75470 13446 4388 203922 71082 12738 708 57049 3745 146873 52090 370 643 18992 57239 8176 4562 25462 39536 89634 6903 2100 17513 2036 14539 55139 26628 12089 27312 2106 6309 29133 24443 8452 18176 10116 60501 44479 19153 20959 23520 5976 53257 13358 12224 50940 9398 2696 1567 418 15124 8215 14959 1709 13218 2843 3133 14174 2974 10660
internal_count=292838 217368 75470 13446 4388 203922 71082 12738 708 57049 3745 146873 52090 370 643 18992 57239 8176 4562 25462 39536 89634 6903 2100 17513 2036 14539 55139 26628 12089 27312 2106 6309 29133 24443 8452 18176 10116 60501 44479 19153 20959 23520 5976 53257 13358 12224 50940 9398 2696 1567 418 15124 8215 14959 1709 13218 2843 3133 14174 2974 10660
is_linear=0
shrinkage=0.03


Tree=4
num_leaves=63
num_cat=0
split_feature=188 185 187 188 187 188 186 187 188 185 188 185 185 53 186 186 107 187 93 186 31 187 187 93 189 186 78 185 188 93 187 31 187 188 186 186 185 187 187 189 187 188 31 93 31 186 187 93 78 187 93 188 93 93 188 78 185 93 31 78 187 186
split_gain=1.18632 0.927163 0.762255 0.517193 0.265097 0.260032 0.243021 0.208124 0.130212 0.117327 0.101264 0.0777034 0.0526525 0.0497955 0.0424039 0.03916 0.0365155 0.0365011 0.0307078 0.0284443 0.024962 0.0229753 0.0183214 0.0181368 0.0163863 0.0152907 0.0152208 0.0149913 0.0135048 0.0127457 0.0126934 0.0118152 0.0110989 0.00964103 0.00935097 0.00888539 0.00826077 0.00657416 0.00646551 0.00633868 0.0062962 0.00577323 0.00573698 0.00500803 0.00497534 0.00485894 0.00476438 0.00466374 0.00460398 0.00412481 0.00407172 0.00406439 0.00386349 0.00375689 0.00351614 0.00335223 0.00320405 0.00302861 0.00301415 0.00300633 0.00297107 0.00278542
threshold=-0.0049366604071110478 0.0076449408661574134 -0.023629467003047463 0.023984282277524475 0.0012473574606701734 -0.031751466915011399 -0.0080130305141210539 0.031134116463363174 0.008119198493659498 -0.001643996511120349 0.0031645561102777724 -0.0034969111438840623 -0.011814832687377928 0.00077518282341770839 0.0056193966884166011 -0.002769914572127163 0.04985525272786618 0.013406750280410053 -0.0011168069322593508 0.00047863701183814561 -0.0046766449231654397 -0.00081727872020564963 -0.0058047552593052379 0.013578023295849563 0.32300578057765966 0.012206519022583963 0.002699284348636866 0.00060095769003964971 -0.014625122770667074 0.0018619768670760097 -0.0054924213327467433 0.0011805390240624549 0.0024948290083557372 -0.00054269630345515896 0.0045733647421002397 -0.031193793751299378 0.0020872270688414578 -0.0013470754493027923 0.0029007719131186609 0.025511215440928939 0.0034030906390398745 -0.00088734470773488272 0.0011204674956388774 0.00083926174556836497 -0.0018390843761153517 -0.00078646445763297368 -0.0047009463887661687 0.0014945977018214764 -0.0044226672034710637 -0.00061313665355555702 0.0043511146213859328 0.011775202117860319 0.002768265083432198 0.00021164452482480558 1.0000000180025095e-35 0.0037824497558176522 -0.0038101198151707645 -0.0036887290189042683 -0.0042459487449377767 -0.00033209634420927609 -0.0053379179444164029 0.0079454928636550921
decision_type=2 2 2 2 2 2 2 2 2 2 2 2 2 2 2 2 2 2 2 2 2 2 2 2 2 2 2 2 2 2 2 2 2 2 2 2 2 2 2 2 2 2 2 2 2 2 2 2 2 2 2 2 2 2 2 2 2 2 2 2 2 2
left_child=2 4 5 8 9 16 12 25 20 15 18 22 28 -9 36 30 35 61 27 33 32 43 48 -7 -16 -5 -14 45 -4 49 47 -17 54 44 -23 -1 42 50 -20 -38 -29 56 -12 -13 -11 57 -45 -2 -8 -21 -31 -26 -32 -51 -3 -24 -33 -6 -42 -35 -28 -10
right_child=1 3 6 7 10 23 11 13 17 19 14 21 26 -15 24 31 -18 -19 38 29 -22 34 55 -25 51 -27 60 40 -30 37 52 41 -34 59 -36 -37 39 -39 -40 -41 58 -43 -44 46 -46 -47 -48 -49 -50 53 -52 -53 -54 -55 -56 -57 -58 -59 -60 -61 -62 -63
leaf_value=-0.0012441849467735848 -0.00020443881346179899 0 -0.00044710364527685828 0.00023390765694623243 -4.1833752472244322e-05 -0.00061941115947022993 -0.00024198393921509595 0.0010058864989109988 0.00017707076263850295 -4.7470590055587742e-05 8.8571678730224865e-06 -0.00010067540644366604 -0.00027077231106400882 0.0019215941998312444 0.00013204806303959761 -6.2762510650111382e-05 -0.0018050558968320033 0.00039259418693026008 4.8136906313709331e-05 -1.3369319410471608e-05 0.00018662115405439526 -5.4960200860541387e-06 -0.00010343201263628374 -0.00028956082830357868 0.00018066515236083049 0.00060036609443020678 -0.00019281319131347733 5.2722829286850483e-06 -0.00027916634511781406 5.6147923716128804e-06 -7.3185144175733931e-05 -5.3452339868107666e-05 0.00011651585396992729 -2.8778263589512289e-05 8.6042679209470853e-05 -0.00060120138620507052 7.7530442985906513e-05 7.4124881033888894e-05 9.9836518331740523e-05 0.0001494996527728275 0 -6.7087299669559041e-06 6.6378400988938946e-05 -6.7879753757701348e-05 -1.499843913344295e-05 4.6871204778015668e-06 -5.2819787189646863e-07 -0.00010724125362681454 -0.00014900414567074787 4.019134837631651e-07 4.7769466035310274e-05 0.000353444923104127 0 2.9327138932147344e-05 6.1824204885979435e-05 0 -1.481855296215087e-05 0 5.1932040864208762e-05 2.4177371487199948e-06 -0.00010840987407253164 0.00026631365089943885
leaf_weight=253 1070 1433 1468 337 4321 649 1623 360 2252 6759 3062 2938 2330 138 6053 8834 179 2204 13204 5419 3422 5581 7128 504 980 541 2122 6105 1818 5110 13673 5947 4690 3031 1175 151 8484 5096 3631 2026 830 14172 5661 2764 18241 12422 2150 4197 3471 9351 4974 611 734 8969 2407 307 4851 3592 9272 33367 1982 2412
leaf_count=253 1070 1433 1468 337 4321 649 1623 360 2252 6759 3062 2938 2330 138 6053 8834 179 2204 13204 5419 3422 5581 7128 504 980 541 2122 6105 1818 5110 13673 5947 4690 3031 1175 151 8484 5096 3631 2026 830 14172 5661 2764 18241 12422 2150 4197 3471 9351 4974 611 734 8969 2407 307 4851 3592 9272 33367 1982 2412
internal_value=-6.17361e-08 2.34124e-05 -0.000155093 0.000218459 6.51739e-06 -0.000771023 -0.000125665 0.000783004 0.000176367 -1.64729e-05 5.07617e-05 -7.87569e-05 -0.000255073 0.0012914 9.84586e-05 -5.23739e-05 -0.00130333 0.000281984 2.64631e-05 2.51616e-06 0.000114411 -3.0404e-05 -0.000133933 -0.000488419 0.000159935 0.000476997 -0.000199736 1.05179e-05 -0.000358812 2.26995e-05 -8.64835e-05 -3.20772e-05 8.36751e-05 -1.00335e-05 8.20945e-06 -0.00104198 7.32417e-05 4.44057e-05 6.01812e-05 9.28375e-05 3.21935e-05 -2.06195e-05 4.79081e-05 -6.55363e-05 -2.43784e-05 -6.0202e-06 -4.1467e-05 -0.000129852 -0.000181594 8.18691e-06 2.78966e-05 0.000256534 -6.95834e-05 1.53821e-05 3.96492e-05 -9.92508e-05 -3.74867e-05 -2.47235e-05 4.6977e-05 0 -0.000155724 0.000226462
internal_weight=292838 254245 38593 20196 234049 1736 36857 1376 18820 153795 80254 27137 9720 498 26877 53478 583 6868 53377 100317 11952 14608 12529 1153 7644 878 6434 36542 3286 38919 19674 33804 8530 61398 6756 404 19233 15180 16835 10510 16207 24970 8723 7852 25000 20335 4914 5267 5094 23739 10084 1591 14407 18320 3840 7435 10798 7913 10102 36398 4104 4664
internal_count=292838 254245 38593 20196 234049 1736 36857 1376 18820 153795 80254 27137 9720 498 26877 53478 583 6868 53377 100317 11952 14608 12529 1153 7644 878 6434 36542 3286 38919 19674 33804 8530 61398 6756 404 19233 15180 16835 10510 16207 24970 8723 7852 25000 20335 4914 5267 5094 23739 10084 1591 14407 18320 3840 7435 10798 7913 10102 36398 4104 4664
is_linear=0
shrinkage=0.03


Tree=5
num_leaves=63
num_cat=0
split_feature=188 185 187 188 188 186 187 186 188 185 187 100 187 114 185 100 188 93 187 100 185 27 187 185 27 78 188 100 188 78 78 188 187 27 27 93 100 186 100 188 100 188 186 100 188 186 188 186 27 185 188 100 78 186 100 188 185 186 78 100 93 188
split_gain=1.10743 0.865447 0.675829 0.486408 0.281975 0.241499 0.191598 0.180621 0.120622 0.101305 0.0921151 0.0671267 0.0631835 0.0556801 0.0493376 0.0411232 0.0375122 0.0366323 0.0335308 0.0290722 0.0290131 0.0255392 0.0244147 0.0200754 0.0163483 0.0159659 0.0146274 0.0139917 0.0137427 0.0128307 0.0124466 0.0114278 0.011268 0.0110275 0.0107244 0.00962478 0.00896067 0.00818909 0.00817076 0.00788924 0.00843235 0.00736835 0.00690503 0.00551577 0.0053487 0.0053328 0.00496416 0.00486284 0.00485843 0.00600937 0.00449304 0.00579241 0.00434144 0.00422902 0.00402051 0.00379756 0.00376011 0.00357106 0.00369642 0.00328488 0.00315111 0.00307942
threshold=-0.0044790864922106257 0.0076449408661574134 -0.01732754427939653 0.023984282277524475 -0.031751466915011399 0.0012170539703220131 0.031134116463363174 -0.0053305432666093102 0.0087785990908741968 -0.0015214650193229315 0.003548373002558947 0.0042426094878464946 -0.031529180705547326 -0.0058185227680951348 -0.010078178253024815 -0.0022602742537856098 0.0057356369215995082 0.0080269896425306814 -0.0026201164582744236 -0.014394144527614115 0.0012520093005150559 -0.0041115635540336362 0.00046676745114382362 -0.00068115623435005535 0.0069325817748904237 0.0022063838550820951 -0.0076235055457800618 -0.0041070841252803794 0.014463504776358606 -0.0013584453263320027 0.0017730343388393523 -0.011834802106022833 0.003548373002558947 0.00050293590174987923 0.00092551531270146381 -0.0022293040528893466 0.01203107461333275 -0.010308546014130114 0.0017413922469131651 -0.00078307359945029009 0.00033953167439904069 -0.0081842988729476911 -0.0012139288592152295 -0.014394144527614115 0.015916049480438236 -0.0063369688577949992 -8.5760966612724574e-05 -0.031193793751299378 -0.0042369475122541181 0.004102483158931137 -0.00071628438308835019 0.00069294567219913017 0.0044797363225370654 0.0023519019596278672 -0.00042975750693585718 0.00017730839317664507 0.01181745156645775 -0.00048730570415500546 0.00019228289602324369 -0.0041070841252803794 -0.00022589791478822005 -0.011834802106022833
decision_type=2 2 2 2 2 2 2 2 2 2 2 2 2 2 2 2 2 2 2 2 2 2 2 2 2 2 2 2 2 2 2 2 2 2 2 2 2 2 2 2 2 2 2 2 2 2 2 2 2 2 2 2 2 2 2 2 2 2 2 2 2 2
left_child=2 5 4 8 12 9 19 14 21 18 20 26 47 -8 31 43 35 -6 27 -5 29 32 39 41 -18 -16 -9 45 -17 50 57 -4 55 48 -20 -12 -25 -27 -28 40 -11 -13 52 -10 -45 -2 54 -1 -22 -50 51 -7 -32 -38 -36 -3 -34 -24 -59 -57 -41 -19
right_child=1 3 7 6 17 10 13 11 15 22 16 23 -14 -15 25 28 24 61 34 -21 33 -23 30 36 -26 37 38 -29 -30 -31 42 -33 56 -35 46 -37 53 -39 -40 60 -42 -43 -44 44 -46 -47 -48 -49 49 -51 -52 -53 -54 -55 -56 59 -58 58 -60 -61 -62 -63
leaf_value=-0.0015162348737405649 -0.00018392700641972219 3.8520413784695812e-06 -0.00034304951220595587 0.0002225830444230509 -0.0005290629656404224 -6.0931757108071234e-05 0.0018838833784190904 -0.0002027420368914246 0 -5.7853632546534672e-05 5.1453143730399182e-05 -7.4982970532423208e-05 -0.00054043659100529531 0.00095214975023257074 -0.00019898572633982235 0.00030424443042591183 0.00013407133820411043 -0.00034209222102478637 -6.123963808764632e-05 0.00064526084162287234 0 0.0001958624051406089 -1.0834921142014402e-05 6.0584142860076354e-07 0.00027016461907248477 -0.00015813947341800758 -0.00013536581265981472 -6.4574870732487884e-05 0.00049525292113053899 4.1737442465866074e-05 6.1887434381883987e-06 -0.00021287273848711905 7.9794234251890457e-05 0.00011080478458888131 -6.5681737803512035e-05 0.0001053354389320664 1.1924238725833629e-05 -7.4123446150906104e-05 -6.6098575794616349e-05 -2.5850524320981074e-05 -1.1307664866603681e-05 -7.8513956128264218e-06 7.2588360671580442e-05 0.00015657411585423255 0.00028555807845214007 -8.9717653133352288e-05 -2.3169920413757195e-06 -0.00081045906333687147 3.6535073085359482e-05 7.6119333081990382e-05 6.6126816960951564e-06 -4.762554472671578e-07 4.932621969605766e-05 0.00013248900278408474 -2.0787660370267851e-05 0 0.00015875654339135871 1.6431802160899549e-07 2.9136876081686516e-05 8.2023625416102828e-05 2.2626183838784092e-06 -0.00015972343315424667
leaf_weight=324 1687 1659 2056 414 1360 2336 141 1672 171 5153 9289 4110 198 355 4375 2164 5619 676 7504 488 1863 3029 6190 5446 1299 2696 3442 15807 907 7995 5846 2349 2152 2965 2777 6276 825 3488 5509 3990 14917 3151 5260 1988 974 2360 11278 126 15084 6169 15243 5035 4398 869 11619 363 2407 9515 8432 2814 33787 608
leaf_count=324 1687 1659 2056 414 1360 2336 141 1672 171 5153 9289 4110 198 355 4375 2164 5619 676 7504 488 1863 3029 6190 5446 1299 2696 3442 15807 907 7995 5846 2349 2152 2965 2777 6276 825 3488 5509 3990 14917 3151 5260 1988 974 2360 11278 126 15084 6169 15243 5035 4398 869 11619 363 2407 9515 8432 2814 33787 608
internal_value=0 2.42354e-05 -0.000140141 0.000213405 -0.000554358 7.67679e-06 0.000756188 -0.000105659 0.000171846 -1.45559e-05 5.01338e-05 -5.55005e-05 -0.00112848 0.00124886 -0.000188532 0.000281598 0.00010179 -0.000407792 -4.79442e-05 0.000468111 2.93817e-05 0.000115824 3.45315e-06 -1.2125e-05 0.000161811 -0.000150165 -0.000112887 -7.92225e-05 0.000365613 8.97587e-06 2.1699e-05 -0.000277069 8.84133e-05 5.27545e-05 -2.8774e-05 7.41455e-05 2.21752e-05 -0.000113187 -9.44162e-05 -8.79103e-06 -2.40069e-05 -4.79186e-05 4.28904e-05 0.000194413 0.000204092 -0.000132713 -1.86997e-05 -0.00135303 4.46575e-05 4.87323e-05 -1.9441e-06 -2.16734e-05 2.61744e-05 8.26454e-05 -3.04917e-05 5.10128e-05 0.000124786 7.46501e-06 1.46126e-05 7.09145e-05 -3.09928e-07 -0.00026751
internal_weight=292999 249719 43280 20026 3292 229693 1398 39988 18628 150520 79173 25024 648 496 14964 6204 22483 2644 53032 902 56690 12424 97488 14401 6918 10559 10623 19854 3071 30609 39641 4405 9395 26081 33178 15565 7140 6184 8951 57847 20070 7261 15504 3133 2962 4047 25674 450 23116 21253 22614 7371 10244 1694 14396 4836 4559 24137 17947 3177 37777 1284
internal_count=292999 249719 43280 20026 3292 229693 1398 39988 18628 150520 79173 25024 648 496 14964 6204 22483 2644 53032 902 56690 12424 97488 14401 6918 10559 10623 19854 3071 30609 39641 4405 9395 26081 33178 15565 7140 6184 8951 57847 20070 7261 15504 3133 2962 4047 25674 450 23116 21253 22614 7371 10244 1694 14396 4836 4559 24137 17947 3177 37777 1284
is_linear=0
shrinkage=0.03


Tree=6
num_leaves=63
num_cat=0
split_feature=188 185 185 188 188 185 100 185 188 31 188 188 185 100 188 100 31 185 31 140 185 31 185 185 100 31 31 31 100 188 31 100 188 100 188 188 100 188 188 185 31 31 100 185 185 31 185 188 188 185 31 31 31 188 100 188 188 100 100 31 188 185
split_gain=1.0447 0.831446 0.565303 0.479496 0.238181 0.215736 0.190016 0.177604 0.13028 0.108493 0.0854311 0.066772 0.0612606 0.0587306 0.051376 0.0451831 0.0351497 0.0324459 0.0394843 0.0316003 0.0305446 0.0296262 0.0330206 0.0277733 0.0267298 0.0266622 0.0245769 0.0239281 0.0216702 0.0190928 0.0186529 0.0173696 0.0157212 0.0125459 0.0125061 0.011965 0.0125442 0.0113217 0.0105971 0.0103989 0.0102054 0.0100846 0.00974118 0.00898318 0.00832119 0.0114773 0.00816723 0.00752009 0.00720285 0.0067079 0.00603143 0.00593716 0.00587528 0.00549425 0.00611369 0.00541497 0.0051471 0.00510942 0.00505033 0.00483128 0.00476239 0.00472703
threshold=-0.0051957992836832992 0.0067248884588480004 -0.019834565930068489 0.023984282277524475 -0.031751466915011399 0.00031629354634787893 0.0024805590510368352 0.033219575881958015 0.008119198493659498 0.00094941575662232946 -0.011834802106022833 -0.0012226060498505829 -0.0044726512860506764 0.00011429142978158781 0.032360779121518142 -0.002158243209123611 0.00050280944560654472 0.0027839712565764789 -0.0028150277212262149 -0.068261682987213121 -0.031689370051026337 0.0060035563074052343 -0.0060213371179997912 -0.0060213371179997912 -0.011114435736089943 -0.0034709607716649766 -0.0016707408940419553 0.0037332192296162252 0.0065356155391782531 0.013425176963210108 -0.00031319758272729809 -0.0024876459501683708 -0.017720014788210389 0.0023266040952876215 -0.0096770757809281332 0.0021123937331140046 0.0022217858349904422 -0.0076235055457800618 -0.0027231916319578882 -0.0022096936590969558 0.016529885120689872 -0.0056248479522764674 0.0013597985962405803 0.002419801778160036 0.0030532708624377851 -0.0028852542163804169 0.0044059085194021472 -0.020058335736393925 0.0068463236093521127 -0.011814832687377928 0.0092705842107534426 -0.00031319758272729809 -0.0032871082657948132 0.012555109802633526 -0.012484933715313671 -0.0026580496923997994 -0.010110248811542986 -0.0041070841252803794 0.013730623293668033 -0.0012412499054335056 -0.014625122770667074 0.0047388675156980762
decision_type=2 2 2 2 2 2 2 2 2 2 2 2 2 2 2 2 2 2 2 2 2 2 2 2 2 2 2 2 2 2 2 2 2 2 2 2 2 2 2 2 2 2 2 2 2 2 2 2 2 2 2 2 2 2 2 2 2 2 2 2 2 2
left_child=2 5 4 8 20 11 10 24 25 17 47 13 16 31 -9 53 60 26 41 -16 -1 22 -13 40 -5 35 52 43 34 -17 -24 -2 -6 38 -14 36 -3 -12 -15 -32 49 -19 57 -11 45 -30 59 -4 -42 -23 -25 -28 -7 -10 -55 -33 -18 -37 -46 -20 -8 -43
right_child=1 3 6 7 32 9 12 14 15 27 37 21 28 33 19 29 56 18 46 -21 -22 23 30 50 -26 -27 51 -29 44 -31 39 55 -34 -35 -36 42 -38 -39 -40 -41 48 61 -44 -45 58 -47 -48 -49 -50 -51 -52 -53 -54 54 -56 -57 -58 -59 -60 -61 -62 -63
leaf_value=-0.0013319464773350732 -0.00018661455964438998 0 -0.00069103655411510267 0.00024377351179101048 -0.00053366108748494035 -7.0848060946433715e-05 -0.00032410206757400292 0.00056992904189355931 0.0001185458226616572 7.6070330435106925e-05 -0.00023590247094207249 -0.00011343064549833022 -0.00019834488913507919 -6.2420821375717592e-05 0.001912491229535193 0.00027423181851944346 -0.00013267540009469656 -5.3852235831420837e-05 3.6753596679317885e-05 0.0010119791111589693 -0.00061548650363374294 -7.2173629587101476e-05 -5.0523030744968404e-05 9.0818285074548898e-05 0.00065295516411667455 0.00017827673852691009 1.0879706897246778e-05 0.00022932218657659297 -0.00013197124152992322 0.00045943120323614813 -2.0336752203421363e-05 -0.00011132640513812715 -0.00029931129390543246 0 -5.2548839726666083e-05 0 8.9367268200858522e-05 -0.00015082331634304615 -1.9615234484828175e-05 6.0930645444700443e-06 0 0 0.00019329590573834407 0.00014982413012810879 3.5828055213825017e-06 0 0.00010007734589768484 -0.00037449945421098705 0.00019873209028036797 1.0499914411203402e-05 0.0002288959793801379 3.5462414595518039e-05 -1.4223410262199964e-05 3.5463008013529384e-05 0.00024461386719070328 -6.2904206301725926e-05 -6.2109651378001353e-05 9.3481122834023004e-05 0.00010484159387324238 7.78314102775501e-05 -0.00015885242980517167 3.8331951174509906e-05
leaf_weight=396 2023 2836 226 511 900 2384 979 169 1826 5946 3365 2719 695 10155 144 2546 2826 2047 7735 222 173 1141 7750 1879 389 3464 22707 1929 684 1155 18518 5276 1046 10482 6254 531 2447 6063 13689 47802 533 5538 1220 3132 1481 4929 7865 1407 399 3203 661 17632 9272 323 1832 7771 3245 4840 949 6658 791 5289
leaf_count=396 2023 2836 226 511 900 2384 979 169 1826 5946 3365 2719 695 10155 144 2546 2826 2047 7735 222 173 1141 7750 1879 389 3464 22707 1929 684 1155 18518 5276 1046 10482 6254 531 2447 6063 13689 47802 533 5538 1220 3132 1481 4929 7865 1407 399 3203 661 17632 9272 323 1832 7771 3245 4840 949 6658 791 5289
internal_value=0 2.12973e-05 -0.000150423 0.000187689 -0.000585846 3.70323e-06 -0.000117663 0.000722494 0.000153685 3.75533e-05 -0.00022032 -2.09746e-05 -6.72725e-05 -4.87219e-05 0.00117297 0.000255835 -0.000135787 2.61241e-05 4.85193e-05 0.00140933 -0.00114118 -4.59705e-06 -1.04232e-05 5.07209e-05 0.000437553 0.000101538 1.07032e-05 0.000126655 -3.04347e-05 0.000336135 -6.43875e-06 -9.84631e-05 -0.00041551 -2.64461e-05 -6.93022e-05 7.78814e-05 3.95327e-05 -0.000182791 -3.84758e-05 -1.06064e-06 8.40566e-06 5.42931e-06 0.000106339 0.000103175 1.28343e-06 -1.68401e-05 7.2768e-05 -0.000427688 9.98415e-05 -7.76838e-06 0.000132693 2.19969e-05 -2.70942e-05 0.000177383 0.00022024 -8.36385e-05 -9.74362e-05 8.37781e-05 4.93129e-05 5.67998e-05 -0.000258791 1.80247e-05
internal_weight=292999 256590 36409 24455 2515 232135 33894 1435 23020 98134 11061 134001 22833 49396 535 7682 7841 87127 35132 366 569 84605 76789 7816 900 15338 51995 11007 14992 3701 74070 15070 1946 34326 6949 11874 5283 9428 23844 66320 5276 12874 6591 9078 8043 5613 22258 1633 932 4344 2540 40339 11656 3981 2155 13047 6071 5371 2430 14393 1770 10827
internal_count=292999 256590 36409 24455 2515 232135 33894 1435 23020 98134 11061 134001 22833 49396 535 7682 7841 87127 35132 366 569 84605 76789 7816 900 15338 51995 11007 14992 3701 74070 15070 1946 34326 6949 11874 5283 9428 23844 66320 5276 12874 6591 9078 8043 5613 22258 1633 932 4344 2540 40339 11656 3981 2155 13047 6071 5371 2430 14393 1770 10827
is_linear=0
shrinkage=0.03


Tree=7
num_leaves=63
num_cat=0
split_feature=185 186 186 185 185 185 186 186 78 27 78 27 27 27 185 27 186 186 78 78 186 185 186 78 27 78 27 78 185 27 78 78 186 152 78 186 186 78 78 27 78 186 186 78 78 185 186 78 186 186 186 185 185 27 186 185 185 78 27 186 78 78
split_gain=0.970022 0.707003 0.553033 0.376869 0.216443 0.182011 0.167984 0.113817 0.104594 0.0962949 0.0810747 0.0717437 0.0631655 0.0493671 0.0493905 0.0488753 0.0458141 0.041739 0.036175 0.0328566 0.0327315 0.0255203 0.0246461 0.0264882 0.0239997 0.0232859 0.022171 0.0219904 0.0209594 0.0204218 0.0158656 0.0156504 0.0154329 0.0145231 0.0129197 0.0166279 0.0125221 0.0223805 0.0164826 0.0101178 0.00935823 0.00927355 0.00898075 0.00866759 0.00847044 0.00795525 0.00793664 0.00979336 0.00781854 0.00722437 0.00686104 0.00670604 0.00628509 0.00539036 0.00520316 0.0051037 0.00500284 0.00475112 0.0042392 0.00400988 0.00534925 0.00399746
threshold=-0.0034969111438840623 0.0085972645319998282 -0.019617040641605851 0.033219575881958015 0.0019868054660037164 -0.031689370051026337 -0.0067356936633586875 0.031863173469901092 -0.0031457383884117003 -0.0022206065477803345 0.0011604333994910123 -3.3119986255769611e-05 0.0017974637448787691 0.0027251241263002162 -0.00085577403660863627 0.0031342215370386843 0.002241727896034718 0.019789723679423336 -1.0000000180025095e-35 0.0075644217431545266 0.015573609154671432 -0.0088597470894455892 -0.0001084585856006015 -0.0024641454219818111 -0.0058556636795401565 -0.0017292454140260813 0.0004577530780807138 -0.0086803487502038462 0.0058446014299988755 0.00062632051412947487 -0.0015356723451986907 -0.014265124220401047 -0.011489988304674624 -0.089583273977041231 0.0068271602503955373 -0.011489988304674624 -0.0042461513075977555 0.0046238158829510221 0.004228331847116352 0.0048787936102598914 0.002891033655032516 0.0028971977299079303 0.012206519022583963 0.0033287073019891982 -0.004568657372146844 0.00063715703436173509 0.008267864119261505 -0.0081501565873622877 0.0049220561049878606 -0.0029649164061993356 -0.0011748785036616025 -0.0016004256322048602 3.4058773962897255e-05 0.01387667888775468 -0.012195765506476162 0.0079313335008919256 -0.0020615191897377367 -0.01102566998451948 0.0018322721007280054 0.013137347996234896 -0.014265124220401047 0.013599869795143606
decision_type=2 2 2 2 2 2 2 2 2 2 2 2 2 2 2 2 2 2 2 2 2 2 2 2 2 2 2 2 2 2 2 2 2 2 2 2 2 2 2 2 2 2 2 2 2 2 2 2 2 2 2 2 2 2 2 2 2 2 2 2 2 2
left_child=2 4 5 8 9 15 10 -5 17 24 32 16 21 14 26 -1 25 27 44 -7 -10 -8 23 -14 -2 50 -11 59 58 45 46 55 -4 -9 35 -12 38 -38 -27 51 49 -32 -29 -20 -18 -16 47 -24 -46 -25 -6 -15 -26 -21 61 -19 -28 -48 -13 -3 -61 -36
right_child=1 3 6 7 11 19 12 33 20 13 34 28 22 39 29 -17 18 31 43 53 -22 -23 30 40 52 36 56 42 -30 -31 41 -33 -34 -35 54 -37 37 -39 -40 -41 -42 -43 -44 -45 48 -47 57 -49 -50 -51 -52 -53 -54 -55 -56 -57 -58 -59 -60 60 -62 -63
leaf_value=-0.0014683531512711065 -0.00024054133159034504 0 -0.00040900209923942213 0.00046653330340431202 -0.00023362384607404971 -0.0005692140489170982 -0.00035403860449008298 0.0017232961033145527 0.0002671820469192837 -5.6382178205896332e-05 -0.00024239946908033043 9.417862603378577e-05 -0.00017874964625891454 1.8917559253110573e-05 -8.1663776233228662e-06 -0.00073178109999784641 0 6.7675354082426172e-05 0.00012136869867058919 -0.00028957430508018243 0.00051684997878876607 -0.00011339204588883273 -0.00014463808614362765 -8.603785227157588e-05 -0.00011872059809950719 -0.00011840604504026507 -2.7205344733077789e-05 0.00010054677143036995 0.00024687395585076523 3.7357085946599848e-05 1.8961655429476125e-05 0.00038295820890163175 -0.00024608830762935211 0.00095811132476774545 -0.00012223528506118155 -0.00011929349145751167 2.6711581016441711e-05 0.0001223581232467007 1.0657449719532325e-05 0.0001243932804245163 0 0.00015648277019293777 0.00020707634167160504 0.00025289959774592291 4.2549313764622142e-05 1.3142045794990947e-05 -3.6083704184852339e-06 -2.7120866092964278e-05 9.2365616670473977e-05 -3.6481442871875916e-05 -4.3075237720898918e-05 7.8127979478020276e-05 -5.2873889891291129e-05 0 0 0.00024462291000992414 -1.5039840667485229e-06 8.4659868780496373e-05 0.00016541770506276729 0 9.8516492923448075e-05 0
leaf_weight=211 1114 1465 1224 470 297 738 485 124 3354 18518 1792 6801 1656 5375 39942 392 2128 606 5299 1117 768 9516 825 5749 3121 1083 13616 3220 1433 16728 3045 778 2889 276 1234 4658 27428 2530 4301 2062 2711 614 1618 798 10109 26031 1213 6255 5516 8043 1245 3413 4613 103 1034 603 16337 718 1765 482 1146 264
leaf_count=211 1114 1465 1224 470 297 738 485 124 3354 18518 1792 6801 1656 5375 39942 392 2128 606 5299 1117 768 9516 825 5749 3121 1083 13616 3220 1433 16728 3045 778 2889 276 1234 4658 27428 2530 4301 2062 2711 614 1618 798 10109 26031 1213 6255 5516 8043 1245 3413 4613 103 1034 603 16337 718 1765 482 1146 264
internal_value=0 2.66405e-05 -0.000111731 0.000226664 1.31143e-05 -0.000543611 -9.09368e-05 0.000837418 0.000187721 -7.09839e-06 -0.000184992 5.64387e-05 -6.0402e-05 -1.00924e-06 -6.20005e-06 -0.00101538 4.38072e-05 0.000132302 7.64734e-05 -0.000390441 0.000317395 -0.000126579 -3.84458e-05 -6.09359e-05 -0.000103137 2.22772e-05 -3.03091e-05 9.83957e-05 0.000131656 7.74895e-06 -5.02723e-06 0.000260029 -0.000298261 0.00123463 -0.000131441 -0.000155837 2.75825e-05 3.52917e-05 -1.25267e-05 6.03606e-05 -4.81999e-05 4.61556e-05 0.000139292 0.000141063 5.34427e-05 1.39697e-08 -2.74764e-05 -4.29424e-05 6.1098e-05 -5.82282e-05 -8.95645e-05 4.36231e-05 -8.13912e-05 -0.000269818 -6.33537e-05 0.000168396 -1.36883e-05 2.14597e-05 0.000110617 2.95658e-05 6.22623e-05 -9.95402e-05
internal_weight=292999 236513 56486 14910 221603 2561 53925 870 14040 150870 13095 70733 40830 142022 131172 603 60734 9918 23850 1958 4122 10001 30829 18159 8848 36884 48471 7931 9999 82701 12670 1987 4113 400 8982 6450 35342 29958 5384 10850 16503 3659 4838 6097 17753 65973 9011 7080 15625 13792 1542 8788 7734 1220 2532 1209 29953 1931 8566 3093 1628 1498
internal_count=292999 236513 56486 14910 221603 2561 53925 870 14040 150870 13095 70733 40830 142022 131172 603 60734 9918 23850 1958 4122 10001 30829 18159 8848 36884 48471 7931 9999 82701 12670 1987 4113 400 8982 6450 35342 29958 5384 10850 16503 3659 4838 6097 17753 65973 9011 7080 15625 13792 1542 8788 7734 1220 2532 1209 29953 1931 8566 3093 1628 1498
is_linear=0
shrinkage=0.03


Tree=8
num_leaves=63
num_cat=0
split_feature=188 185 187 188 188 187 185 187 188 188 185 100 187 27 100 100 188 185 114 187 185 188 27 188 188 187 188 100 100 100 185 188 100 188 100 188 100 27 100 100 100 185 188 27 100 100 188 100 188 100 185 27 185 100 185 100 100 188 27 27 185 27
split_gain=0.93816 0.718644 0.60304 0.403232 0.25353 0.221077 0.167213 0.122663 0.120975 0.0856833 0.0811577 0.0711794 0.0547751 0.0367244 0.0363972 0.0345478 0.0325237 0.0290345 0.0243207 0.0229457 0.0228898 0.0218991 0.021637 0.0209555 0.0193618 0.0188026 0.0149637 0.0141803 0.0125954 0.0106161 0.0101219 0.0099655 0.010899 0.00979074 0.00965854 0.00887256 0.00860318 0.00852844 0.00832273 0.00758882 0.00750364 0.00745222 0.00735144 0.00711913 0.00673031 0.00630897 0.007664 0.00625113 0.00612349 0.00607309 0.00573439 0.00572043 0.005903 0.00557636 0.00425071 0.00412527 0.00412259 0.0039496 0.00390285 0.00386787 0.00377952 0.00347056
threshold=-0.0035729751689359541 0.0092719318345189112 -0.01732754427939653 0.032360779121518142 -0.031751466915011399 0.0018849411862902345 -0.0063467747531831256 0.031134116463363174 0.011123900301754476 0.0042553644161671409 -0.0010392116964794693 0.0033398855011910204 -0.031529180705547326 0.00097654265118762862 -0.0042365386616438619 -0.00095400656573474396 -0.016036068089306351 -0.014489206951111553 -0.0058185227680951348 -0.0026201164582744236 0.001741054584272206 0.00095057385624386381 -0.0046657265629619351 -0.0068879881873726836 0.017714291810989383 -0.001606789242941886 0.0091483094729483145 -0.0039842247497290364 -0.00038301873428281391 -0.00084134674398228515 0.0042032131459563979 0.0091483094729483145 -0.0061446228064596644 0.0027103761676698927 0.0011147161130793395 -0.0078894789330661279 -0.0048459754325449458 0.00092551531270146381 0.0019001570180989804 -0.00075969388126395632 -0.017583601176738736 -0.010581813752651213 0.00060283878701739024 -0.00017840947839431462 0.0022719741100445394 0.0030398626113310461 0.00023868135758675638 0.0092030651867389696 -0.001430353266187012 -0.0012981960317119954 -0.0063467747531831256 0.0014367765397764745 0.0014729517861269417 -0.00050296590779907991 -0.0028275486547499891 -0.017583601176738736 -0.00022215022181626407 -0.011834802106022833 0.0023851499427109961 0.0036399315577000384 0.004011440323665739 -0.0053979402873665086
decision_type=2 2 2 2 2 2 2 2 2 2 2 2 2 2 2 2 2 2 2 2 2 2 2 2 2 2 2 2 2 2 2 2 2 2 2 2 2 2 2 2 2 2 2 2 2 2 2 2 2 2 2 2 2 2 2 2 2 2 2 2 2 2
left_child=2 5 4 8 12 10 13 40 22 20 19 23 -1 41 55 31 -6 57 -9 27 45 29 33 -8 -16 35 -17 50 51 -12 -27 36 -33 38 -25 -13 -11 -21 -3 -35 -5 -4 53 60 48 46 56 -32 -31 -48 -2 52 -23 -29 59 -10 -7 -15 -52 -39 -22 -62
right_child=1 3 6 7 16 9 11 18 14 15 21 25 -14 17 24 26 -18 -19 -20 37 43 28 -24 34 -26 30 -28 42 -30 44 47 32 -34 39 -36 -37 -38 54 -40 -41 -42 -43 -44 -45 -46 -47 49 -49 -50 -51 58 -53 -54 -55 -56 -57 -58 -59 -60 -61 61 -63
leaf_value=-0.0012566986786523063 -0.00014661286732869388 0 -0.00036203690385326858 0.00020559383877187252 -0.00048012051847742414 -5.2408557633548722e-05 -0.00018888374425215449 0.0018764804982843687 0 2.1673042135736271e-06 -4.3358882180600855e-05 -8.0312299216884193e-05 -0.00049062669430114563 -0.0002950699772140527 0.0003237103350771062 0.00015489225679561955 -0.0002386625955922964 -0.00011089665411104233 0.0010042257160358364 -4.3501084836562982e-05 2.7832297265954051e-05 0 0.00021886172681441312 -0.00011847599508568008 0.0005513994260855393 -2.8318235979070051e-06 0.00033845238806352683 -7.4702665729691782e-05 6.0839358484231854e-05 -2.4250922582487961e-05 0 8.2731389562465339e-05 0.00019143587713556931 7.5302515887243912e-05 -5.9262917554748404e-05 -1.3379350711768444e-05 7.9268987922088131e-05 -3.6647399452739545e-05 0.00010088250522226616 0.00017330697668995422 0.00071730297589872745 -0.00021830870732856821 0 9.3826859621268176e-05 2.8854764809650539e-05 6.823163314325365e-05 0 0.00011453822939414553 3.1666139897131773e-06 3.987511448241932e-05 -8.483254489403025e-05 6.8245316202086373e-05 2.7830316832754398e-05 -3.126619731525947e-05 9.6362181399426083e-07 0.0002196407868001027 0 -0.00017180895354493528 0 -3.415835923654947e-06 0 6.8839492176117227e-05
leaf_weight=450 2312 1400 977 200 1389 1631 2297 125 148 2061 5034 4259 198 1232 1685 4452 1370 8240 238 10431 7555 15047 2251 5211 864 10201 640 6649 8277 9008 1005 3288 1745 2057 8215 4161 7657 7659 1398 2452 117 2525 2615 4884 7363 1970 4547 1182 37159 8788 2205 2033 13728 7363 12986 1631 8190 1556 631 7243 958 7856
leaf_count=450 2312 1400 977 200 1389 1631 2297 125 148 2061 5034 4259 198 1232 1685 4452 1370 8240 238 10431 7555 15047 2251 5211 864 10201 640 6649 8277 9008 1005 3288 1745 2057 8215 4161 7657 7659 1398 2452 117 2525 2615 4884 7363 1970 4547 1182 37159 8788 2205 2033 13728 7363 12986 1631 8190 1556 631 7243 958 7856
internal_value=0 2.56172e-05 -0.000112373 0.000229858 -0.000499706 1.22666e-05 -8.623e-05 0.000948583 0.000193548 5.82927e-05 -6.96064e-06 -5.1404e-05 -0.00104631 -0.000172752 0.000327506 0.000110823 -0.000365724 -0.000142806 0.00134802 -3.44463e-05 3.54935e-05 9.80074e-06 0.000131307 -9.97407e-05 0.000406864 -1.41573e-05 0.00018094 -5.93935e-05 2.72134e-05 -1.56431e-06 8.32842e-06 8.5597e-05 0.000123416 0.000102269 -8.33659e-05 -4.90195e-05 6.44616e-05 -1.98779e-05 4.90848e-05 0.000131937 0.000442534 -0.000262735 -4.43268e-05 5.86676e-05 2.08624e-06 1.52938e-05 1.01409e-05 6.723e-05 -1.85833e-06 2.52588e-05 -0.000105133 1.76916e-05 1.35975e-05 -5.29502e-05 -1.05036e-05 0.000205289 -8.85915e-06 -0.0002317 -6.60098e-05 -2.15027e-05 4.72582e-05 6.22051e-05
internal_weight=292999 238531 54468 14566 3407 223965 51061 680 13886 66222 157743 36531 648 14530 4328 19843 2759 11028 363 60094 46379 97649 9558 15723 2549 20808 5092 21775 39085 58564 12388 14751 5033 7307 13426 8420 9718 38319 2798 4509 317 3502 16627 21253 53530 25126 23156 2187 46167 13335 5148 30808 28775 14012 27888 1779 9821 2788 2836 14902 16369 8814
internal_count=292999 238531 54468 14566 3407 223965 51061 680 13886 66222 157743 36531 648 14530 4328 19843 2759 11028 363 60094 46379 97649 9558 15723 2549 20808 5092 21775 39085 58564 12388 14751 5033 7307 13426 8420 9718 38319 2798 4509 317 3502 16627 21253 53530 25126 23156 2187 46167 13335 5148 30808 28775 14012 27888 1779 9821 2788 2836 14902 16369 8814
is_linear=0
shrinkage=0.03


Tree=9
num_leaves=63
num_cat=0
split_feature=188 186 186 188 188 100 188 186 188 100 188 100 186 188 100 188 186 140 100 100 188 188 188 100 188 100 100 100 100 188 188 100 106 100 188 100 188 188 188 188 100 188 100 100 100 100 186 100 188 188 188 188 188 100 100 100 100 188 188 100 188 188
split_gain=0.886093 0.670684 0.484388 0.410416 0.20595 0.174582 0.173236 0.152516 0.113687 0.0981208 0.081337 0.0774846 0.0532544 0.0443805 0.0517705 0.0439846 0.0421117 0.0341768 0.0330298 0.0325184 0.0251569 0.0245151 0.0232307 0.0217576 0.0200313 0.0181737 0.0164414 0.0146298 0.0138285 0.0220579 0.0160699 0.0124371 0.0115634 0.00978093 0.00950241 0.00914281 0.00913304 0.0088645 0.00854862 0.00854655 0.00909353 0.00826258 0.00765999 0.00752287 0.00747568 0.00726576 0.00655186 0.0064632 0.00519174 0.00516346 0.0051222 0.00470682 0.00435624 0.00434567 0.00419764 0.00396581 0.0039107 0.00381557 0.00314422 0.00294574 0.0023194 0.0021291
threshold=-0.005941838724538683 0.007402954390272499 -0.023489401675760743 0.023984282277524475 0.00088045059237629186 0.0032623999286442999 -0.031751466915011399 0.031863173469901092 0.0070605559740215549 -0.0010750495130196212 -0.012570280581712721 -0.00033656024606898422 -0.0053305432666093102 -0.0020558000542223449 0.0020782647188752894 0.0045722320210188636 0.0014151259092614057 -0.093718778342008577 -9.9945656984345974e-05 0.0020346062956377868 -0.0016842022305354474 0.0050418302416801461 -0.014625122770667074 0.0035075886407867078 0.0017292847041971984 -0.011114435736089943 0.0072032196912914523 0.0055204126983881005 -0.0064720178488641969 0.0066376908216625461 0.0064346895087510356 0.00045321977813728159 -0.0067468546330928794 0.0014262463664636018 0.012555109802633526 -0.0032657356932759281 0.011775202117860319 -0.00047646433813497419 -0.0034938859753310676 0.013425176963210108 -0.011114435736089943 -0.010110248811542986 -0.002431343542411923 -0.0071608980651944867 -0.0027372005861252542 0.00047525022819172596 0.0018467095214873554 0.00047525022819172596 0.0022164365509524946 -0.014625122770667074 -0.0039915582165122023 -0.0002455961075611412 -0.012570280581712721 0.013730623293668033 -0.014394144527614115 -0.0034451895626261826 0.0036045195301994686 -0.020058335736393925 0.0025945216184481983 0.00086320113041438173 -0.011834802106022833 -0.0081842988729476911
decision_type=2 2 2 2 2 2 2 2 2 2 2 2 2 2 2 2 2 2 2 2 2 2 2 2 2 2 2 2 2 2 2 2 2 2 2 2 2 2 2 2 2 2 2 2 2 2 2 2 2 2 2 2 2 2 2 2 2 2 2 2 2 2
left_child=2 4 6 8 9 10 32 25 23 20 57 16 22 14 38 33 28 -9 39 37 55 58 -7 24 -3 -5 41 50 30 44 -6 -12 -1 48 -20 -22 -17 45 -11 43 -41 -14 -26 -10 -30 -15 52 -39 -13 -8 -16 -25 -28 60 -32 -2 -21 -4 -18 -40 -48 -33
right_child=1 3 5 7 11 12 49 17 18 13 31 15 26 19 27 36 21 -19 34 56 35 -23 -24 51 42 -27 46 -29 29 -31 54 61 -34 -35 -36 -37 -38 47 59 40 -42 -43 -44 -45 -46 -47 53 -49 -50 -51 -52 -53 -54 -55 -56 -57 -58 -59 -60 -61 -62 -63
leaf_value=-0.0016713609921527074 -0.00021835698479686592 -1.9322706594556682e-06 -0.0005870732142889011 0.00022945326077086322 -0.00010480702824679816 -0.0002250296491220028 -0.00050291268164206863 0.0017471698297498127 0 -8.7815638097604715e-05 -0.00022769999838157345 4.0092044465517119e-05 -0.00016744462908887408 -3.0176888883656663e-05 -2.7746145418680022e-05 0.00017120845060481521 5.0027006466894988e-06 0.00089457710769768174 0.00026125852904375872 4.0371566762335485e-05 -0.00012469585512847099 8.380538739894482e-05 -8.5877112755118439e-05 9.4670137210971887e-05 0 0.00059299795945911356 -5.7357893803608159e-05 6.4639035285179091e-05 -1.2247011755320707e-05 0.00010891794510180525 -4.4341149020197665e-05 -0.00018123333862715902 -0.00094946406122996415 0.00011232884872742894 0.00043335668423001469 -4.7308976853220413e-05 0.00048163460917992167 -4.0641357757404e-07 -6.1367166725133615e-05 5.4696302233940599e-05 0.00027647015166104734 -4.9547510226292265e-05 0.0001071444010293723 0.00015554255218988436 1.6154424911796105e-05 -8.1476102751410325e-07 -6.6918973019191937e-05 2.7182033886457362e-05 7.8972078176210746e-05 -0.0002425051650942629 2.7546324028408973e-06 0.00021286665192704867 0 8.4707906870787924e-05 1.034655357452188e-05 -0.00012157821382884098 9.3666851752412979e-05 -0.00035387893471086791 3.5812654640400355e-05 -2.7719734766722126e-05 2.3079571633976896e-05 -0.00011093101324846324
leaf_weight=108 1090 3067 353 474 2064 2192 744 112 369 9515 3777 10983 794 15160 7994 2989 6101 409 1840 7158 2007 11893 3211 1272 910 396 1879 2761 12934 1982 1751 2005 403 4174 926 10223 151 29996 7724 385 1640 4780 4282 2805 21957 17380 310 9819 6775 389 11085 1294 2595 1051 3923 3774 2435 1511 9753 6639 1308 3218
leaf_count=108 1090 3067 353 474 2064 2192 744 112 369 9515 3777 10983 794 15160 7994 2989 6101 409 1840 7158 2007 11893 3211 1272 910 396 1879 2761 12934 1982 1751 2005 403 4174 926 10223 151 29996 7724 385 1640 4780 4282 2805 21957 17380 310 9819 6775 389 11085 1294 2595 1051 3923 3774 2435 1511 9753 6639 1308 3218
internal_value=0 1.77995e-05 -0.00015272 0.000183975 3.89037e-06 -0.000123661 -0.000655716 0.000684071 0.000146137 -1.87363e-05 -0.000219343 3.76626e-05 -6.54617e-05 -9.56613e-06 -3.3279e-05 8.33239e-05 2.16333e-05 0.00110812 0.000233182 3.48012e-06 -8.63439e-05 5.06915e-05 -0.000145123 8.06969e-05 5.41873e-05 0.000412406 -3.04327e-05 0 3.22313e-06 1.11796e-05 -3.27509e-05 -0.000178949 -0.00113285 6.72218e-05 0.000324363 -6.12395e-05 0.000190987 -3.20549e-06 -6.38099e-05 0.00018176 0.000241735 -6.90459e-05 9.02239e-05 0.000138739 5.19616e-06 -1.49554e-05 0 6.02085e-06 5.5772e-05 -0.000426885 -9.23924e-06 0.000160149 -2.2488e-05 3.68952e-05 -3.88912e-06 -0.00014637 5.54673e-05 -0.000406231 2.49029e-05 -4.68602e-05 0 -0.000140805
internal_weight=292999 262371 30628 20181 242190 28984 1644 1391 18790 144760 10864 97430 18120 127666 45718 25072 72358 521 7965 81948 17094 27747 5403 10825 8259 870 12717 21840 44611 36873 7738 9000 511 21932 2766 12230 3140 72355 23878 5199 2025 5574 5192 3174 34891 32540 7143 39815 17758 1133 19079 2566 4474 2669 5674 4864 9593 1864 15854 14363 1618 5223
internal_count=292999 262371 30628 20181 242190 28984 1644 1391 18790 144760 10864 97430 18120 127666 45718 25072 72358 521 7965 81948 17094 27747 5403 10825 8259 870 12717 21840 44611 36873 7738 9000 511 21932 2766 12230 3140 72355 23878 5199 2025 5574 5192 3174 34891 32540 7143 39815 17758 1133 19079 2566 4474 2669 5674 4864 9593 1864 15854 14363 1618 5223
is_linear=0
shrinkage=0.03


Tree=10
num_leaves=63
num_cat=0
split_feature=185 186 186 185 185 185 27 78 27 186 27 18 185 27 186 186 185 27 185 27 78 78 186 27 27 78 185 27 185 189 78 27 27 185 128 185 185 185 27 27 185 185 186 185 185 27 27 185 27 78 186 27 186 78 27 185 27 27 78 27 186 27
split_gain=0.841304 0.626207 0.439442 0.326367 0.209451 0.170507 0.112313 0.102252 0.0969027 0.0892174 0.0578837 0.0511473 0.0454569 0.0471459 0.04326 0.0403279 0.0377934 0.0376455 0.0369194 0.0345467 0.0321277 0.0318235 0.0307271 0.0240508 0.0240037 0.0235413 0.0192443 0.019192 0.0184855 0.017464 0.0172811 0.0125052 0.0124375 0.0112866 0.0104707 0.00941687 0.00907462 0.00882508 0.00866552 0.00859169 0.0077671 0.00760334 0.00727494 0.0071667 0.00695447 0.00961778 0.00663203 0.00661507 0.00649771 0.00642056 0.00970651 0.00628665 0.00596678 0.00551907 0.00533725 0.00530498 0.00520716 0.00454949 0.00442924 0.00405975 0.00379573 0.00374305
threshold=-0.0050318916328251353 0.0079454928636550921 -0.017193172127008435 0.033219575881958015 0.0016945864190347495 -0.031689370051026337 0.0017974637448787691 -0.0025850455276668067 -0.0020197189878672357 0.031863173469901092 -1.7340163140033834e-05 -0.0028838692232966419 -0.0011939730611629782 0.0013049705303274097 -0.0037796124815940853 0.017265907488763336 0.0056732832454144963 -0.0043714679777622214 -0.0096362615004181845 0.0012100748135708275 0.0062090628780424604 1.0000000180025095e-35 0.014257133938372137 -0.0056090580765157929 -0.0053979402873665086 -0.0081501565873622877 0.0052429351489990958 0.004424524726346136 0.011204639449715616 0.39199589192867285 -0.012360907159745691 -0.01105947559699416 -0.014324698131531475 -0.0027081866282969709 -0.075189750641584382 0.0088843279518187063 -0.009235283359885214 -0.0006074285483919083 -0.0021675082389265295 -0.0075628962367773047 -0.0029498089570552106 -1.3693602795683544e-05 0.023649053648114208 0.0032667207997292285 -0.011162954382598398 0.01093120686709881 1.0000000180025095e-35 -0.015813808888196942 0.0031342215370386843 0.0085484376177191752 -0.0093991952016949636 -0.0010202780831605194 0.011463337112218143 -0.0018587201484479008 0.0053829550743103036 0.0035812390269711618 -0.00013719440903514621 0.01387667888775468 -0.017363721504807469 0.0016448039095848801 0.0097977425903081911 -0.0030321036465466018
decision_type=2 2 2 2 2 2 2 2 2 2 2 2 2 2 2 2 2 2 2 2 2 2 2 2 2 2 2 2 2 2 2 2 2 2 2 2 2 2 2 2 2 2 2 2 2 2 2 2 2 2 2 2 2 2 2 2 2 2 2 2 2 2
left_child=2 4 5 7 8 11 18 15 24 -5 16 -1 13 33 21 25 17 39 58 41 -7 47 -9 28 -2 -3 59 40 31 36 42 -18 -30 -10 -11 61 -16 -26 55 -6 -15 56 -17 -40 53 -46 -43 -8 -21 50 -23 -20 -27 60 -38 -19 -14 -22 -4 -12 -31 -25
right_child=1 3 6 9 10 20 14 22 12 34 26 -13 19 27 29 30 23 38 51 48 57 49 -24 35 37 52 -28 -29 32 44 -32 -33 -34 -35 -36 -37 54 -39 43 -41 -42 46 -44 -45 45 -47 -48 -49 -50 -51 -52 -53 -54 -55 -56 -57 -58 -59 -60 -61 -62 -63
leaf_value=-0.0016496344898163416 -0.00022559558732375022 1.4859373616677739e-05 -0.00065604176339467723 0.00042019082935946113 -0.0001507986054841749 -0.00049237554981200774 -0.0003056434953799747 0.00023590590792473869 -7.984416941055716e-05 0.0015640613641934814 7.6493932554990994e-05 -0.00074036131394035237 -3.1277869314993558e-05 -2.614332453650479e-05 -0.00013454366691131078 3.7929792258298891e-05 -0.00013474592797245845 -6.1533627242442505e-06 -0.00022767470600940692 4.1124571108132101e-05 -0.00025663354710553783 -0.00016112354785730807 0.00045506448200535499 5.9703442353599098e-05 -0.00012575541760210022 9.0355333224545923e-05 0.00021287783914144656 6.0524165786621199e-05 0 -9.8064703706877697e-05 0.00032186365797632477 1.1065124242001703e-05 0.0001101343905719861 -3.8259683021121657e-05 0.00086108297159242901 0.00016093695092451324 -6.0488481558954735e-05 -5.3786867263367705e-05 2.7744283241269093e-05 -3.457991953552545e-05 4.0114282768319379e-06 0 0.00019786290463586045 6.5149702910543704e-05 7.654477368655267e-07 0.00013082877984649393 2.5939360607889629e-05 -0.00015371502087903409 0.00010523037166692923 0 -7.0778112688978407e-05 -0.00013482565145351967 0.00017595518231504082 9.0912134366913486e-06 0 2.8696256046000311e-05 -2.9061276141527755e-06 0 -0.00029613997392637808 0.00013851405452599636 0 0.00011223837445972296
leaf_weight=104 1379 3509 113 470 855 1012 894 3584 10384 121 7264 577 9076 13902 1507 708 590 7206 1602 10311 1427 1888 954 5203 3139 4011 1673 3968 1628 1165 1098 4632 3251 19637 295 2391 5923 5523 15759 3848 15640 33518 1008 8428 2839 701 12555 1369 2195 883 5682 4941 1743 1046 2107 7432 20248 137 1641 2159 469 3554
leaf_count=104 1379 3509 113 470 855 1012 894 3584 10384 121 7264 577 9076 13902 1507 708 590 7206 1602 10311 1427 1888 954 5203 3139 4011 1673 3968 1628 1165 1098 4632 3251 19637 295 2391 5923 5523 15759 3848 15640 33518 1008 8428 2839 701 12555 1369 2195 883 5682 4941 1743 1046 2107 7432 20248 137 1641 2159 469 3554
internal_value=-4.31046e-08 1.95466e-05 -0.000131722 0.000192756 6.71131e-06 -0.000466171 -9.99557e-05 0.000161677 -1.25331e-05 0.000758244 4.78652e-05 -0.000902341 -6.44287e-06 -2.58296e-05 -6.88933e-05 0.000113962 3.66738e-05 2.01753e-05 -0.000197248 7.39811e-06 -0.000344889 -0.000116042 0.000285329 6.97634e-05 -0.000102884 8.11127e-05 0.000111843 -9.10958e-07 3.39493e-05 -3.58738e-05 0.00021673 -2.54826e-06 7.6083e-05 -5.31441e-05 0.0011032 0.000100865 -6.14302e-05 -8.16047e-05 3.01423e-05 -5.89112e-05 -9.67138e-06 -6.32547e-08 0.000140645 4.13995e-05 9.01724e-07 3.07725e-05 7.33543e-06 -0.000220416 5.35793e-05 -8.63139e-05 -9.53013e-05 -0.000159867 0.000118905 -3.29568e-05 -4.58335e-05 1.05162e-05 -1.21993e-05 -0.000239742 -0.000328056 9.23024e-05 -6.90454e-05 8.27426e-05
internal_weight=292876 254849 38027 17501 237348 3257 34770 16615 161475 886 75873 681 151434 63531 26473 12077 64777 43528 8297 87903 2576 10716 4538 21249 10041 9263 11096 33510 10101 15757 2814 5222 4879 30021 416 11148 9537 8662 38825 4703 29542 75397 1716 24187 6220 3540 46073 2263 12506 8453 7570 6543 5754 2680 8030 14638 29324 1564 1754 9423 1634 8757
internal_count=292876 254849 38027 17501 237348 3257 34770 16615 161475 886 75873 681 151434 63531 26473 12077 64777 43528 8297 87903 2576 10716 4538 21249 10041 9263 11096 33510 10101 15757 2814 5222 4879 30021 416 11148 9537 8662 38825 4703 29542 75397 1716 24187 6220 3540 46073 2263 12506 8453 7570 6543 5754 2680 8030 14638 29324 1564 1754 9423 1634 8757
is_linear=0
shrinkage=0.03


Tree=11
num_leaves=63
num_cat=0
split_feature=188 185 186 188 186 188 100 185 188 188 188 185 185 100 188 100 27 100 185 27 188 53 78 186 188 185 188 188 100 49 100 27 186 188 100 78 27 100 27 100 100 186 78 78 186 78 188 100 100 188 185 100 188 186 27 185 100 188 185 100 78 185
split_gain=0.813743 0.656982 0.440808 0.380905 0.181184 0.162496 0.158859 0.136444 0.110364 0.0770494 0.0700613 0.0686521 0.0486321 0.036362 0.0319731 0.0316832 0.025108 0.0233132 0.0216469 0.0205014 0.0203363 0.0188147 0.0176845 0.0170949 0.0144443 0.0140065 0.0133443 0.013136 0.012035 0.011786 0.0110757 0.0104493 0.0107194 0.0103534 0.0119475 0.00967998 0.00966697 0.00895138 0.00845848 0.00805751 0.00788668 0.0064367 0.00628286 0.00625998 0.00611367 0.00514186 0.00498652 0.00486089 0.00486017 0.0046968 0.00440595 0.00411818 0.00410323 0.00381494 0.00371118 0.00615437 0.00341259 0.00330474 0.00326244 0.00321633 0.00319267 0.00319118
threshold=-0.0064607183448970309 0.0061593735590577134 -0.023489401675760743 0.023984282277524475 -0.00042397060315124685 -0.031751466915011399 0.0036984275793656711 0.033219575881958015 0.008119198493659498 0.0021632649004459385 -0.013493114616721867 -0.0027081866282969709 -0.0073972078971564761 -0.0022602742537856098 0.032360779121518142 -0.00033656024606898422 -0.0028110692510381337 -0.010056292172521351 0.00045563463936559861 0.00055161860655061911 -0.017720014788210389 0.00077518282341770839 0.00079948038910515617 -0.0011398672359064219 0.0060632154345512399 -0.0069329307880252591 0.013425176963210108 0.0052976547740399846 -0.0042365386616438619 0.18278392404317859 0.00056971909361891459 0.0026075709611177449 -0.0025295442901551719 0.0024842317216098313 0.0010563629912212493 -0.0019063375657424329 0.0036399315577000384 -0.002607702161185443 0.00025538567570038145 0.0099344742484390753 -0.00095400656573474396 -0.0019883111817762251 0.011930617503821852 0.002699284348636866 0.0018959641456604006 0.0035926194395869975 0.012555109802633526 -0.014394144527614115 -1.0000000180025095e-35 0.0084422626532614248 -0.0060213371179997912 -0.0020607943879440422 0.0087785990908741968 0.0017060936661437156 -0.0035611983621492978 0.0026571048656478529 0.0068422988988459119 -0.0024854317307472225 -0.0044726512860506764 -0.0080725569278001768 9.6450570708839236e-05 0.004102483158931137
decision_type=2 2 2 2 2 2 2 2 2 2 2 2 2 2 2 2 2 2 2 2 2 2 2 2 2 2 2 2 2 2 2 2 2 2 2 2 2 2 2 2 2 2 2 2 2 2 2 2 2 2 2 2 2 2 2 2 2 2 2 2 2 2
left_child=2 4 5 8 11 21 10 17 16 18 -4 19 20 46 -9 27 33 -5 35 50 -8 -1 41 60 -17 48 -15 37 49 -16 -12 32 45 34 -3 44 58 -11 54 -25 -35 -13 -7 -34 -6 -24 59 -48 -21 -29 -2 -46 -30 -37 -20 -56 -36 -50 -27 -10 -14 -41
right_child=1 3 6 7 9 42 12 14 13 15 30 22 23 26 29 24 -18 -19 38 25 -22 -23 31 39 -26 36 -28 28 52 -31 -32 -33 43 40 56 53 -38 -39 -40 61 -42 -43 -44 -45 51 -47 47 -49 57 -51 -52 -53 -54 -55 55 -57 -58 -59 -60 -61 -62 -63
leaf_value=-0.00089504721024558477 -0.00019780292934665382 -8.0706279272416878e-06 -0.00040580952482062145 0.0002091073956420061 -4.9361555925546439e-05 -0.00052447412872852429 -0.00026578182741703998 0.00049242001733289958 0 0 -0.00022928427111517725 -6.8685922835703427e-05 -0.00011038991402028558 0.00023748283314741378 0.00091673124608682491 9.1196981715481056e-05 0.00015778854291778998 0.00058554704648069316 -1.0771916606653653e-05 -0.00010428778440826264 -9.8211776815633058e-05 -0.0016403732338920235 -3.3451465879029455e-05 -2.857154650270894e-05 0.00023000764451766998 -6.9121049865924613e-05 0.0003952823438705225 8.9461353714794006e-06 8.5375259027137821e-05 0.0016666351834089138 -0.00014198304825541121 6.7973129097715463e-05 1.4500856561314933e-06 4.7696463095579908e-05 4.8806059448399836e-05 0 0 4.0061380818828188e-05 6.0101127652084967e-05 9.561366585108459e-06 0.00012118874491490127 -2.5185506535538791e-05 -0.00027208435319210926 4.5087083319857711e-05 -7.0385753927968854e-05 -3.6076419891383964e-06 0 0.00020520915532857922 -6.1496361207756585e-05 5.9817438004729031e-05 -9.8981246686975541e-05 -4.0174449235638964e-06 0.00018629115199268073 3.3112383094045524e-05 1.0588936730358612e-05 4.0805360030275693e-05 0.00013919059769726587 0 -3.3987644412199517e-05 0.00011278686498549455 -4.8056391192990607e-05 9.3144662872402559e-05
leaf_weight=426 864 2775 1646 546 5726 523 1275 161 223 7103 3487 4548 1684 2679 240 7795 3652 390 3056 5692 2319 112 11798 2911 943 5743 1205 3549 4424 129 4785 1824 17775 3191 3810 29997 4290 13298 5356 1745 4224 17469 589 3765 978 11549 207 2098 2060 5116 5854 12249 780 3580 20573 10042 733 609 9259 1789 4779 879
leaf_count=426 864 2775 1646 546 5726 523 1275 161 223 7103 3487 4548 1684 2679 240 7795 3652 390 3056 5692 2319 112 11798 2911 943 5743 1205 3549 4424 129 4785 1824 17775 3191 3810 29997 4290 13298 5356 1745 4224 17469 589 3765 978 11549 207 2098 2060 5116 5854 12249 780 3580 20573 10042 733 609 9259 1789 4779 879
internal_value=-3.56751e-08 1.59006e-05 -0.000156496 0.000153206 -2.43e-07 -0.00063389 -0.000125018 0.0006265 0.000126532 2.2621e-05 -0.000219514 -3.02305e-05 -6.39423e-05 0.000219213 0.0010289 5.57921e-05 8.43697e-05 0.000382203 6.87509e-06 -6.49544e-05 -0.00016186 -0.00107944 -1.26464e-05 -3.33553e-05 0.000107906 -5.25104e-05 0.000290346 4.20652e-05 6.53198e-05 0.00122139 -0.000180609 -1.85768e-06 -5.03018e-06 6.51479e-05 3.63014e-05 -5.46693e-06 -3.70624e-05 2.55198e-05 2.38715e-05 2.78639e-06 9.15899e-05 -3.48539e-05 -0.000404455 9.77468e-06 -2.27268e-05 -1.93316e-05 0.000151714 0.000190873 -8.63564e-05 4.07144e-05 -0.000113937 -1.00612e-05 0.0001034 3.82913e-06 1.76623e-05 2.09907e-05 6.67045e-05 -4.24839e-05 -4.84389e-05 9.93627e-05 -6.6626e-05 4.32883e-05
internal_weight=292876 265716 27160 28052 237664 1650 25510 1466 26586 134565 9918 103099 15592 8201 530 43008 18385 936 91557 34371 3594 538 68728 11998 8738 27653 3884 34270 13869 369 8272 46711 44887 14733 7318 52530 19292 20401 39027 5535 7415 22017 1112 21540 18953 23347 4317 2305 8361 8665 6718 13227 5204 33577 33671 30615 4543 2669 15002 2012 6463 2624
internal_count=292876 265716 27160 28052 237664 1650 25510 1466 26586 134565 9918 103099 15592 8201 530 43008 18385 936 91557 34371 3594 538 68728 11998 8738 27653 3884 34270 13869 369 8272 46711 44887 14733 7318 52530 19292 20401 39027 5535 7415 22017 1112 21540 18953 23347 4317 2305 8361 8665 6718 13227 5204 33577 33671 30615 4543 2669 15002 2012 6463 2624
is_linear=0
shrinkage=0.03


Tree=12
num_leaves=63
num_cat=0
split_feature=188 185 187 188 187 187 188 186 188 185 188 187 128 49 186 186 185 187 185 31 186 186 185 189 93 93 93 78 189 187 93 187 31 187 31 187 93 187 185 186 185 31 31 186 31 188 93 185 31 187 31 93 187 93 31 185 93 93 93 93 187 185
split_gain=0.767712 0.615659 0.482096 0.353769 0.1715 0.157695 0.157113 0.143155 0.076414 0.0738047 0.0693385 0.0492212 0.0455351 0.0404648 0.0286902 0.0254251 0.0226022 0.022503 0.020261 0.0179803 0.0164072 0.0156873 0.0145483 0.0121073 0.0104837 0.0099966 0.00997409 0.00888189 0.00886379 0.00868708 0.00834583 0.00798305 0.00752839 0.00722517 0.00671023 0.00659539 0.0056617 0.00523927 0.00503639 0.00462313 0.00458763 0.00489997 0.00445859 0.00445208 0.00438363 0.00422081 0.00393435 0.00343538 0.00486607 0.00337996 0.00334392 0.00314754 0.00302334 0.0029672 0.00288354 0.00241578 0.00237446 0.0023636 0.00235775 0.00229464 0.00225346 0.00205906
threshold=-0.0061108581721782676 0.0065231393091380605 -0.023629467003047463 0.020150328055024151 0.00027212942950427538 0.031134116463363174 -0.031751466915011399 -0.0089893438853323442 0.0068463236093521127 -0.0021103845210745926 0.0027719314675778155 -0.0034804719034582372 -0.075189750641584382 0.18278392404317859 0.0049220561049878606 -0.0036981458542868491 -0.014489206951111553 0.011041998397558929 0.00067139303428120922 -0.0039987019263207904 -0.00082124411710537959 0.014257133938372137 -0.00096340847085230042 0.27737325429916387 0.0018206364475190642 0.0021234491141512994 -0.001889426610432565 0.0039923270232975492 0.056073468178510673 0.0011292384006083014 0.013578023295849563 -0.0083350366912782175 0.00043322099372744566 -0.0054924213327467433 -0.0033786029089242216 -0.0083350366912782175 -0.00068620141246356059 -0.0020269395317882295 0.0020872270688414578 -0.00078646445763297368 -1.0000000180025095e-35 -0.00015968509978847575 -0.00055523612536489953 0.0017060936661437156 0.00023663906176807362 -0.0010327171185053883 0.01185560552403331 0.0025950893759727482 -0.0033786029089242216 0.0018849411862902345 -0.0012072235113009808 0.0021707267733290796 -0.0017426722915843127 0.0052895562257617721 -0.0080815246328711492 -0.0044726512860506764 -0.00026951554173137987 0.0007907107356004418 0.00069199706194922339 0.0047884320374578246 0.0094983479939401167 0.0025950893759727482
decision_type=2 2 2 2 2 2 2 2 2 2 2 2 2 2 2 2 2 2 2 2 2 2 2 2 2 2 2 2 2 2 2 2 2 2 2 2 2 2 2 2 2 2 2 2 2 2 2 2 2 2 2 2 2 2 2 2 2 2 2 2 2 2
left_child=2 4 6 8 9 21 13 16 19 15 18 24 -7 -1 38 33 -4 -10 26 29 34 -5 36 -16 35 52 39 -18 -17 54 -8 46 47 57 61 -9 -13 53 44 -6 41 -36 -40 -24 -12 55 -26 50 -49 56 -20 -35 -22 -27 -3 -30 -28 -2 -54 -33 -25 -11
right_child=1 3 7 5 10 12 30 11 17 20 14 22 -14 -15 23 28 27 -19 32 -21 25 -23 43 60 31 37 49 -29 45 -31 -32 59 -34 51 40 -37 -38 -39 42 -41 -42 -43 -44 -45 -46 -47 -48 48 -50 -51 -52 -53 58 -55 -56 -57 -58 -59 -60 -61 -62 -63
leaf_value=-0.00084509390852761392 -0.00017930868360225755 -3.2175605272029469e-06 -0.0003239087932392316 0.00021182246580803913 -3.1970120107892064e-05 0.0016037276271448667 -0.00050437664045861058 -0.00024596480133035514 0.00015032548251570866 -8.7779772289923202e-05 0 -7.8209551156617181e-05 0.00075611721148934302 -0.0016652535604334425 8.961498068063075e-05 -6.5925736796434834e-05 -0.00023964010563493814 0.0002632640646821581 -5.39969353591434e-06 0.00013345251444913002 -2.7824677536519653e-05 0.00046168482596061655 -6.1686994005239452e-06 0.00012380981088946534 -0.00013329653100248003 0 0 -0.00013821442160135569 -5.4894101270728748e-05 7.5402932579981982e-05 -0.00023423536238117434 -5.1655427980351489e-05 6.9881980731050587e-05 -7.1374485914251921e-05 -4.4278324658494375e-05 -0.00012974000459431249 -2.4640641180408201e-06 4.8457491821818311e-05 4.3963224848715072e-05 -1.2911578114710018e-06 0 -9.8909090364977333e-06 9.1475707649663654e-05 5.1788770872368149e-05 4.2366725360199213e-05 -1.1439007876076139e-05 0 0 4.4415963521077832e-05 4.0645947300502792e-05 2.2107613829655355e-05 0 -7.4476842518032231e-06 2.9293524209983485e-05 4.3231754568917237e-05 -2.0330647500726566e-05 2.3356095522709227e-05 -9.8521139372636954e-05 9.9405981775011519e-06 0 0.00024545933683483439 -2.9683613451763485e-05
leaf_weight=454 1063 2191 2076 730 9408 125 648 987 5988 1859 3188 3944 440 130 6793 7512 2511 3082 4874 4004 4327 866 3062 1145 2477 7729 11383 2807 5844 6626 457 1624 4109 8760 7620 3825 1694 5473 6750 10395 10946 10212 4272 1667 9075 11704 336 3083 11337 3572 11688 839 18430 4830 1785 5375 5196 4437 11171 610 904 2427
leaf_count=454 1063 2191 2076 730 9408 125 648 987 5988 1859 3188 3944 440 130 6793 7512 2511 3082 4874 4004 4327 866 3062 1145 2477 7729 11383 2807 5844 6626 457 1624 4109 8760 7620 3825 1694 5473 6750 10395 10946 10212 4272 1667 9075 11704 336 3083 11337 3572 11688 839 18430 4830 1785 5375 5196 4437 11171 610 904 2427
internal_value=-2.52945e-08 1.61205e-05 -0.000145729 0.000155203 9.41314e-07 0.000524693 -0.000639634 -0.000114972 0.000120835 -2.20794e-05 2.91254e-05 -7.25831e-05 0.000971419 -0.00105459 6.6122e-05 -5.29395e-05 -0.000228885 0.000190368 1.30868e-05 7.66239e-05 -5.37594e-06 0.000356897 -2.50983e-05 0.000113389 -0.000120989 4.90175e-06 -1.16262e-06 -0.000188943 -3.62823e-05 5.37417e-05 -0.000406378 -8.39395e-05 2.97382e-05 -8.55195e-05 -2.19808e-05 -0.000156719 -5.81135e-05 2.30873e-05 4.75271e-05 -1.6624e-05 -1.60363e-05 -2.54274e-05 6.37427e-05 1.10934e-05 3.17273e-05 -2.59124e-05 -0.000119948 2.39289e-05 3.53173e-05 1.32874e-05 1.3107e-05 -6.59847e-05 -4.32157e-06 1.08356e-05 1.38662e-05 -3.96734e-05 6.48714e-06 -0.000116877 -3.78804e-07 -3.18691e-05 0.000184846 -5.83888e-05
internal_weight=292876 263567 29309 25837 237730 2161 1689 27620 23676 130558 107172 20226 565 584 32127 45534 7394 9070 75045 14606 85024 1596 10367 8842 9859 51960 39954 5318 30435 10602 1105 5047 35091 15099 33064 4812 5638 18032 23285 19803 28778 17832 11022 4729 12263 22923 2813 30982 14420 20151 16562 9599 33928 12559 3976 11219 16579 5500 29601 2234 2049 4286
internal_count=292876 263567 29309 25837 237730 2161 1689 27620 23676 130558 107172 20226 565 584 32127 45534 7394 9070 75045 14606 85024 1596 10367 8842 9859 51960 39954 5318 30435 10602 1105 5047 35091 15099 33064 4812 5638 18032 23285 19803 28778 17832 11022 4729 12263 22923 2813 30982 14420 20151 16562 9599 33928 12559 3976 11219 16579 5500 29601 2234 2049 4286
is_linear=0
shrinkage=0.03


Tree=13
num_leaves=63
num_cat=0
split_feature=188 185 187 188 185 188 185 188 187 69 186 186 186 19 69 186 187 187 128 187 188 69 69 187 187 69 93 187 185 185 69 78 185 69 188 185 69 185 185 185 69 187 69 185 185 69 187 69 185 93 186 78 69 69 93 187 185 188 185 186 78 69
split_gain=0.724169 0.568066 0.483975 0.304133 0.183277 0.159242 0.158446 0.0958406 0.0922856 0.0892889 0.0646379 0.0456642 0.0444903 0.034989 0.0249491 0.024344 0.0230405 0.0219306 0.0192558 0.017979 0.0165389 0.0164198 0.0128398 0.0124632 0.0119072 0.0116756 0.011426 0.0109388 0.0107443 0.0100891 0.00994839 0.00917336 0.00899635 0.00878675 0.008509 0.00768845 0.00744368 0.0063249 0.00612001 0.00599412 0.00565973 0.00560333 0.00550128 0.00870996 0.00426239 0.00384655 0.00368316 0.00357335 0.00343084 0.00339167 0.0032708 0.00377561 0.00325534 0.00315144 0.00285522 0.0028683 0.0022118 0.00221031 0.0020778 0.00195873 0.00193452 0.0019003
threshold=-0.0044790864922106257 0.0092719318345189112 -0.023629467003047463 0.032360779121518142 0.0012520093005150559 -0.031751466915011399 -0.0071519971825182429 0.011123900301754476 0.031134116463363174 0.00089838699204847227 -0.0012939223088324068 -0.0026466829003766175 -0.012195765506476162 1.0492668151855471 0.0057828545104712257 0.002241727896034718 -0.0025650863535702224 0.015827951952815059 -0.075189750641584382 0.0058894469402730474 0.0033863364951685075 0.0045547613408416518 -0.0036630149697884913 -0.00030655438604298974 -0.00021132901747478169 -0.0052012703381478778 0.013578023295849563 -0.0080176591873168928 0.004857865162193776 0.0046237921342253694 -0.0024423412978649135 0.0012558568269014361 -0.0063467747531831256 -0.0016707408940419553 -0.016036068089306351 -0.0010392116964794693 -0.0086480192840099317 0.0039162493776530036 0.0038301752647385006 -0.0038101198151707645 -0.0021222106879577036 0.0090872547589242476 0.0010916827013716104 -0.0010025867377407847 -0.0065301454160362473 0.0030541907763108615 -0.0080176591873168928 0.0021808533929288392 0.0058446014299988755 0.0026470558950677518 -0.0033847712911665435 0.004790202248841525 -0.0058728752192109815 0.0033638956956565384 0.000171018997207284 -0.0035611827624961729 -0.00043759924301411951 0.00098762015113607071 -0.031689370051026337 0.013137347996234896 0.0030994309345260267 -0.0023305588401854034
decision_type=2 2 2 2 2 2 2 2 2 2 2 2 2 2 2 2 2 2 2 2 2 2 2 2 2 2 2 2 2 2 2 2 2 2 2 2 2 2 2 2 2 2 2 2 2 2 2 2 2 2 2 2 2 2 2 2 2 2 2 2 2 2
left_child=2 4 5 7 10 13 12 19 59 15 16 22 34 58 24 25 32 -9 -10 36 44 37 46 54 39 48 -7 -14 40 33 52 -18 -2 -27 -4 45 57 -11 -25 -12 -17 -22 56 -44 -16 -24 -8 -41 -6 -29 51 -33 -30 61 -13 -56 -26 -3 -1 -5 -52 -34
