{"learner":{"attributes":{"best_iteration":"0","best_score":"0.00285023161757462","scikit_learn":"{\"_estimator_type\": \"regressor\"}"},"feature_names":[],"feature_types":[],"gradient_booster":{"model":{"cats":{"enc":[],"feature_segments":[],"sorted_idx":[]},"gbtree_model_param":{"num_parallel_tree":"1","num_trees":"51"},"iteration_indptr":[0,1,2,3,4,5,6,7,8,9,10,11,12,13,14,15,16,17,18,19,20,21,22,23,24,25,26,27,28,29,30,31,32,33,34,35,36,37,38,39,40,41,42,43,44,45,46,47,48,49,50,51],"tree_info":[0,0,0,0,0,0,0,0,0,0,0,0,0,0,0,0,0,0,0,0,0,0,0,0,0,0,0,0,0,0,0,0,0,0,0,0,0,0,0,0,0,0,0,0,0,0,0,0,0,0,0],"trees":[{"base_weights":[2.6496875E-6,4.9776013E-4,-1.724827E-4,1.1888699E-3,7.9071986E-5,5.705335E-3,-1.8431502E-4,3.3864088E-3,9.1181474E-4,-8.8314265E-3,1.0759236E-4,1.344985E-3,1.3769025E-2,-1.7179789E-4,-2.7011612E-3,-2.8051127E-2,3.4729869E-3,1.1106714E-3,4.0853984E-4,-3.245049E-3,-5.5599008E-2,2.6530419E-2,9.402965E-5,6.6672843E-3,-1.7024782E-2,1.2298553E-2,9.7097475E-3,3.5412653E-5,-2.678406E-4,-4.48938E-3,4.904037E-4,-2.948386E-3,-0E0,9.875219E-3,3.1177704E-3,1.7392789E-3,8.517569E-4,-3.512719E-3,4.956962E-4,-9.178379E-3,3.2251097E-2,-0E0,-1.1545234E-1,7.36025E-2,8.7523615E-5,8.654875E-3,-2.4153482E-2,-4.6104357E-2,-0E0,4.954144E-2,3.242992E-3,8.878208E-4,-3.5460213E-5,-8.763199E-5,-5.386979E-4,-2.034901E-3,-8.450793E-3,2.035478E-3,-4.028294E-3,3.804939E-2,5.1793125E-3,5.243622E-3,2.405149E-3,-3.8740883E-4,1.8961554E-3,8.905371E-4,-1.0294604E-4,-1.347342E-2,-3.6016987E-5,-0E0,7.094975E-4,6.464285E-4,-2.28323E-2,1.1221652E-3,4.29329E-3,-0E0,-9.119614E-3,6.6168713E-3,-0E0,-7.6055187E-3,9.584995E-5,-0E0,1.1612498E-2,-0E0,-6.0206715E-2,1.2313133E-2,-6.460719E-2,8.921135E-3,-1.923222E-2,9.471263E-3,1.3872962E-2,6.2684542E-3,-4.9645875E-2,1.4141168E-3,7.440511E-5,6.4171305E-5,-3.06635E-4,3.4967787E-3,-9.334823E-5,2.6672127E-4,-5.939981E-4,8.79817E-3,-3.66644E-3,-2.9746475E-2,-5.8388365E-3,6.9334353E-3,3.709206E-4,-1.0483201E-2,-2.4332701E-4,-0E0,5.3141892E-2,1.1741287E-2,-2.1294404E-3,6.1537083E-3,5.5928115E-4,4.9448403E-4,3.2652286E-3,1.5612812E-5,-1.0822578E-3,3.2268194E-3,1.57781E-3,9.2709885E-4,-0E0,-0E0,-1.5727489E-3,-2.6976667E-2,-0E0,5.603559E-4,-5.2368455E-3,1.2273011E-4,-1.0108501E-3,7.9968164E-4,-0E0,-1.1306528E-2,9.094125E-3,-3.927653E-2,-1.2090777E-3,1.48007255E-2,-0E0,5.5928856E-5,4.7291676E-3,9.361909E-3,-1.641916E-2,8.199216E-3,4.2468198E-2,-3.567395E-3,-0E0,-0E0,1.3049896E-3,-5.0766964E-4,-7.7679984E-2,2.6654875E-2,-0E0,-2.707249E-2,-0E0,1.9402927E-2,-0E0,9.5057385E-3,-1.9117328E-5,-2.8835605E-3,-0E0,7.6312065E-4,2.6302233E-3,1.6797082E-4,-2.2288053E-3,-3.7615807E-3,6.905931E-5,-7.7914033E-4,-1.0980943E-4,-0E0,6.703522E-3,-4.8814583E-4,-5.773049E-5,1.8110427E-3,1.6438312E-4,-3.6179143E-4,-7.83801E-4,2.0989794E-2,-0E0,-5.5659185E-3,-0E0,-4.5855094E-2,-0E0,-3.1723015E-3,-4.8883474E-3,-0E0,9.347087E-3,4.0213293E-3,-1.9656874E-3,-0E0,-1.1795518E-2,-2.296939E-3,-0E0,-3.788994E-4,-0E0,3.3056655E-3,-0E0,3.903785E-3,3.4817497E-4,-1.1622799E-3,1.9665934E-4,3.2285112E-4,-0E0,-1.0876929E-3,9.6773525E-5,2.2488355E-6,2.4797843E-4,-0E0,1.8918201E-4,3.2077613E-5,-0E0,-1.332745E-4,-0E0,2.0249044E-4,5.9845213E-5,-1.8693622E-4,8.184909E-5,6.8412905E-5,4.1910727E-5,-1.611882E-5,-0E0,-0E0,1.21276635E-5,-1.3984587E-4,-0E0,-5.3408476E-5,-2.3994332E-3,-0E0,-8.988538E-5,9.9286575E-5,-0E0,-0E0,-3.4881162E-4,3.502296E-5,-6.709569E-6,-1.2571666E-4,-0E0,6.603356E-5,2.8356366E-5,-4.172098E-5,2.5188909E-5,-0E0,-1.3407125E-3,1.2694858E-3,-0E0,-3.4909558E-3,-8.245786E-4,9.272866E-5,-1.1759105E-3,9.963665E-4,-0E0,-7.8589434E-4,4.1624853E-6,8.194296E-5,1.9534563E-3,-0E0,1.7109814E-3,-0E0,-2.3900238E-3,5.1139126E-4,-5.7631795E-4,2.6898414E-3,-0E0,-4.0417323E-3,-0E0,1.5764611E-3,-0E0,-0E0,-4.068737E-4,-0E0,-1.992189E-3,1.1100069E-3,-0E0,6.683995E-4,-0E0,-4.4303178E-4,1.3927708E-4,-0E0,4.536934E-5,-0E0,1.5763084E-4,3.5152076E-5,-0E0,-1.5618603E-4,-0E0,-0E0,-6.0617214E-4,-1.4553586E-6,7.8660805E-6,-2.8070788E-5,-1.0356239E-4,6.503099E-5,-8.199502E-6,-1.21386394E-4,-0E0,-0E0,5.665158E-4,-1.9634876E-5,-1.078241E-4,-3.3434121E-6,1.4885886E-4,-0E0,1.8690547E-4,2.1651356E-5,-1.957382E-6,2.049909E-4,-1.9174222E-5,-4.851966E-5,-7.476382E-6,-0E0,1.7159745E-3,4.600858E-5,-4.1680256E-4,-4.0424682E-4,-1.9486502E-5,4.09488E-4,-9.562104E-5,-2.4895607E-3,-0E0,-9.506186E-5,1.2101155E-3,-3.7413175E-4,1.204638E-4,-0E0,6.32361E-4,-0E0,2.9582306E-4,-0E0,-4.479392E-4,-6.356707E-4,-0E0,-1.2814422E-4,-0E0],"categories":[],"categories_nodes":[],"categories_segments":[],"categories_sizes":[],"default_left":[0,0,0,0,0,0,0,0,0,0,0,0,0,0,0,0,0,0,0,0,0,0,0,0,0,0,0,0,0,0,0,0,0,0,0,0,0,0,0,0,0,0,0,0,0,0,0,0,0,0,0,0,0,0,0,0,0,0,0,0,0,0,0,0,0,0,0,0,0,0,0,0,0,0,0,0,0,0,0,0,0,0,0,0,0,0,0,0,0,0,0,0,0,0,0,0,0,0,0,0,0,0,0,0,0,0,0,0,0,0,0,0,0,0,0,0,0,0,0,0,0,0,0,0,0,0,0,0,0,0,0,0,0,0,0,0,0,0,0,0,0,0,0,0,0,0,0,0,0,0,0,0,0,0,0,0,0,0,0,0,0,0,0,0,0,0,0,0,0,0,0,0,0,0,0,0,0,0,0,0,0,0,0,0,0,0,0,0,0,0,0,0,0,0,0,0,0,0,0,0,0,0,0,0,0,0,0,0,0,0,0,0,0,0,0,0,0,0,0,0,0,0,0,0,0,0,0,0,0,0,0,0,0,0,0,0,0,0,0,0,0,0,0,0,0,0,0,0,0,0,0,0,0,0,0,0,0,0,0,0,0,0,0,0,0,0,0,0,0,0,0,0,0,0,0,0,0,0,0,0,0,0,0,0,0,0,0,0,0,0,0,0,0,0,0,0,0,0,0,0,0,0,0,0,0,0,0,0,0,0,0,0,0,0,0,0,0,0,0,0,0,0,0,0,0,0,0,0,0,0,0,0,0],"id":0,"left_children":[1,3,5,7,9,11,13,15,17,19,21,23,25,27,29,31,33,35,37,39,41,-1,43,45,47,-1,49,51,53,55,57,-1,-1,59,61,63,65,67,69,71,73,-1,75,77,79,81,83,85,87,89,91,93,95,97,99,101,103,105,107,109,111,113,115,117,119,121,123,125,127,129,131,133,135,137,-1,-1,-1,-1,-1,-1,139,141,143,-1,145,147,149,151,153,-1,155,157,159,161,163,165,167,169,171,173,175,177,179,181,183,185,187,189,191,193,195,197,199,201,203,205,207,209,211,213,215,217,219,221,223,225,227,229,231,233,235,237,239,241,243,245,247,249,-1,251,253,255,257,259,261,-1,-1,-1,-1,-1,263,265,267,269,-1,271,-1,273,275,-1,-1,277,279,281,283,285,287,289,291,293,295,297,299,301,303,305,307,309,311,313,315,317,319,-1,321,-1,323,325,327,-1,329,331,-1,-1,-1,-1,-1,-1,-1,-1,-1,-1,-1,-1,-1,-1,-1,-1,-1,-1,-1,-1,-1,-1,-1,-1,-1,-1,-1,-1,-1,-1,-1,-1,-1,-1,-1,-1,-1,-1,-1,-1,-1,-1,-1,-1,-1,-1,-1,-1,-1,-1,-1,-1,-1,-1,-1,-1,-1,-1,-1,-1,-1,-1,-1,-1,-1,-1,-1,-1,-1,-1,-1,-1,-1,-1,-1,-1,-1,-1,-1,-1,-1,-1,-1,-1,-1,-1,-1,-1,-1,-1,-1,-1,-1,-1,-1,-1,-1,-1,-1,-1,-1,-1,-1,-1,-1,-1,-1,-1,-1,-1,-1,-1,-1,-1,-1,-1,-1,-1,-1,-1,-1,-1,-1,-1,-1,-1,-1,-1,-1,-1,-1,-1,-1,-1,-1,-1,-1,-1,-1,-1,-1],"loss_changes":[2.6872717E-2,2.3320314E-2,1.5340423E-2,1.8127356E-2,1.1974297E-2,1.4031209E-2,6.897618E-3,6.7301095E-3,2.561001E-3,3.3312883E-2,3.0956194E-1,2.782735E-2,1.1284551E-1,4.54035E-3,6.6158455E-3,5.979414E-3,6.352734E-3,2.8799921E-3,2.3710895E-3,2.6386397E-2,5.105102E-2,0E0,1.673416E-2,1.275053E-2,2.8976751E-2,0E0,3.2080606E-2,4.40813E-3,7.523642E-3,5.9319437E-3,2.3924557E-3,0E0,0E0,1.7103786E-2,4.087843E-3,1.9906033E-3,5.8873463E-4,3.673878E-3,8.636634E-4,1.8196989E-2,1.9830925E-2,0E0,4.1756816E-2,1.998399E-2,4.8665814E-2,6.4360425E-3,8.386243E-3,2.9196605E-2,7.2924946E-3,6.9716305E-2,1.6031064E-2,2.2489536E-3,1.8061937E-3,1.5764713E-3,2.7885195E-3,7.6044514E-3,1.0836123E-2,1.6589314E-3,8.3520066E-4,1.3543416E-2,7.77878E-3,2.60715E-3,3.625526E-3,2.0050732E-4,1.71295E-3,5.141618E-4,1.4650091E-4,4.069257E-3,8.249404E-4,3.3747745E-4,4.01926E-4,6.3625104E-3,1.5183421E-2,1.1019766E-3,0E0,0E0,0E0,0E0,0E0,0E0,8.842901E-3,8.326448E-3,1.2918552E-2,0E0,9.1874227E-4,8.089039E-4,4.0225238E-3,5.8091413E-3,2.1872055E-3,0E0,1.2727242E-3,3.4339842E-3,1.0664323E-3,2.2936743E-3,2.8424154E-4,5.277159E-4,1.5842889E-3,1.7592269E-3,1.2591907E-3,4.1233134E-4,2.4422538E-3,7.0253974E-3,3.3287052E-3,1.4631044E-2,6.00845E-3,1.0118436E-3,2.203128E-3,2.8015347E-4,1.6585812E-4,1.780203E-4,1.0245424E-2,1.746181E-2,9.6343495E-3,1.6443618E-3,2.4165583E-3,1.0893375E-3,2.6399978E-3,3.0469244E-5,1.8333399E-4,1.0437034E-3,1.1243224E-3,2.8523523E-4,2.3809573E-5,9.889674E-6,1.3126788E-4,2.2206903E-3,3.5872454E-5,2.2177618E-4,3.7484E-4,3.403027E-4,4.5056542E-4,4.082257E-4,2.4623607E-4,3.7177266E-3,8.748077E-3,1.08089E-2,3.9545917E-3,5.108899E-4,0E0,1.9978376E-2,3.9336927E-2,8.0178175E-3,1.0534363E-2,6.1683645E-3,6.6944733E-3,0E0,0E0,0E0,0E0,0E0,1.6532838E-5,2.153974E-3,4.0393276E-4,3.868952E-3,0E0,7.9888944E-4,0E0,3.9379746E-3,1.3811779E-3,0E0,0E0,2.1475554E-4,1.4828462E-3,2.0754963E-4,1.6706584E-4,1.4287626E-3,4.2809866E-4,1.1829303E-3,8.6833606E-4,1.2436051E-4,1.9079079E-3,9.391529E-4,2.0920227E-3,4.6198117E-4,2.4060768E-4,2.1768021E-3,3.6378223E-3,4.371194E-3,7.163253E-4,2.8565712E-3,2.486202E-3,3.958557E-3,1.8306508E-3,0E0,4.9222196E-3,0E0,1.2815341E-3,8.807443E-4,1.2865006E-3,0E0,2.230613E-4,3.4919198E-5,0E0,0E0,0E0,0E0,0E0,0E0,0E0,0E0,0E0,0E0,0E0,0E0,0E0,0E0,0E0,0E0,0E0,0E0,0E0,0E0,0E0,0E0,0E0,0E0,0E0,0E0,0E0,0E0,0E0,0E0,0E0,0E0,0E0,0E0,0E0,0E0,0E0,0E0,0E0,0E0,0E0,0E0,0E0,0E0,0E0,0E0,0E0,0E0,0E0,0E0,0E0,0E0,0E0,0E0,0E0,0E0,0E0,0E0,0E0,0E0,0E0,0E0,0E0,0E0,0E0,0E0,0E0,0E0,0E0,0E0,0E0,0E0,0E0,0E0,0E0,0E0,0E0,0E0,0E0,0E0,0E0,0E0,0E0,0E0,0E0,0E0,0E0,0E0,0E0,0E0,0E0,0E0,0E0,0E0,0E0,0E0,0E0,0E0,0E0,0E0,0E0,0E0,0E0,0E0,0E0,0E0,0E0,0E0,0E0,0E0,0E0,0E0,0E0,0E0,0E0,0E0,0E0,0E0,0E0,0E0,0E0,0E0,0E0,0E0,0E0,0E0,0E0,0E0,0E0,0E0,0E0,0E0,0E0,0E0,0E0,0E0,0E0,0E0,0E0,0E0,0E0],"parents":[2147483647,0,0,1,1,2,2,3,3,4,4,5,5,6,6,7,7,8,8,9,9,10,10,11,11,12,12,13,13,14,14,15,15,16,16,17,17,18,18,19,19,20,20,22,22,23,23,24,24,26,26,27,27,28,28,29,29,30,30,33,33,34,34,35,35,36,36,37,37,38,38,39,39,40,40,42,42,43,43,44,44,45,45,46,46,47,47,48,48,49,49,50,50,51,51,52,52,53,53,54,54,55,55,56,56,57,57,58,58,59,59,60,60,61,61,62,62,63,63,64,64,65,65,66,66,67,67,68,68,69,69,70,70,71,71,72,72,73,73,80,80,81,81,82,82,84,84,85,85,86,86,87,87,88,88,90,90,91,91,92,92,93,93,94,94,95,95,96,96,97,97,98,98,99,99,100,100,101,101,102,102,103,103,104,104,105,105,106,106,107,107,108,108,109,109,110,110,111,111,112,112,113,113,114,114,115,115,116,116,117,117,118,118,119,119,120,120,121,121,122,122,123,123,124,124,125,125,126,126,127,127,128,128,129,129,130,130,131,131,132,132,133,133,134,134,135,135,136,136,137,137,139,139,140,140,141,141,142,142,143,143,144,144,150,150,151,151,152,152,153,153,155,155,157,157,158,158,161,161,162,162,163,163,164,164,165,165,166,166,167,167,168,168,169,169,170,170,171,171,172,172,173,173,174,174,175,175,176,176,177,177,178,178,179,179,180,180,181,181,182,182,184,184,186,186,187,187,188,188,190,190,191,191],"right_children":[2,4,6,8,10,12,14,16,18,20,22,24,26,28,30,32,34,36,38,40,42,-1,44,46,48,-1,50,52,54,56,58,-1,-1,60,62,64,66,68,70,72,74,-1,76,78,80,82,84,86,88,90,92,94,96,98,100,102,104,106,108,110,112,114,116,118,120,122,124,126,128,130,132,134,136,138,-1,-1,-1,-1,-1,-1,140,142,144,-1,146,148,150,152,154,-1,156,158,160,162,164,166,168,170,172,174,176,178,180,182,184,186,188,190,192,194,196,198,200,202,204,206,208,210,212,214,216,218,220,222,224,226,228,230,232,234,236,238,240,242,244,246,248,250,-1,252,254,256,258,260,262,-1,-1,-1,-1,-1,264,266,268,270,-1,272,-1,274,276,-1,-1,278,280,282,284,286,288,290,292,294,296,298,300,302,304,306,308,310,312,314,316,318,320,-1,322,-1,324,326,328,-1,330,332,-1,-1,-1,-1,-1,-1,-1,-1,-1,-1,-1,-1,-1,-1,-1,-1,-1,-1,-1,-1,-1,-1,-1,-1,-1,-1,-1,-1,-1,-1,-1,-1,-1,-1,-1,-1,-1,-1,-1,-1,-1,-1,-1,-1,-1,-1,-1,-1,-1,-1,-1,-1,-1,-1,-1,-1,-1,-1,-1,-1,-1,-1,-1,-1,-1,-1,-1,-1,-1,-1,-1,-1,-1,-1,-1,-1,-1,-1,-1,-1,-1,-1,-1,-1,-1,-1,-1,-1,-1,-1,-1,-1,-1,-1,-1,-1,-1,-1,-1,-1,-1,-1,-1,-1,-1,-1,-1,-1,-1,-1,-1,-1,-1,-1,-1,-1,-1,-1,-1,-1,-1,-1,-1,-1,-1,-1,-1,-1,-1,-1,-1,-1,-1,-1,-1,-1,-1,-1,-1,-1,-1],"split_conditions":[-2.4256636E-1,-5.674623E-1,-4.455762E0,-1.6368922E0,-7.0190597E-1,2.5325662E-3,4.1709547E0,-1.3231443E-3,1.5214776E-1,-4.856709E-1,-7.0346254E-1,-4.9283943E-1,-1.7444001E-1,-2.8649269E-2,-6.721915E-1,-7.027479E-1,-4.455762E0,-6.5855783E-1,-2.2770438E0,3.2061255E0,-1.3273366E-3,2.6530419E-2,-7.023449E-1,-9.2775706E-4,-1.1812338E-3,1.2298553E-2,-7.0430523E-1,-5.4155046E-1,-1.0445998E-3,-5.216003E-1,2.2599237E0,-2.948386E-3,-0E0,-3.420034E-2,-3.3336527E0,3.1650698E-1,1.8086485E-3,-1.1874579E-3,-1.8914638E-2,-2.410754E-1,-5.149619E-1,-0E0,-1.896151E-3,-7.0244217E-1,-7.019197E-1,2.0862964E-3,4.0683444E-4,-1.130447E-3,2.6182423E-3,2.6660217E-3,-1.4719658E-3,-2.0817852E-1,1.3973227E-1,-3.5125053E0,-5.2419435E-3,-2.6846072E-3,-7.0274967E-1,-2.924758E-3,2.3732097E-3,-6.50848E-2,6.431469E-1,-1.6619998E-3,-1.5659634E-2,4.657743E-3,-6.50121E-1,3.6280253E-3,1.4445798E-1,-3.5050511E0,-4.9748266E-1,2.3473628E0,-1.2890226E-3,-5.716835E-4,1.240004E-3,-4.8177725E-1,4.29329E-3,-0E0,-9.119614E-3,6.6168713E-3,-0E0,-7.6055187E-3,3.2368111E-3,5.0548947E-1,5.291134E0,-0E0,-6.857905E-1,-7.019034E-1,4.1709547E0,-4.086905E-2,-4.7255847E-1,9.471263E-3,-1.1427334E-3,5.022745E-1,-7.0014954E-1,-5.546015E-1,4.4259647E-1,-3.5050511E0,2.264398E-3,-3.0951023E-1,-9.5887453E-4,-7.0189404E-1,1.5972103E-1,2.5791557E0,1.7040966E0,1.2791508E-3,-3.8965067E-1,-9.3912894E-1,-1.1021518E-3,1.1514359E0,3.164612E-1,-4.9327978E-1,-1.0089481E0,-1.3725145E0,-4.2601308E-1,6.1098164E-1,-9.679455E-4,1.3762817E-3,-2.9524087E-3,2.597358E-1,-3.6128157E-1,4.652335E-4,-2.7076044E0,-4.1246662E-1,-1.2433352E-3,-2.384785E-3,-3.4689885E-1,-1.2183658E-2,-1.2140571E0,-5.724692E-1,-4.7355068E-1,-5.849429E-1,2.1656579E-1,-9.278339E-1,2.8198822E-3,-2.884525E-3,-3.3336527E0,-3.1474832E-1,2.621596E-3,-4.476999E0,-0E0,-6.9943196E-1,1.226444E0,-2.6475613E-3,4.1709547E0,5.4849304E-2,4.8718473E-1,-3.567395E-3,-0E0,-0E0,1.3049896E-3,-5.0766964E-4,1.378037E0,-1.0837717E-3,-7.235789E-2,-5.9216297E-1,-0E0,2.5320884E-2,-0E0,-9.38904E-2,-2.1735472E-3,-2.8835605E-3,-0E0,-1.1065924E0,-3.0555967E-3,-2.555046E-1,-5.933871E-1,-1.1754391E-3,-2.499328E-3,9.3084913E-1,-2.7076044E0,-1.0921756E-3,8.7970245E-1,2.5861568E0,2.0925994E-3,-5.881701E-1,-8.616388E-3,-2.4690278E0,5.08994E-2,4.2773786E0,9.38875E-1,4.8718473E-1,1.2585572E-3,2.1741567E0,1.0766784E-3,-3.1723015E-3,-2.1187575E-3,-0E0,1.9607313E-4,-5.0574344E-1,1.4903475E0,-0E0,3.638203E-3,1.3722606E0,-0E0,-3.788994E-4,-0E0,3.3056655E-3,-0E0,3.903785E-3,3.4817497E-4,-1.1622799E-3,1.9665934E-4,3.2285112E-4,-0E0,-1.0876929E-3,9.6773525E-5,2.2488355E-6,2.4797843E-4,-0E0,1.8918201E-4,3.2077613E-5,-0E0,-1.332745E-4,-0E0,2.0249044E-4,5.9845213E-5,-1.8693622E-4,8.184909E-5,6.8412905E-5,4.1910727E-5,-1.611882E-5,-0E0,-0E0,1.21276635E-5,-1.3984587E-4,-0E0,-5.3408476E-5,-2.3994332E-3,-0E0,-8.988538E-5,9.9286575E-5,-0E0,-0E0,-3.4881162E-4,3.502296E-5,-6.709569E-6,-1.2571666E-4,-0E0,6.603356E-5,2.8356366E-5,-4.172098E-5,2.5188909E-5,-0E0,-1.3407125E-3,1.2694858E-3,-0E0,-3.4909558E-3,-8.245786E-4,9.272866E-5,-1.1759105E-3,9.963665E-4,-0E0,-7.8589434E-4,4.1624853E-6,8.194296E-5,1.9534563E-3,-0E0,1.7109814E-3,-0E0,-2.3900238E-3,5.1139126E-4,-5.7631795E-4,2.6898414E-3,-0E0,-4.0417323E-3,-0E0,1.5764611E-3,-0E0,-0E0,-4.068737E-4,-0E0,-1.992189E-3,1.1100069E-3,-0E0,6.683995E-4,-0E0,-4.4303178E-4,1.3927708E-4,-0E0,4.536934E-5,-0E0,1.5763084E-4,3.5152076E-5,-0E0,-1.5618603E-4,-0E0,-0E0,-6.0617214E-4,-1.4553586E-6,7.8660805E-6,-2.8070788E-5,-1.0356239E-4,6.503099E-5,-8.199502E-6,-1.21386394E-4,-0E0,-0E0,5.665158E-4,-1.9634876E-5,-1.078241E-4,-3.3434121E-6,1.4885886E-4,-0E0,1.8690547E-4,2.1651356E-5,-1.957382E-6,2.049909E-4,-1.9174222E-5,-4.851966E-5,-7.476382E-6,-0E0,1.7159745E-3,4.600858E-5,-4.1680256E-4,-4.0424682E-4,-1.9486502E-5,4.09488E-4,-9.562104E-5,-2.4895607E-3,-0E0,-9.506186E-5,1.2101155E-3,-3.7413175E-4,1.204638E-4,-0E0,6.32361E-4,-0E0,2.9582306E-4,-0E0,-4.479392E-4,-6.356707E-4,-0E0,-1.2814422E-4,-0E0],"split_indices":[9,19,15,9,12,55,9,74,4,18,3,20,4,11,0,0,15,9,15,4,60,0,26,81,87,0,1,5,42,18,23,0,0,23,9,102,61,74,22,29,18,0,40,3,26,55,79,74,85,85,41,11,9,15,6,72,12,75,85,23,4,100,22,99,29,6,15,11,11,4,6,95,65,5,0,0,0,0,0,0,43,30,4,0,0,10,9,22,19,0,42,6,0,18,9,11,55,20,81,0,11,4,29,61,4,30,96,4,102,5,20,30,33,20,81,43,40,32,30,50,15,4,74,62,9,6,9,19,29,19,30,9,49,100,9,37,85,9,0,3,29,72,9,11,32,0,0,0,0,0,36,42,30,19,0,6,0,22,100,0,0,36,68,15,19,74,66,9,15,81,11,9,93,19,6,15,4,11,30,32,65,20,51,0,70,0,57,30,20,0,49,30,0,0,0,0,0,0,0,0,0,0,0,0,0,0,0,0,0,0,0,0,0,0,0,0,0,0,0,0,0,0,0,0,0,0,0,0,0,0,0,0,0,0,0,0,0,0,0,0,0,0,0,0,0,0,0,0,0,0,0,0,0,0,0,0,0,0,0,0,0,0,0,0,0,0,0,0,0,0,0,0,0,0,0,0,0,0,0,0,0,0,0,0,0,0,0,0,0,0,0,0,0,0,0,0,0,0,0,0,0,0,0,0,0,0,0,0,0,0,0,0,0,0,0,0,0,0,0,0,0,0,0,0,0,0,0,0,0,0,0,0,0],"split_type":[0,0,0,0,0,0,0,0,0,0,0,0,0,0,0,0,0,0,0,0,0,0,0,0,0,0,0,0,0,0,0,0,0,0,0,0,0,0,0,0,0,0,0,0,0,0,0,0,0,0,0,0,0,0,0,0,0,0,0,0,0,0,0,0,0,0,0,0,0,0,0,0,0,0,0,0,0,0,0,0,0,0,0,0,0,0,0,0,0,0,0,0,0,0,0,0,0,0,0,0,0,0,0,0,0,0,0,0,0,0,0,0,0,0,0,0,0,0,0,0,0,0,0,0,0,0,0,0,0,0,0,0,0,0,0,0,0,0,0,0,0,0,0,0,0,0,0,0,0,0,0,0,0,0,0,0,0,0,0,0,0,0,0,0,0,0,0,0,0,0,0,0,0,0,0,0,0,0,0,0,0,0,0,0,0,0,0,0,0,0,0,0,0,0,0,0,0,0,0,0,0,0,0,0,0,0,0,0,0,0,0,0,0,0,0,0,0,0,0,0,0,0,0,0,0,0,0,0,0,0,0,0,0,0,0,0,0,0,0,0,0,0,0,0,0,0,0,0,0,0,0,0,0,0,0,0,0,0,0,0,0,0,0,0,0,0,0,0,0,0,0,0,0,0,0,0,0,0,0,0,0,0,0,0,0,0,0,0,0,0,0,0,0,0,0,0,0,0,0,0,0,0,0,0,0,0,0,0,0,0,0,0,0,0,0,0,0,0,0,0,0,0,0,0,0,0,0,0,0,0,0,0,0],"sum_hessian":[3.0954E5,8.1031E4,2.28509E5,3.048E4,5.0551E4,4.42E2,2.28067E5,3.372E3,2.7108E4,1.5E2,5.0401E4,2.95E2,1.47E2,2.26978E5,1.089E3,6E0,3.366E3,1.9288E4,7.82E3,1.36E2,1.4E1,1E0,5.04E4,2.33E2,6.2E1,2E0,1.45E2,7.1556E4,1.55422E5,7.18E2,3.71E2,3E0,3E0,1.62E2,3.204E3,5.514E3,1.3774E4,1.45E2,7.675E3,1.19E2,1.7E1,7E0,7E0,3E0,5.0397E4,2.22E2,1.1E1,2.2E1,4E1,1.8E1,1.27E2,5.601E3,6.5955E4,9.355E4,6.1872E4,4.59E2,2.59E2,2.93E2,7.8E1,2E1,1.42E2,7.69E2,2.435E3,3.35E2,5.179E3,1.3337E4,4.37E2,3E1,1.15E2,2.213E3,5.462E3,6.5E1,5.4E1,1.2E1,5E0,3E0,4E0,2E0,1E0,2E0,5.0395E4,5.1E1,1.71E2,7E0,4E0,4E0,1.8E1,2.6E1,1.4E1,3E0,1.5E1,1.22E2,5E0,3.326E3,2.275E3,4.7964E4,1.7991E4,1.21E2,9.3429E4,3.859E3,5.8013E4,5.2E1,4.07E2,2.4E1,2.35E2,5.9E1,2.34E2,1.9E1,5.9E1,5E0,1.5E1,8.2E1,6E1,6.26E2,1.43E2,7.92E2,1.643E3,1.21E2,2.14E2,9.39E2,4.24E3,1.2904E4,4.33E2,3.76E2,6.1E1,1.3E1,1.7E1,8.6E1,2.9E1,1.911E3,3.02E2,4.928E3,5.34E2,2.2E1,4.3E1,2.8E1,2.6E1,5E0,7E0,4.9986E4,4.09E2,3E1,2.1E1,1.57E2,1.4E1,3E0,1E0,2E0,2E0,5E0,1.3E1,1.1E1,1.5E1,1E1,4E0,1.1E1,4E0,9.1E1,3.1E1,4E0,1E0,2.22E3,1.106E3,2.228E3,4.7E1,3.5E1,4.7929E4,5.141E3,1.285E4,4.9E1,7.2E1,7.499E3,8.593E4,1.79E2,3.68E3,2.6329E4,3.1684E4,2.5E1,2.7E1,2.84E2,1.23E2,1.7E1,7E0,2E0,2.33E2,1.5E1,4.4E1,1.08E2,1.26E2,2E0,1.7E1,3.2E1,2.7E1,3E0,2E0,1.2E1,3E0,4E0,7.8E1,1.7E1,4.3E1,6.08E2,1.8E1,4E0,1.39E2,7.4E2,5.2E1,2.35E2,1.408E3,7.4E1,4.7E1,6.1E1,1.53E2,6.33E2,3.06E2,2.8E1,4.212E3,1.975E3,1.0929E4,2.29E2,2.04E2,2.08E2,1.68E2,3.6E1,2.5E1,8E0,5E0,6E0,1.1E1,6.3E1,2.3E1,5E0,2.4E1,7.08E2,1.203E3,1.2E2,1.82E2,1.388E3,3.54E3,2.5E2,2.84E2,1.3E1,9E0,1.9E1,2.4E1,1E1,1.8E1,1.9E1,7E0,4E0,1E0,8E1,4.9906E4,3.78E2,3.1E1,2.1E1,9E0,1.4E1,7E0,1.47E2,1E1,1.1E1,3E0,1.2E1,1E0,1E1,1E0,9E0,6E0,3E0,7E0,1E1,1E0,6.8E1,2.3E1,1.6E1,1.5E1,3.89E2,1.831E3,1.87E2,9.19E2,5.47E2,1.681E3,4.1E1,6E0,2.2E1,1.3E1,2.2155E4,2.5774E4,4.466E3,6.75E2,4.07E2,1.2443E4,2.1E1,2.8E1,3.2E1,4E1,7.15E3,3.49E2,8.5705E4,2.25E2,1.04E2,7.5E1,1.798E3,1.882E3,1.05E2,2.6224E4,2.436E4,7.324E3,1.2E1,1.3E1,1.7E1,1E1,1.78E2,1.06E2,3.2E1,9.1E1,1.6E1,1E0,4E0,3E0,1.82E2,5.1E1,1.2E1,3.2E1,3.3E1,7.5E1,1.04E2,2.2E1,1.6E1,1E0,3.1E1,1E0],"tree_param":{"num_deleted":"0","num_feature":"103","num_nodes":"333","size_leaf_vector":"1"}},{"base_weights":[-4.5094303E-6,2.8672086E-3,-3.8877395E-5,2.0739902E-3,9.667676E-3,3.1884582E-4,-2.3492594E-4,8.7244314E-4,4.373115E-3,6.044556E-3,6.414028E-2,4.735281E-7,8.250192E-4,-2.1176755E-4,-4.3388885E-3,1.2487973E-3,-5.6482246E-3,3.028886E-3,8.390429E-3,6.4247067E-4,2.9051416E-2,2.3250116E-2,1.303568E-1,1.1555204E-5,-3.8055747E-3,2.1943431E-3,6.6996115E-4,-3.957484E-4,-4.8127753E-5,-2.326199E-3,-1.5962789E-2,6.3208595E-4,7.3481007E-3,-1.7640267E-2,2.8612586E-3,8.4090956E-5,4.0852404E-3,2.2564543E-2,6.475954E-3,-1.5397672E-2,8.895913E-3,9.729347E-2,1.979684E-2,-0E0,6.1833235E-3,1.67975E-1,-0E0,-1.380145E-6,1.8462458E-3,1.4181985E-3,-1.762357E-2,6.085573E-3,1.8994631E-3,1.2100023E-3,5.190743E-4,-1.3612218E-4,-6.564808E-4,1.2006042E-2,-5.1056668E-5,1.3121782E-3,-3.9403955E-3,-2.7592685E-2,-4.080871E-3,1.4597701E-4,5.541929E-3,1.0962611E-2,-1.1194941E-2,-2.123821E-2,-0E0,6.099459E-3,-6.9995987E-4,-4.9928166E-3,2.1083208E-3,2.1878416E-3,7.827453E-3,-0E0,2.9303864E-2,7.415848E-3,-3.9548322E-4,-8.849106E-3,-8.63615E-3,5.1399123E-2,2.1621191E-3,5.6366026E-3,-0E0,5.8279317E-3,4.577372E-2,2.4349669E-3,-0E0,9.3038445E-3,-0E0,-3.3191498E-4,5.6911256E-5,-2.9046374E-4,2.6871157E-3,6.2222197E-3,-3.3072832E-3,-0E0,-4.5427937E-2,1.0846377E-2,-0E0,1.976128E-3,-8.469129E-3,2.9898295E-3,9.621631E-4,1.1237555E-3,4.1350632E-4,1.0028927E-3,-2.3479982E-4,3.3536162E-3,-6.734845E-4,1.8340124E-2,-0E0,-6.786302E-5,3.499216E-4,2.3182442E-3,-3.1466468E-3,-1.2471045E-3,-5.6686043E-3,-1.9809445E-2,-7.7460535E-2,-1.423897E-2,3.5936397E-3,4.2371638E-4,-7.903662E-3,7.591932E-3,-0E0,6.1762994E-3,2.9150248E-2,-0E0,-2.3795716E-2,-5.161202E-2,-1.3050061E-2,8.323257E-3,-0E0,-3.8752982E-3,-0E0,-9.759187E-3,-0E0,1.1425292E-3,8.76715E-4,3.642188E-3,-6.244781E-5,2.8826956E-2,5.998828E-3,-0E0,3.882304E-2,8.527376E-3,-0E0,-5.9265974E-3,-0E0,-0E0,-3.8513985E-2,7.050626E-2,-0E0,6.217339E-3,-8.8577576E-2,2.470711E-3,1.9295664E-3,1.6677873E-1,1.1752947E-2,1.1301924E-2,-0E0,-8.206758E-4,-7.401665E-5,8.9026595E-5,-3.5707332E-4,2.2540585E-4,-5.6184093E-3,3.0249632E-3,-0E0,-0E0,2.7009085E-2,-0E0,-5.5874763E-3,1.0837857E-3,-8.64996E-3,-8.548135E-2,-1.3285618E-2,3.8043134E-2,8.846502E-3,1.3214292E-3,-1.3659018E-2,2.1733996E-3,-1.0882447E-4,-2.3683727E-2,-0E0,4.814379E-3,8.8322454E-4,1.0509491E-3,-1.0006137E-3,1.225295E-3,-0E0,4.658104E-4,-1.6527358E-4,1.6212584E-3,8.5948544E-5,-9.434359E-6,-4.363068E-4,-1.5031478E-2,5.9379707E-3,-1.625429E-3,-6.067324E-4,1.9943211E-2,-0E0,-5.8459893E-5,-9.437055E-4,2.9215444E-5,8.0251694E-4,-6.57077E-4,4.405867E-3,-0E0,-5.8969497E-3,-2.9791605E-3,1.9594359E-3,-2.706901E-3,-9.048764E-3,-3.2303159E-3,-3.5754513E-2,-0E0,-1.1159724E-1,-0E0,-2.0133574E-2,2.072289E-3,-0E0,1.7383612E-4,-8.701124E-6,-6.2568457E-4,-0E0,5.668743E-4,4.1702337E-5,-2.19448E-4,-0E0,4.8725004E-4,-1.471602E-4,-0E0,1.9953626E-3,-2.66321E-5,4.7445585E-4,-2.1362677E-3,-0E0,-0E0,-2.8385767E-3,-0E0,-9.855079E-4,5.036986E-4,-0E0,-0E0,-2.6326402E-4,-0E0,-8.220925E-4,2.3410292E-5,-0E0,-1.2401385E-4,1.5416983E-4,2.5327664E-4,-0E0,2.1572381E-5,-1.8575246E-4,1.6718882E-3,-0E0,-0E0,3.6651272E-4,2.091601E-3,-0E0,-0E0,4.542137E-4,-0E0,-5.5559427E-5,-0E0,-3.9880545E-4,9.3059253E-4,-3.3734483E-4,-3.3161275E-3,-0E0,4.7587226E-3,-0E0,5.7167945E-5,-0E0,6.3529923E-3,1.6057173E-4,-0E0,-6.2130447E-3,-0E0,4.760074E-4,1.1712908E-2,-0E0,-0E0,1.0030072E-3,-0E0,6.8115484E-4,-2.4187111E-5,-9.723051E-5,-8.28936E-6,5.7504716E-5,6.687343E-5,2.7421497E-6,-6.868139E-5,-4.071205E-6,1.8868943E-4,-1.4232846E-4,-0E0,-6.5948616E-4,2.3704469E-4,4.206487E-5,-0E0,-3.304108E-5,1.7976026E-4,-1.10646615E-4,-0E0,1.8570224E-3,-4.942095E-4,-0E0,-5.8662466E-4,-0E0,-6.6018864E-3,-0E0,-8.5465825E-4,-0E0,2.2083966E-3,-0E0,-0E0,4.7242115E-4,-0E0,1.9518215E-4,-0E0,-2.288456E-3,6.073524E-5,1.3758293E-4,-4.6676465E-5,-0E0,-1.795947E-3,-0E0,2.491619E-4,-0E0,7.922312E-5,-5.770461E-5,7.8819336E-5,3.188882E-5,-2.7492488E-4,3.9740194E-6,6.389629E-5,-0E0,-1.8516097E-5,-0E0,2.1029255E-5,7.34029E-5,-1.21895944E-4,3.4977145E-6,2.6692037E-4,6.676259E-5,-4.2713308E-4,1.5136642E-5,7.244068E-7,-1.2689152E-4,1.9410027E-5,-2.5631185E-5,-1.856269E-3,-0E0,1.1512687E-3,1.06540036E-4,-5.026074E-4,-7.644414E-5,-3.389613E-5,3.7800626E-7,-0E0,1.0658223E-3,-3.2319695E-6,6.475354E-5,-6.829577E-6,-9.259548E-5,-1.8734303E-6,3.0239024E-5,-0E0,4.7136095E-5,-1.221211E-4,-0E0,8.070166E-4,8.381034E-5,-0E0,-3.8052743E-4,1.6035693E-4,-1.8893687E-4,8.0707157E-4,-0E0,-2.7988333E-4,-0E0,-6.9380895E-4,-1.2483397E-4,-1.9309804E-3,3.813662E-5,-2.3206223E-4,-2.676639E-3,-0E0,-6.405826E-3,9.1508264E-4,-0E0,-0E0,-1.2883941E-3,1.7889895E-4,-5.062549E-4],"categories":[],"categories_nodes":[],"categories_segments":[],"categories_sizes":[],"default_left":[0,0,0,0,0,0,0,0,0,0,0,0,0,0,0,0,0,0,0,0,0,0,0,0,0,0,0,0,0,0,0,0,0,0,0,0,0,0,0,0,0,0,0,0,0,0,0,0,0,0,0,0,0,0,0,0,0,0,0,0,0,0,0,0,0,0,0,0,0,0,0,0,0,0,0,0,0,0,0,0,0,0,0,0,0,0,0,0,0,0,0,0,0,0,0,0,0,0,0,0,0,0,0,0,0,0,0,0,0,0,0,0,0,0,0,0,0,0,0,0,0,0,0,0,0,0,0,0,0,0,0,0,0,0,0,0,0,0,0,0,0,0,0,0,0,0,0,0,0,0,0,0,0,0,0,0,0,0,0,0,0,0,0,0,0,0,0,0,0,0,0,0,0,0,0,0,0,0,0,0,0,0,0,0,0,0,0,0,0,0,0,0,0,0,0,0,0,0,0,0,0,0,0,0,0,0,0,0,0,0,0,0,0,0,0,0,0,0,0,0,0,0,0,0,0,0,0,0,0,0,0,0,0,0,0,0,0,0,0,0,0,0,0,0,0,0,0,0,0,0,0,0,0,0,0,0,0,0,0,0,0,0,0,0,0,0,0,0,0,0,0,0,0,0,0,0,0,0,0,0,0,0,0,0,0,0,0,0,0,0,0,0,0,0,0,0,0,0,0,0,0,0,0,0,0,0,0,0,0,0,0,0,0,0,0,0,0,0,0,0,0,0,0,0,0,0,0,0,0,0,0,0,0,0,0,0,0,0,0,0,0,0,0,0,0,0,0,0,0,0,0,0,0,0,0,0,0,0,0,0,0,0,0,0,0,0,0,0,0,0,0,0,0,0,0,0,0,0,0,0,0,0,0,0,0,0,0,0,0,0,0,0,0,0,0,0,0,0,0,0,0],"id":1,"left_children":[1,3,5,7,9,11,13,15,17,19,21,23,25,27,29,31,33,35,37,39,41,43,45,47,49,51,53,55,57,59,61,63,65,67,69,71,73,75,77,79,81,83,85,87,-1,89,-1,91,93,95,97,99,101,103,105,107,109,111,113,115,117,119,121,123,125,127,129,131,-1,133,135,137,139,141,143,-1,145,147,149,-1,151,153,155,-1,-1,157,159,161,-1,-1,-1,163,165,167,169,171,173,175,177,179,181,183,185,187,189,191,193,195,197,199,201,203,-1,205,207,209,211,213,215,217,219,221,223,225,227,229,231,233,235,237,239,241,243,245,-1,247,-1,249,251,-1,253,255,257,259,261,-1,263,265,267,269,-1,271,273,275,277,279,281,-1,283,285,287,289,-1,291,293,295,297,299,301,303,305,307,309,-1,311,-1,313,315,317,319,321,323,325,327,329,331,-1,333,335,337,339,341,343,345,347,349,351,353,355,357,359,361,363,365,-1,367,369,371,373,375,377,-1,379,381,383,385,387,389,391,-1,393,395,397,-1,399,-1,-1,-1,-1,-1,-1,-1,-1,-1,-1,-1,-1,-1,-1,-1,-1,-1,-1,-1,-1,-1,-1,-1,-1,-1,-1,-1,-1,-1,-1,-1,-1,-1,-1,-1,-1,-1,-1,-1,-1,-1,-1,-1,-1,-1,-1,-1,-1,-1,-1,-1,-1,-1,-1,-1,-1,-1,-1,-1,-1,-1,-1,-1,-1,-1,-1,-1,-1,-1,-1,-1,-1,-1,-1,-1,-1,-1,-1,-1,-1,-1,-1,-1,-1,-1,-1,-1,-1,-1,-1,-1,-1,-1,-1,-1,-1,-1,-1,-1,-1,-1,-1,-1,-1,-1,-1,-1,-1,-1,-1,-1,-1,-1,-1,-1,-1,-1,-1,-1,-1,-1,-1,-1,-1,-1,-1,-1,-1,-1,-1,-1,-1,-1,-1,-1,-1,-1,-1,-1,-1,-1,-1,-1,-1,-1,-1,-1,-1,-1,-1,-1,-1,-1,-1,-1,-1,-1,-1,-1,-1,-1,-1,-1,-1,-1,-1,-1,-1,-1,-1,-1,-1,-1,-1,-1,-1],"loss_changes":[3.0307537E-2,1.8410912E-2,2.1473976E-2,8.494921E-3,6.519654E-2,1.7364219E-2,1.8368136E-2,4.8937243E-3,4.7530755E-3,3.991951E-2,4.146669E-2,2.4288618E-3,8.563349E-3,5.885616E-3,2.360042E-2,6.984455E-3,1.21059455E-2,2.1870397E-3,4.0037297E-3,3.6842108E-2,2.7317684E-2,2.4494123E-2,5.1465586E-2,1.7606742E-3,1.3684661E-2,3.989892E-3,2.8833002E-3,6.1778007E-3,2.4952027E-3,5.7493607E-3,1.797758E-2,3.951812E-3,1.1724946E-2,3.5709217E-3,1.1873185E-3,2.2417305E-3,3.193845E-3,3.2720445E-3,2.1948703E-3,8.1909806E-2,4.9327083E-2,7.07072E-3,1.517009E-2,5.3954474E-5,0E0,4.4703633E-3,0E0,1.2971449E-3,1.1724072E-3,2.929174E-3,2.3545463E-2,8.125986E-3,2.4557635E-3,3.1537376E-3,1.7268751E-3,5.1503936E-3,2.8637592E-3,1.9414378E-3,6.7613536E-4,1.1205515E-3,2.4081292E-3,1.8492103E-2,7.314121E-3,3.1471557E-3,2.1931748E-3,9.60285E-3,4.9635563E-3,3.6882255E-3,0E0,9.294923E-4,1.15716946E-4,2.0397538E-3,2.481617E-3,1.7001312E-3,3.4544086E-3,0E0,2.6946934E-3,2.2298275E-3,2.8214717E-4,0E0,2.6136175E-2,2.13373E-2,5.3306736E-2,0E0,0E0,1.4997735E-3,5.2346114E-2,7.252198E-4,0E0,0E0,0E0,1.188186E-3,7.145432E-4,8.502852E-4,6.0983887E-4,6.190276E-3,6.0091447E-4,5.608882E-3,1.4599264E-2,3.6588982E-3,2.439259E-3,1.804431E-3,3.1734733E-3,3.0201245E-3,1.244544E-3,5.859961E-4,7.936293E-4,1.8858558E-3,1.9027274E-3,7.1341246E-3,2.6842877E-3,4.0623546E-4,0E0,7.278904E-4,4.9235916E-4,1.8478789E-3,5.6489464E-4,1.6748676E-3,2.6572105E-3,1.3299497E-2,1.4914028E-2,5.2872356E-3,8.242677E-3,3.425544E-3,2.3034432E-3,1.7965632E-3,2.3308196E-4,4.7218557E-3,8.983161E-3,6.401873E-4,4.976808E-3,1.8815137E-4,2.2194711E-3,7.889883E-4,0E0,7.5189295E-5,0E0,2.2658296E-3,3.310172E-6,0E0,1.4248549E-3,1.7541326E-3,5.704373E-4,1.7815307E-3,2.0692716E-3,0E0,1.186626E-3,1.3260422E-3,1.7409835E-5,1.0356281E-4,0E0,9.407561E-3,2.484119E-2,3.3655725E-2,4.0525356E-6,4.5450196E-2,1.5446641E-2,0E0,7.735404E-4,2.9014513E-2,2.116677E-3,1.6732834E-4,0E0,1.0321627E-3,6.6201104E-4,2.0786503E-3,9.16517E-4,1.0323329E-3,2.1194136E-3,8.918531E-4,5.7205752E-6,5.8109843E-4,3.7258184E-3,0E0,1.03207E-3,0E0,6.8828405E-4,1.9599102E-2,1.1074138E-3,1.6242284E-3,1.1735149E-3,5.664299E-4,4.2364364E-3,1.5949477E-3,1.1863464E-4,2.0364258E-3,0E0,4.383577E-4,6.991102E-4,1.2662667E-3,1.8006891E-3,3.0223606E-4,1.4001826E-5,8.6678844E-4,1.269694E-3,1.5656613E-3,2.0309077E-3,1.490846E-3,1.4222143E-3,6.148166E-3,7.4393414E-3,1.1997889E-3,1.941245E-3,2.3118546E-4,0E0,7.100089E-4,5.0123583E-4,1.5077075E-4,2.5075354E-4,2.949752E-4,3.3117894E-3,0E0,3.4929352E-4,1.0679363E-3,3.6305457E-3,1.5237785E-3,3.5180422E-3,8.748655E-3,1.0807268E-2,0E0,3.781639E-3,1.0383464E-3,3.24855E-3,0E0,1.7156189E-3,0E0,0E0,0E0,0E0,0E0,0E0,0E0,0E0,0E0,0E0,0E0,0E0,0E0,0E0,0E0,0E0,0E0,0E0,0E0,0E0,0E0,0E0,0E0,0E0,0E0,0E0,0E0,0E0,0E0,0E0,0E0,0E0,0E0,0E0,0E0,0E0,0E0,0E0,0E0,0E0,0E0,0E0,0E0,0E0,0E0,0E0,0E0,0E0,0E0,0E0,0E0,0E0,0E0,0E0,0E0,0E0,0E0,0E0,0E0,0E0,0E0,0E0,0E0,0E0,0E0,0E0,0E0,0E0,0E0,0E0,0E0,0E0,0E0,0E0,0E0,0E0,0E0,0E0,0E0,0E0,0E0,0E0,0E0,0E0,0E0,0E0,0E0,0E0,0E0,0E0,0E0,0E0,0E0,0E0,0E0,0E0,0E0,0E0,0E0,0E0,0E0,0E0,0E0,0E0,0E0,0E0,0E0,0E0,0E0,0E0,0E0,0E0,0E0,0E0,0E0,0E0,0E0,0E0,0E0,0E0,0E0,0E0,0E0,0E0,0E0,0E0,0E0,0E0,0E0,0E0,0E0,0E0,0E0,0E0,0E0,0E0,0E0,0E0,0E0,0E0,0E0,0E0,0E0,0E0,0E0,0E0,0E0,0E0,0E0,0E0,0E0,0E0,0E0,0E0,0E0,0E0,0E0,0E0,0E0,0E0,0E0,0E0,0E0,0E0,0E0,0E0,0E0,0E0,0E0,0E0,0E0,0E0,0E0,0E0,0E0,0E0],"parents":[2147483647,0,0,1,1,2,2,3,3,4,4,5,5,6,6,7,7,8,8,9,9,10,10,11,11,12,12,13,13,14,14,15,15,16,16,17,17,18,18,19,19,20,20,21,21,22,22,23,23,24,24,25,25,26,26,27,27,28,28,29,29,30,30,31,31,32,32,33,33,34,34,35,35,36,36,37,37,38,38,39,39,40,40,41,41,42,42,43,43,45,45,47,47,48,48,49,49,50,50,51,51,52,52,53,53,54,54,55,55,56,56,57,57,58,58,59,59,60,60,61,61,62,62,63,63,64,64,65,65,66,66,67,67,69,69,70,70,71,71,72,72,73,73,74,74,76,76,77,77,78,78,80,80,81,81,82,82,85,85,86,86,87,87,91,91,92,92,93,93,94,94,95,95,96,96,97,97,98,98,99,99,100,100,101,101,102,102,103,103,104,104,105,105,106,106,107,107,108,108,109,109,110,110,111,111,113,113,114,114,115,115,116,116,117,117,118,118,119,119,120,120,121,121,122,122,123,123,124,124,125,125,126,126,127,127,128,128,129,129,130,130,131,131,132,132,133,133,135,135,137,137,138,138,140,140,141,141,142,142,143,143,144,144,146,146,147,147,148,148,149,149,151,151,152,152,153,153,154,154,155,155,156,156,158,158,159,159,160,160,161,161,163,163,164,164,165,165,166,166,167,167,168,168,169,169,170,170,171,171,172,172,174,174,176,176,177,177,178,178,179,179,180,180,181,181,182,182,183,183,184,184,185,185,187,187,188,188,189,189,190,190,191,191,192,192,193,193,194,194,195,195,196,196,197,197,198,198,199,199,200,200,201,201,202,202,203,203,205,205,206,206,207,207,208,208,209,209,210,210,212,212,213,213,214,214,215,215,216,216,217,217,218,218,220,220,221,221,222,222,224,224],"right_children":[2,4,6,8,10,12,14,16,18,20,22,24,26,28,30,32,34,36,38,40,42,44,46,48,50,52,54,56,58,60,62,64,66,68,70,72,74,76,78,80,82,84,86,88,-1,90,-1,92,94,96,98,100,102,104,106,108,110,112,114,116,118,120,122,124,126,128,130,132,-1,134,136,138,140,142,144,-1,146,148,150,-1,152,154,156,-1,-1,158,160,162,-1,-1,-1,164,166,168,170,172,174,176,178,180,182,184,186,188,190,192,194,196,198,200,202,204,-1,206,208,210,212,214,216,218,220,222,224,226,228,230,232,234,236,238,240,242,244,246,-1,248,-1,250,252,-1,254,256,258,260,262,-1,264,266,268,270,-1,272,274,276,278,280,282,-1,284,286,288,290,-1,292,294,296,298,300,302,304,306,308,310,-1,312,-1,314,316,318,320,322,324,326,328,330,332,-1,334,336,338,340,342,344,346,348,350,352,354,356,358,360,362,364,366,-1,368,370,372,374,376,378,-1,380,382,384,386,388,390,392,-1,394,396,398,-1,400,-1,-1,-1,-1,-1,-1,-1,-1,-1,-1,-1,-1,-1,-1,-1,-1,-1,-1,-1,-1,-1,-1,-1,-1,-1,-1,-1,-1,-1,-1,-1,-1,-1,-1,-1,-1,-1,-1,-1,-1,-1,-1,-1,-1,-1,-1,-1,-1,-1,-1,-1,-1,-1,-1,-1,-1,-1,-1,-1,-1,-1,-1,-1,-1,-1,-1,-1,-1,-1,-1,-1,-1,-1,-1,-1,-1,-1,-1,-1,-1,-1,-1,-1,-1,-1,-1,-1,-1,-1,-1,-1,-1,-1,-1,-1,-1,-1,-1,-1,-1,-1,-1,-1,-1,-1,-1,-1,-1,-1,-1,-1,-1,-1,-1,-1,-1,-1,-1,-1,-1,-1,-1,-1,-1,-1,-1,-1,-1,-1,-1,-1,-1,-1,-1,-1,-1,-1,-1,-1,-1,-1,-1,-1,-1,-1,-1,-1,-1,-1,-1,-1,-1,-1,-1,-1,-1,-1,-1,-1,-1,-1,-1,-1,-1,-1,-1,-1,-1,-1,-1,-1,-1,-1,-1,-1,-1],"split_conditions":[-2.8982835E0,6.4995866E0,-1.07741825E-1,-1.8349152E-2,1.4143338E0,-1.0947066E-3,4.114371E0,2.5018997E0,7.421546E-1,-9.943767E-4,2.5278418E-3,6.4995866E0,-1.2856637E0,-6.762657E-1,6.4995866E0,4.756375E0,-1.1129496E-3,2.5459384E-3,-4.6821675E0,5.098761E-4,-1.2246399E0,1.429601E0,1.3354857E-1,-2.0613563E-3,2.6132667E-3,-3.3336527E0,-6.5855783E-1,1.3973227E-1,-3.1629457E0,-1.3231443E-3,6.3218334E-4,2.0735447E-4,1.2650938E-3,-1.9758064E0,-6.773214E-4,9.440326E-6,4.169879E-5,1.13217965E-1,2.9467996E-3,-1.9306718E-1,5.3243013E-4,-4.6821675E0,2.8495966E-3,5.3434882E-2,6.1833235E-3,1.0007292E0,-0E0,-9.9212813E-1,-2.2419675E-3,1.0281629E-1,-7.0337105E-1,-1.6348814E-3,4.756375E0,-6.8690425E-1,-5.881188E-1,-5.1538885E-1,-9.9899225E-2,-1.5905721E-3,1.3516952E0,3.2942007E0,-4.2601308E-1,-8.789685E-4,3.2286853E-2,-1.0133977E-3,-6.757019E-1,1.3516952E0,-4.273923E0,-7.8920636E-4,-0E0,-8.3160543E-1,-2.1566458E-3,4.8718473E-1,-2.240251E-3,-9.42922E-4,1.5810247E-3,-0E0,-1.230252E-3,-1.1215475E-3,2.9930854E-3,-8.849106E-3,-5.389758E-1,-7.021377E-1,2.8865896E-3,5.6366026E-3,-0E0,-9.9946696E-1,-5.9376234E-1,2.7848582E-3,-0E0,9.3038445E-3,-0E0,-1.8066302E-3,1.0603377E0,3.2942007E0,-1.8364035E-3,-9.495974E-4,-2.24994E0,-4.476999E0,-5.086317E-4,-3.526557E0,-9.575175E-1,4.6452493E-3,1.3715787E-3,4.652335E-4,1.5619905E0,-9.282685E-4,2.0592247E-1,-5.928751E-1,9.865343E-3,1.776525E-3,-6.8690425E-1,2.2599237E0,-0E0,2.8755233E0,1.445448E-3,4.8599595E-1,4.1709547E0,-7.1805495E-1,2.4801397E0,-2.470908E-3,-7.071026E-1,-4.2788196E-1,-3.526557E0,-5.4819906E-1,-9.871216E-4,-2.9727423E0,-1.5555006E-4,6.952937E-1,-7.1805495E-1,-7.03746E-1,-4.476999E0,-6.97075E-1,-1.2618581E0,2.2073581E-3,-0E0,-9.999941E-1,-0E0,3.231763E-4,-7.864349E-4,1.1425292E-3,2.0546278E-1,1.0001178E0,-1.3397115E-1,-3.5050511E0,1.2615849E-3,-0E0,-6.8169594E-1,-2.9382105E-3,-2.9727423E0,-4.68112E0,-0E0,-9.637056E-4,-3.659155E-1,-2.2334121E-3,-1.4307107E0,-1.3293057E-3,-7.0408607E-1,2.470711E-3,-2.760959E-3,-3.460784E-3,-9.998938E-1,-7.0659477E-1,-0E0,-2.544934E-3,-2.589771E-3,-1.6423482E0,-1.2419436E0,-6.8643034E-1,2.222895E-3,-9.278339E-1,-3.659155E-1,-6.7817837E-1,7.064922E-4,-0E0,-1.0997515E0,1.0837857E-3,-1.1161425E-3,-4.476999E0,1.2749195E-1,-7.027479E-1,-2.9727423E0,7.7409214E-1,1.8093379E-3,-2.4308413E-3,-1.9516209E-1,5.0277525E-1,-0E0,3.6518945E-4,-1.5906921E-4,-1.3332988E-1,2.6155234E-4,1.3406773E-3,-5.807108E-1,5.324137E-1,-7.06329E-1,-1.6042667E-2,-7.061183E-1,1.459772E0,-2.100159E-1,-2.0339545E-2,-4.455762E0,-1.6113791E0,1.226444E0,-8.53001E-2,-0E0,1.2533711E-3,1.3962272E0,8.571062E-1,-3.371182E-1,1.2247379E0,2.138686E-3,-0E0,-2.3957808E-1,-1.7615192E0,-7.03746E-1,6.3112075E-4,-6.926731E-1,-2.3894752E-3,-1.229431E-1,-0E0,1.2567772E0,-2.0181598E-1,4.4179684E-4,2.072289E-3,-3.659155E-1,1.7383612E-4,-8.701124E-6,-6.2568457E-4,-0E0,5.668743E-4,4.1702337E-5,-2.19448E-4,-0E0,4.8725004E-4,-1.471602E-4,-0E0,1.9953626E-3,-2.66321E-5,4.7445585E-4,-2.1362677E-3,-0E0,-0E0,-2.8385767E-3,-0E0,-9.855079E-4,5.036986E-4,-0E0,-0E0,-2.6326402E-4,-0E0,-8.220925E-4,2.3410292E-5,-0E0,-1.2401385E-4,1.5416983E-4,2.5327664E-4,-0E0,2.1572381E-5,-1.8575246E-4,1.6718882E-3,-0E0,-0E0,3.6651272E-4,2.091601E-3,-0E0,-0E0,4.542137E-4,-0E0,-5.5559427E-5,-0E0,-3.9880545E-4,9.3059253E-4,-3.3734483E-4,-3.3161275E-3,-0E0,4.7587226E-3,-0E0,5.7167945E-5,-0E0,6.3529923E-3,1.6057173E-4,-0E0,-6.2130447E-3,-0E0,4.760074E-4,1.1712908E-2,-0E0,-0E0,1.0030072E-3,-0E0,6.8115484E-4,-2.4187111E-5,-9.723051E-5,-8.28936E-6,5.7504716E-5,6.687343E-5,2.7421497E-6,-6.868139E-5,-4.071205E-6,1.8868943E-4,-1.4232846E-4,-0E0,-6.5948616E-4,2.3704469E-4,4.206487E-5,-0E0,-3.304108E-5,1.7976026E-4,-1.10646615E-4,-0E0,1.8570224E-3,-4.942095E-4,-0E0,-5.8662466E-4,-0E0,-6.6018864E-3,-0E0,-8.5465825E-4,-0E0,2.2083966E-3,-0E0,-0E0,4.7242115E-4,-0E0,1.9518215E-4,-0E0,-2.288456E-3,6.073524E-5,1.3758293E-4,-4.6676465E-5,-0E0,-1.795947E-3,-0E0,2.491619E-4,-0E0,7.922312E-5,-5.770461E-5,7.8819336E-5,3.188882E-5,-2.7492488E-4,3.9740194E-6,6.389629E-5,-0E0,-1.8516097E-5,-0E0,2.1029255E-5,7.34029E-5,-1.21895944E-4,3.4977145E-6,2.6692037E-4,6.676259E-5,-4.2713308E-4,1.5136642E-5,7.244068E-7,-1.2689152E-4,1.9410027E-5,-2.5631185E-5,-1.856269E-3,-0E0,1.1512687E-3,1.06540036E-4,-5.026074E-4,-7.644414E-5,-3.389613E-5,3.7800626E-7,-0E0,1.0658223E-3,-3.2319695E-6,6.475354E-5,-6.829577E-6,-9.259548E-5,-1.8734303E-6,3.0239024E-5,-0E0,4.7136095E-5,-1.221211E-4,-0E0,8.070166E-4,8.381034E-5,-0E0,-3.8052743E-4,1.6035693E-4,-1.8893687E-4,8.0707157E-4,-0E0,-2.7988333E-4,-0E0,-6.9380895E-4,-1.2483397E-4,-1.9309804E-3,3.813662E-5,-2.3206223E-4,-2.676639E-3,-0E0,-6.405826E-3,9.1508264E-4,-0E0,-0E0,-1.2883941E-3,1.7889895E-4,-5.062549E-4],"split_indices":[11,27,9,22,34,42,7,7,33,87,55,27,7,8,27,27,98,85,13,45,34,29,15,63,92,9,9,9,7,74,45,91,65,15,88,45,51,29,55,23,53,13,85,29,0,31,0,15,56,22,14,70,27,29,7,13,22,94,29,15,33,87,32,42,26,29,7,38,0,20,41,32,52,81,59,0,74,94,55,0,19,26,92,0,0,31,29,85,0,0,0,100,29,15,100,81,7,9,91,13,11,99,38,50,27,42,11,19,13,85,29,23,0,15,59,29,9,33,27,89,35,22,13,19,81,13,45,29,33,0,9,0,20,101,0,35,0,79,41,0,29,34,33,11,77,0,10,56,13,11,0,81,34,70,20,52,10,0,75,7,34,0,0,75,71,11,11,14,55,9,34,14,51,0,9,0,42,9,23,0,13,27,38,23,32,20,0,79,47,29,51,65,20,27,0,22,0,15,7,23,15,13,29,9,0,46,20,15,15,35,101,0,19,11,0,31,14,62,29,0,9,29,79,0,34,0,0,0,0,0,0,0,0,0,0,0,0,0,0,0,0,0,0,0,0,0,0,0,0,0,0,0,0,0,0,0,0,0,0,0,0,0,0,0,0,0,0,0,0,0,0,0,0,0,0,0,0,0,0,0,0,0,0,0,0,0,0,0,0,0,0,0,0,0,0,0,0,0,0,0,0,0,0,0,0,0,0,0,0,0,0,0,0,0,0,0,0,0,0,0,0,0,0,0,0,0,0,0,0,0,0,0,0,0,0,0,0,0,0,0,0,0,0,0,0,0,0,0,0,0,0,0,0,0,0,0,0,0,0,0,0,0,0,0,0,0,0,0,0,0,0,0,0,0,0,0,0,0,0,0,0,0,0,0,0,0,0,0,0,0,0,0,0,0,0,0,0,0,0,0,0],"split_type":[0,0,0,0,0,0,0,0,0,0,0,0,0,0,0,0,0,0,0,0,0,0,0,0,0,0,0,0,0,0,0,0,0,0,0,0,0,0,0,0,0,0,0,0,0,0,0,0,0,0,0,0,0,0,0,0,0,0,0,0,0,0,0,0,0,0,0,0,0,0,0,0,0,0,0,0,0,0,0,0,0,0,0,0,0,0,0,0,0,0,0,0,0,0,0,0,0,0,0,0,0,0,0,0,0,0,0,0,0,0,0,0,0,0,0,0,0,0,0,0,0,0,0,0,0,0,0,0,0,0,0,0,0,0,0,0,0,0,0,0,0,0,0,0,0,0,0,0,0,0,0,0,0,0,0,0,0,0,0,0,0,0,0,0,0,0,0,0,0,0,0,0,0,0,0,0,0,0,0,0,0,0,0,0,0,0,0,0,0,0,0,0,0,0,0,0,0,0,0,0,0,0,0,0,0,0,0,0,0,0,0,0,0,0,0,0,0,0,0,0,0,0,0,0,0,0,0,0,0,0,0,0,0,0,0,0,0,0,0,0,0,0,0,0,0,0,0,0,0,0,0,0,0,0,0,0,0,0,0,0,0,0,0,0,0,0,0,0,0,0,0,0,0,0,0,0,0,0,0,0,0,0,0,0,0,0,0,0,0,0,0,0,0,0,0,0,0,0,0,0,0,0,0,0,0,0,0,0,0,0,0,0,0,0,0,0,0,0,0,0,0,0,0,0,0,0,0,0,0,0,0,0,0,0,0,0,0,0,0,0,0,0,0,0,0,0,0,0,0,0,0,0,0,0,0,0,0,0,0,0,0,0,0,0,0,0,0,0,0,0,0,0,0,0,0,0,0,0,0,0,0,0,0,0,0,0,0,0,0,0,0,0,0,0,0,0,0,0,0,0,0],"sum_hessian":[3.09948E5,3.631E3,3.06317E5,3.265E3,3.66E2,1.08263E5,1.98054E5,2.173E3,1.092E3,3.45E2,2.1E1,6.6582E4,4.1681E4,1.96967E5,1.087E3,2.069E3,1.04E2,8.37E2,2.55E2,2.83E2,6.2E1,1.4E1,7E0,6.6415E4,1.67E2,4.174E3,3.7507E4,9.2433E4,1.04534E5,9.34E2,1.53E2,1.894E3,1.75E2,4.8E1,5.6E1,2.46E2,5.91E2,2.4E1,2.31E2,9.2E1,1.91E2,6E0,5.6E1,1.2E1,2E0,6E0,1E0,6.5896E4,5.19E2,1.16E2,5.1E1,2.7E2,3.904E3,8.046E3,2.9461E4,4.6507E4,4.5926E4,1.7E1,1.04517E5,2.68E2,6.66E2,7.3E1,8E1,1.742E3,1.52E2,1.51E2,2.4E1,4.1E1,7E0,4.4E1,1.2E1,5.6E1,1.9E2,4.1E2,1.81E2,6E0,1.8E1,2.16E2,1.5E1,3E0,8.9E1,2.4E1,1.67E2,5E0,1E0,3.9E1,1.7E1,9E0,3E0,5E0,1E0,1.0136E4,5.576E4,1.13E2,4.06E2,6.8E1,4.8E1,3.2E1,1.9E1,1.54E2,1.16E2,3.885E3,1.9E1,9.34E2,7.112E3,4.238E3,2.5223E4,3.627E3,4.288E4,1.69E2,4.5757E4,1.3E1,4E0,1.00552E5,3.965E3,2.37E2,3.1E1,2.83E2,3.83E2,6.5E1,8E0,4E1,4E1,1.696E3,4.6E1,1.19E2,3.3E1,1.24E2,2.7E1,1E1,1.4E1,6E0,3.5E1,3.7E1,7E0,8E0,4E0,3.6E1,2E1,6E0,1.84E2,2.76E2,1.34E2,1E1,1.71E2,6E0,1.2E1,1.94E2,2.2E1,8E0,7E0,6.7E1,2.2E1,1.7E1,7E0,1.61E2,6E0,1E0,3.8E1,3E0,1.4E1,6E0,3E0,3.367E3,6.769E3,5.197E4,3.79E3,8.6E1,2.7E1,3.87E2,1.9E1,5.6E1,1.2E1,1.2E1,3.6E1,8E0,2.4E1,7E0,1.2E1,7E0,1.47E2,1.04E2,1.2E1,3.593E3,2.92E2,8E0,1.1E1,4.75E2,4.59E2,6.853E3,2.59E2,3.955E3,2.83E2,2.3291E4,1.932E3,2.101E3,1.526E3,2.0476E4,2.2404E4,1.6E1,1.53E2,2.9E3,4.2857E4,1.2E1,1E0,9.9597E4,9.55E2,2.45E3,1.515E3,7.8E1,1.59E2,6E0,2.5E1,2.04E2,7.9E1,2.2E2,1.63E2,3.5E1,3E1,3E0,5E0,7E0,3.3E1,5E0,3.5E1,3.05E2,1.391E3,3.3E1,1.3E1,6.7E1,5.2E1,1.2E1,2.1E1,9.7E1,2.7E1,7E0,2E1,3E0,7E0,7E0,7E0,1E0,5E0,1.4E1,2.1E1,3.3E1,4E0,1E0,7E0,1.5E1,2.1E1,1.5E1,5E0,5.5E1,1.29E2,2.11E2,6.5E1,9.4E1,4E1,9E0,1E0,1.8E1,1.53E2,1.1E1,1E0,7E0,1.87E2,8E0,1.4E1,2E0,6E0,2.1E1,4.6E1,1.3E1,9E0,1.3E1,4E0,3E0,4E0,3E0,1.58E2,2E0,4E0,2.8E1,1E1,2E0,1E0,4E0,1E1,1E0,5E0,2.659E3,7.08E2,6.373E3,3.96E2,1.307E3,5.0663E4,7.31E2,3.059E3,5.5E1,3.1E1,1E1,1.7E1,1.91E2,1.96E2,6E0,1.3E1,3.8E1,1.8E1,3E0,9E0,2.2E1,1.4E1,1.8E1,6E0,4E0,3E0,1.1E1,1E0,6E0,1E0,5E0,1.42E2,5.5E1,4.9E1,9E0,3E0,1.417E3,2.176E3,1.4E2,1.52E2,5E0,3E0,4.61E2,1.4E1,3.78E2,8.1E1,2.91E3,3.943E3,6.8E1,1.91E2,3.821E3,1.34E2,1.02E2,1.81E2,2.2381E4,9.1E2,2.21E2,1.711E3,1.25E2,1.976E3,2.6E1,1.5E3,2.0245E4,2.31E2,1.787E3,2.0617E4,7E0,9E0,2.3E1,1.3E2,2.1E1,2.879E3,3.8552E4,4.305E3,1E0,1.1E1,9.9218E4,3.79E2,5.64E2,3.91E2,2.04E3,4.1E2,1.35E2,1.38E3,5.5E1,2.3E1,2.3E1,1.36E2,4E0,2.1E1,9E0,1.95E2,1.5E1,6.4E1,1E2,1.2E2,8.5E1,7.8E1,6E0,2.9E1,1.3E1,1.7E1,1E0,4E0,3E0,4E0,8E0,2.5E1,2.1E1,1.4E1],"tree_param":{"num_deleted":"0","num_feature":"103","num_nodes":"401","size_leaf_vector":"1"}},{"base_weights":[5.0701865E-6,5.172377E-3,-1.4452828E-5,1.7004112E-3,1.2026622E-2,3.5799638E-4,-1.9582787E-4,-2.5512208E-3,6.324971E-3,5.97597E-3,3.7234098E-2,9.066029E-4,1.4790977E-5,-1.7732536E-4,-3.6294304E-3,-1.4980416E-3,-6.530979E-2,7.4379733E-3,-1.3572266E-2,1.1770754E-2,-7.289084E-4,1.0051634E-1,2.2767566E-2,5.398407E-3,8.238266E-4,-5.4544536E-3,3.2723492E-5,1.4753565E-2,-1.8041619E-4,-9.6960616E-4,-8.538415E-3,1.4605826E-3,-1.6812356E-2,-4.5645246E-3,-0E0,1.8717628E-3,1.1811249E-2,1.5529424E-4,-3.5122644E-2,-0E0,1.6182888E-2,-1.2541306E-2,3.6980067E-3,2.5726724E-2,4.9572956E-2,4.1063678E-2,-1.14862025E-2,7.937889E-3,2.4248848E-3,1.3983767E-3,5.6148804E-4,-2.3267219E-2,-7.690751E-4,7.7814166E-4,-4.7535445E-6,5.3786985E-3,2.9946957E-3,-3.36508E-4,-4.770698E-5,-3.1115343E-3,2.4749604E-3,-4.2570746E-3,-2.4442239E-2,4.6257707E-3,-8.813973E-3,-3.979878E-2,2.1770715E-3,-2.3970027E-2,3.5470407E-3,1.5832786E-2,-0E0,-0E0,6.0086064E-3,-0E0,-2.6963267E-3,-3.0937437E-2,1.6854564E-3,2.5990608E-3,2.0942215E-2,-0E0,-2.523236E-2,1.1610531E-5,2.7547337E-2,-0E0,8.097436E-2,1.0777793E-1,2.1592626E-2,-6.565069E-3,-0E0,-0E0,8.829291E-3,4.472085E-3,-1.1367906E-3,2.8762443E-3,1.2031895E-3,1.111461E-3,4.4642578E-4,-5.4176107E-2,-0E0,1.4622313E-2,-3.612856E-3,1.2503554E-3,-3.9910348E-4,7.236936E-5,-3.6370417E-4,8.3540315E-3,-4.4704643E-3,6.745997E-3,-3.4536322E-4,1.9439117E-3,-5.264446E-5,-9.100486E-3,-1.6638114E-3,1.4474666E-1,9.1079716E-4,-9.216811E-3,-2.3036728E-4,-7.625282E-2,-1.6422117E-2,5.4125064E-3,-4.474122E-3,-0E0,-4.551232E-2,-1.0739421E-2,-9.090611E-2,6.800991E-2,-9.739716E-4,-2.7517506E-3,-0E0,5.428654E-3,-2.5802234E-5,2.9671662E-2,5.9146145E-3,-6.0418654E-2,7.3957155E-3,5.754763E-4,-0E0,-2.0010713E-3,-0E0,5.8321767E-3,-2.9349115E-3,1.2024527E-2,-9.285676E-3,1.09893065E-2,3.7533253E-2,3.737643E-3,-0E0,-3.883196E-2,-0E0,4.226731E-3,-1.8833514E-3,-0E0,5.0849128E-3,-0E0,4.514598E-3,1.8180218E-1,-0E0,-0E0,5.714743E-2,-0E0,-5.729133E-3,1.3962518E-3,-0E0,1.6030462E-3,1.0248576E-2,-0E0,5.3920397E-3,-3.9179255E-3,-0E0,3.487487E-3,-1.0645951E-3,2.6181636E-3,9.824049E-4,-0E0,1.1734603E-3,5.1003334E-4,-2.4365594E-4,-1.454272E-2,-5.8215642E-3,2.7235516E-4,-6.924556E-3,3.514952E-2,-0E0,-2.5394676E-2,-1.4002738E-3,-2.3371616E-4,2.1464347E-3,-3.2420466E-3,3.2703686E-4,8.362034E-4,4.9856426E-5,1.3112912E-3,-4.47573E-4,-0E0,1.515711E-2,-0E0,-6.45328E-4,4.955413E-3,3.8602443E-3,-1.212406E-4,-6.018489E-4,-0E0,6.9137425E-3,-1.4328088E-5,-3.2804505E-4,-0E0,-1.3937844E-2,-2.993037E-3,1.3731145E-3,-0E0,1.0114617E-2,-6.0562897E-3,2.1406088E-3,-0E0,-1.32511435E-2,6.327687E-3,-3.603488E-3,-0E0,-9.0685286E-2,7.646202E-4,-2.8188659E-2,2.2930119E-3,2.10012E-4,2.296265E-4,-2.0254325E-4,-3.01648E-3,-0E0,-2.0131876E-3,-0E0,-4.807202E-3,-0E0,-0E0,5.034085E-3,2.6827483E-4,-4.3392644E-4,-0E0,4.3852418E-4,-0E0,-2.0043815E-4,4.2619696E-3,1.0151293E-3,-0E0,5.354004E-4,-4.0339762E-3,-0E0,-0E0,1.4797347E-3,-0E0,8.803011E-4,-6.776813E-4,-0E0,8.9439325E-4,-0E0,-1.282764E-3,-0E0,2.2641779E-4,1.7153893E-3,2.490201E-3,-0E0,-0E0,7.992795E-4,-0E0,-2.117762E-3,-0E0,5.7867273E-5,3.9735902E-4,-0E0,-3.1150435E-4,-0E0,-0E0,1.0512062E-2,6.3340424E-4,-7.810465E-4,4.062191E-3,-0E0,-0E0,7.4015645E-4,-4.881049E-4,-0E0,-0E0,1.2976708E-4,-0E0,-2.1605007E-5,2.4272632E-4,-0E0,-0E0,5.272822E-4,-0E0,3.340534E-4,-4.55049E-4,-0E0,-0E0,2.2031197E-4,2.5326517E-4,1.18862685E-4,-0E0,-4.1509722E-4,-0E0,1.5148752E-4,6.75384E-5,2.8609884E-5,-0E0,-4.1918476E-5,-0E0,6.2178326E-5,2.8399041E-5,-1.3890502E-5,-0E0,-1.1639423E-4,-0E0,-1.4211696E-3,-7.709303E-4,-0E0,-0E0,2.5285853E-3,-3.5217538E-4,2.2800724E-4,-2.0656926E-3,-0E0,1.4901918E-5,-3.9518817E-4,4.386485E-6,-1.553732E-4,1.3032615E-4,-0E0,-3.1952185E-4,-0E0,-4.805893E-5,1.01367594E-4,6.762425E-5,-0E0,-2.739699E-4,2.7762762E-6,1.1106314E-5,3.070973E-4,-1.3080723E-5,-6.909205E-5,1.0053775E-3,-0E0,4.301263E-4,-3.369001E-4,2.2041939E-5,-1.3313295E-5,-4.2982894E-5,-1.4409175E-5,5.4694516E-5,-1.6735305E-4,-0E0,6.3412206E-4,-2.0208697E-6,2.946951E-5,-8.309058E-6,-3.6462327E-5,7.001523E-4,-0E0,-1.5668897E-3,-3.4322645E-4,-2.0072584E-4,-0E0,-1.9061707E-5,2.6848965E-4,-9.538731E-4,-0E0,7.2659913E-4,3.670779E-5,-0E0,-5.5686218E-5,-0E0,-6.9816184E-4,-0E0,5.35062E-4,-3.6157962E-4,-0E0,-0E0,-5.2939956E-3,4.8535687E-4,-4.703349E-5,-4.3760655E-3,-8.6305104E-4],"categories":[],"categories_nodes":[],"categories_segments":[],"categories_sizes":[],"default_left":[0,0,0,0,0,0,0,0,0,0,0,0,0,0,0,0,0,0,0,0,0,0,0,0,0,0,0,0,0,0,0,0,0,0,0,0,0,0,0,0,0,0,0,0,0,0,0,0,0,0,0,0,0,0,0,0,0,0,0,0,0,0,0,0,0,0,0,0,0,0,0,0,0,0,0,0,0,0,0,0,0,0,0,0,0,0,0,0,0,0,0,0,0,0,0,0,0,0,0,0,0,0,0,0,0,0,0,0,0,0,0,0,0,0,0,0,0,0,0,0,0,0,0,0,0,0,0,0,0,0,0,0,0,0,0,0,0,0,0,0,0,0,0,0,0,0,0,0,0,0,0,0,0,0,0,0,0,0,0,0,0,0,0,0,0,0,0,0,0,0,0,0,0,0,0,0,0,0,0,0,0,0,0,0,0,0,0,0,0,0,0,0,0,0,0,0,0,0,0,0,0,0,0,0,0,0,0,0,0,0,0,0,0,0,0,0,0,0,0,0,0,0,0,0,0,0,0,0,0,0,0,0,0,0,0,0,0,0,0,0,0,0,0,0,0,0,0,0,0,0,0,0,0,0,0,0,0,0,0,0,0,0,0,0,0,0,0,0,0,0,0,0,0,0,0,0,0,0,0,0,0,0,0,0,0,0,0,0,0,0,0,0,0,0,0,0,0,0,0,0,0,0,0,0,0,0,0,0,0,0,0,0,0,0,0,0,0,0,0,0,0,0,0,0,0,0,0,0,0,0,0,0,0,0,0,0,0,0,0,0,0,0,0,0,0,0,0,0,0,0,0,0,0,0,0,0,0,0,0,0,0,0,0,0,0,0,0,0,0,0,0,0,0,0,0,0,0,0,0],"id":2,"left_children":[1,3,5,7,9,11,13,15,17,19,21,23,25,27,29,31,33,35,37,39,41,43,45,47,49,51,53,55,57,59,61,63,65,-1,-1,67,69,71,73,75,77,79,81,-1,83,85,87,89,91,93,95,97,99,101,103,-1,105,107,109,111,113,115,117,119,121,123,125,127,129,131,133,-1,135,-1,-1,137,139,141,143,145,147,149,151,-1,153,155,157,-1,159,161,163,165,167,169,171,173,175,177,179,181,183,185,187,189,191,193,195,197,199,201,203,205,207,209,211,213,215,217,219,221,-1,223,225,227,229,231,233,-1,-1,235,237,239,241,243,245,-1,-1,-1,-1,247,249,251,253,255,257,259,-1,261,263,265,267,-1,-1,-1,-1,269,-1,271,273,275,277,279,281,283,285,-1,287,289,291,293,295,297,299,301,303,305,307,309,-1,-1,311,313,315,317,319,321,323,325,327,329,331,333,335,-1,337,-1,-1,-1,339,341,343,345,347,349,351,353,355,357,359,-1,-1,361,363,365,367,369,371,-1,373,375,377,-1,-1,-1,-1,-1,-1,-1,-1,-1,-1,-1,-1,-1,-1,-1,-1,-1,-1,-1,-1,-1,-1,-1,-1,-1,-1,-1,-1,-1,-1,-1,-1,-1,-1,-1,-1,-1,-1,-1,-1,-1,-1,-1,-1,-1,-1,-1,-1,-1,-1,-1,-1,-1,-1,-1,-1,-1,-1,-1,-1,-1,-1,-1,-1,-1,-1,-1,-1,-1,-1,-1,-1,-1,-1,-1,-1,-1,-1,-1,-1,-1,-1,-1,-1,-1,-1,-1,-1,-1,-1,-1,-1,-1,-1,-1,-1,-1,-1,-1,-1,-1,-1,-1,-1,-1,-1,-1,-1,-1,-1,-1,-1,-1,-1,-1,-1,-1,-1,-1,-1,-1,-1,-1,-1,-1,-1,-1,-1,-1,-1,-1,-1,-1,-1,-1,-1,-1,-1,-1,-1,-1,-1,-1,-1,-1,-1,-1,-1,-1,-1,-1,-1,-1,-1,-1,-1,-1,-1],"loss_changes":[3.1788845E-2,2.6851706E-2,2.0844972E-2,1.6051512E-2,5.500292E-2,1.8915975E-2,1.2824542E-2,2.0018838E-2,8.102125E-3,1.342543E-2,5.344847E-2,1.3781112E-2,5.5597345E-3,8.085264E-3,1.3216557E-2,1.9620577E-2,4.081873E-3,7.8090727E-3,8.26021E-3,1.0181138E-2,8.162851E-3,1.9624552E-1,4.067024E-2,4.089821E-3,5.5406075E-3,1.3042944E-2,1.8102161E-3,2.8312732E-2,4.2440984E-3,5.3552007E-3,2.2183474E-2,1.02878865E-2,3.4369424E-2,0E0,0E0,5.5899564E-3,1.0574758E-2,2.200592E-4,6.973278E-4,4.040968E-3,6.24533E-3,8.407554E-3,5.6050825E-3,0E0,1.27187595E-2,4.021897E-2,1.644414E-2,2.006596E-3,2.748241E-3,2.998745E-3,1.5052343E-3,1.9988667E-2,5.5179438E-3,1.8068878E-3,1.6605996E-3,0E0,1.7163663E-3,5.2965553E-3,9.130704E-4,2.9112808E-3,4.263512E-2,4.9486323E-3,2.098231E-2,1.0824758E-2,2.3760533E-2,4.0381294E-2,1.4198881E-2,5.31005E-3,1.6771094E-3,1.757503E-2,2.4515554E-2,0E0,4.5536255E-4,0E0,0E0,1.0411022E-3,1.0788884E-3,4.7770203E-3,1.0480013E-2,1.5506671E-4,1.0441658E-2,9.228572E-4,1.4813736E-2,0E0,1.5816838E-3,7.447514E-2,2.0818105E-2,0E0,3.3151192E-4,5.673101E-5,1.9628443E-3,1.0232371E-3,7.1255746E-4,3.4177136E-3,2.9177768E-3,3.7695048E-4,9.860988E-4,1.9056004E-2,9.233083E-4,4.901971E-3,3.7315786E-3,3.2115355E-3,1.9969877E-3,7.416385E-4,1.4100922E-3,2.2669528E-3,7.2764565E-4,1.7411148E-2,5.362767E-3,1.8234071E-3,1.1461177E-3,4.5956676E-3,1.7129227E-3,1.0160543E-3,1.7954775E-3,3.2508085E-3,3.5811453E-3,1.1291746E-2,1.590963E-2,7.630217E-3,0E0,1.0584554E-3,1.1193896E-2,1.0467231E-2,1.6316175E-3,6.948705E-3,1.9526561E-3,0E0,0E0,1.7414177E-3,9.80014E-5,2.0561911E-2,2.4526697E-3,4.420135E-3,6.598012E-3,0E0,0E0,0E0,0E0,1.3849004E-3,6.834021E-4,2.8331177E-3,4.201834E-3,5.456807E-3,1.8447082E-2,1.1481827E-3,0E0,3.0974094E-3,6.831187E-6,1.1310533E-3,5.1084283E-4,0E0,0E0,0E0,0E0,1.266028E-2,0E0,4.155749E-3,1.0613263E-2,6.793111E-4,3.4510784E-4,1.1233751E-4,1.6990656E-6,8.0899824E-4,9.579994E-4,0E0,9.809206E-4,1.3160139E-3,1.5726105E-4,1.2919931E-3,1.0027864E-3,1.4794264E-3,1.1884393E-3,3.9430637E-5,3.0563958E-4,9.4877416E-4,8.0929743E-4,3.0035588E-3,0E0,0E0,1.153654E-3,1.7137704E-3,3.222329E-4,3.4812493E-3,2.1425318E-3,1.0531053E-3,1.2930282E-3,1.9041584E-3,1.4869656E-3,6.499666E-4,9.317182E-4,1.7368649E-3,1.6079072E-3,0E0,1.1382499E-3,0E0,0E0,0E0,5.3237816E-3,4.1126385E-3,3.433831E-3,5.060445E-4,2.642376E-3,1.4967601E-3,7.769463E-4,1.0000351E-3,3.0627819E-3,9.322965E-4,1.1588491E-3,0E0,0E0,3.0825273E-3,2.4650479E-3,2.4931673E-5,1.104191E-3,2.1681015E-3,2.1983928E-3,0E0,9.995259E-3,1.2298252E-3,1.6666893E-2,0E0,0E0,0E0,0E0,0E0,0E0,0E0,0E0,0E0,0E0,0E0,0E0,0E0,0E0,0E0,0E0,0E0,0E0,0E0,0E0,0E0,0E0,0E0,0E0,0E0,0E0,0E0,0E0,0E0,0E0,0E0,0E0,0E0,0E0,0E0,0E0,0E0,0E0,0E0,0E0,0E0,0E0,0E0,0E0,0E0,0E0,0E0,0E0,0E0,0E0,0E0,0E0,0E0,0E0,0E0,0E0,0E0,0E0,0E0,0E0,0E0,0E0,0E0,0E0,0E0,0E0,0E0,0E0,0E0,0E0,0E0,0E0,0E0,0E0,0E0,0E0,0E0,0E0,0E0,0E0,0E0,0E0,0E0,0E0,0E0,0E0,0E0,0E0,0E0,0E0,0E0,0E0,0E0,0E0,0E0,0E0,0E0,0E0,0E0,0E0,0E0,0E0,0E0,0E0,0E0,0E0,0E0,0E0,0E0,0E0,0E0,0E0,0E0,0E0,0E0,0E0,0E0,0E0,0E0,0E0,0E0,0E0,0E0,0E0,0E0,0E0,0E0,0E0,0E0,0E0,0E0,0E0,0E0,0E0,0E0,0E0,0E0,0E0,0E0,0E0,0E0,0E0,0E0,0E0,0E0,0E0,0E0,0E0,0E0,0E0,0E0,0E0,0E0,0E0,0E0,0E0,0E0,0E0],"parents":[2147483647,0,0,1,1,2,2,3,3,4,4,5,5,6,6,7,7,8,8,9,9,10,10,11,11,12,12,13,13,14,14,15,15,16,16,17,17,18,18,19,19,20,20,21,21,22,22,23,23,24,24,25,25,26,26,27,27,28,28,29,29,30,30,31,31,32,32,35,35,36,36,37,37,38,38,39,39,40,40,41,41,42,42,44,44,45,45,46,46,47,47,48,48,49,49,50,50,51,51,52,52,53,53,54,54,56,56,57,57,58,58,59,59,60,60,61,61,62,62,63,63,64,64,65,65,66,66,67,67,68,68,69,69,70,70,72,72,75,75,76,76,77,77,78,78,79,79,80,80,81,81,82,82,84,84,85,85,86,86,88,88,89,89,90,90,91,91,92,92,93,93,94,94,95,95,96,96,97,97,98,98,99,99,100,100,101,101,102,102,103,103,104,104,105,105,106,106,107,107,108,108,109,109,110,110,111,111,112,112,113,113,114,114,115,115,116,116,117,117,118,118,119,119,121,121,122,122,123,123,124,124,125,125,126,126,129,129,130,130,131,131,132,132,133,133,134,134,139,139,140,140,141,141,142,142,143,143,144,144,145,145,147,147,148,148,149,149,150,150,155,155,157,157,158,158,159,159,160,160,161,161,162,162,163,163,164,164,166,166,167,167,168,168,169,169,170,170,171,171,172,172,173,173,174,174,175,175,176,176,177,177,180,180,181,181,182,182,183,183,184,184,185,185,186,186,187,187,188,188,189,189,190,190,191,191,192,192,194,194,198,198,199,199,200,200,201,201,202,202,203,203,204,204,205,205,206,206,207,207,208,208,211,211,212,212,213,213,214,214,215,215,216,216,218,218,219,219,220,220],"right_children":[2,4,6,8,10,12,14,16,18,20,22,24,26,28,30,32,34,36,38,40,42,44,46,48,50,52,54,56,58,60,62,64,66,-1,-1,68,70,72,74,76,78,80,82,-1,84,86,88,90,92,94,96,98,100,102,104,-1,106,108,110,112,114,116,118,120,122,124,126,128,130,132,134,-1,136,-1,-1,138,140,142,144,146,148,150,152,-1,154,156,158,-1,160,162,164,166,168,170,172,174,176,178,180,182,184,186,188,190,192,194,196,198,200,202,204,206,208,210,212,214,216,218,220,222,-1,224,226,228,230,232,234,-1,-1,236,238,240,242,244,246,-1,-1,-1,-1,248,250,252,254,256,258,260,-1,262,264,266,268,-1,-1,-1,-1,270,-1,272,274,276,278,280,282,284,286,-1,288,290,292,294,296,298,300,302,304,306,308,310,-1,-1,312,314,316,318,320,322,324,326,328,330,332,334,336,-1,338,-1,-1,-1,340,342,344,346,348,350,352,354,356,358,360,-1,-1,362,364,366,368,370,372,-1,374,376,378,-1,-1,-1,-1,-1,-1,-1,-1,-1,-1,-1,-1,-1,-1,-1,-1,-1,-1,-1,-1,-1,-1,-1,-1,-1,-1,-1,-1,-1,-1,-1,-1,-1,-1,-1,-1,-1,-1,-1,-1,-1,-1,-1,-1,-1,-1,-1,-1,-1,-1,-1,-1,-1,-1,-1,-1,-1,-1,-1,-1,-1,-1,-1,-1,-1,-1,-1,-1,-1,-1,-1,-1,-1,-1,-1,-1,-1,-1,-1,-1,-1,-1,-1,-1,-1,-1,-1,-1,-1,-1,-1,-1,-1,-1,-1,-1,-1,-1,-1,-1,-1,-1,-1,-1,-1,-1,-1,-1,-1,-1,-1,-1,-1,-1,-1,-1,-1,-1,-1,-1,-1,-1,-1,-1,-1,-1,-1,-1,-1,-1,-1,-1,-1,-1,-1,-1,-1,-1,-1,-1,-1,-1,-1,-1,-1,-1,-1,-1,-1,-1,-1,-1,-1,-1,-1,-1,-1,-1],"split_conditions":[-4.6821675E0,9.306059E-1,-1.4606299E-1,-3.0244512E-3,6.4995866E0,-5.674623E-1,4.114371E0,4.1709547E0,7.251449E-1,-7.012769E-2,-3.019038E-1,-3.3336527E0,-6.994351E-1,-4.273923E0,3.255374E0,-5.373124E-4,-2.5354679E0,6.4995866E0,5.1972485E-4,1.1377889E-4,-9.973027E-4,-7.023395E-1,-3.4514332E-1,1.3043766E-3,-6.5855783E-1,-3.1250021E-3,-2.268665E0,-2.8982835E0,-6.788417E-1,-4.7255847E-1,6.4995866E0,6.170755E-1,-9.852635E-4,-4.5645246E-3,-0E0,-2.9275217E-3,4.5374725E-2,7.553517E-1,3.660234E-1,1.7151705E0,-7.1805495E-1,-1.0921756E-3,-4.68112E0,2.5726724E-2,-3.1474832E-1,-2.6929087E-3,-2.83489E-1,-1.0100969E0,-2.9131802E-4,-6.50121E-1,-5.881188E-1,2.3473628E0,-7.0346063E-1,-6.1836198E-2,4.0717265E-1,5.3786985E-3,1.0953189E0,-1.06132545E-1,-3.5125053E0,-5.2963328E-2,-7.027496E-1,-9.591755E-3,-3.138654E-4,-7.776052E-2,6.4995866E0,2.431751E-3,-1.5169764E0,-1.0094935E-1,-1.7436887E-3,-1.8349152E-2,-7.001786E-1,-0E0,1.3523401E-1,-0E0,-2.6963267E-3,-2.7076044E0,4.143687E0,2.4726968E0,3.8697386E0,-1.3397115E-1,7.072229E-1,8.790947E-4,3.2413278E-3,-0E0,-6.8849385E-1,-9.379948E-4,-1.1830629E0,-6.565069E-3,-4.2261103E-1,-1.9966483E-3,-1.8853558E-2,-7.063322E-1,5.0068015E-1,2.6616722E-3,-1.9969797E0,-1.0983553E0,1.8961802E-1,1.4307004E0,2.1325795E-3,-4.273923E0,3.450448E-4,3.1654972E-1,-2.3782012E0,-6.844096E-1,-2.7560182E0,1.1514359E0,-1.1295712E-2,-7.0273066E-1,1.4911944E-1,2.7324882E-4,7.246067E-1,-4.0108338E-4,3.8625836E-2,2.037578E-1,-2.8138855E-3,-1.2451843E-3,2.3473628E0,9.5669314E-2,-5.0092596E-1,3.5430928E-4,-4.474122E-3,-3.724721E-1,-2.6541047E-3,3.2190369E-3,-3.5050511E0,-7.06565E-1,-1.159803E-2,-2.7517506E-3,-0E0,-3.659155E-1,-7.064396E-1,-2.0405777E0,2.1735507E-3,1.8292698E-1,-7.939131E-2,5.754763E-4,-0E0,-2.0010713E-3,-0E0,2.1589813E-3,-4.273923E0,-1.4679137E0,-2.5128716E-1,-2.7003158E-2,-1.1961856E-3,-3.040566E-2,-0E0,-5.378271E-1,-6.1836198E-2,2.095067E0,1.3087316E-3,-0E0,5.0849128E-3,-0E0,4.514598E-3,-4.618307E-1,-0E0,-4.2601308E-1,5.654295E-4,-4.8883802E-1,9.9999434E-1,-3.6602318E-1,2.706886E-3,-4.4867564E-2,-1.2605842E-3,-0E0,-8.920261E-3,-3.6993402E-3,-5.90137E-1,-1.2140571E0,-9.686202E-2,-1.610904E-3,1.5214776E-1,2.3479646E-3,-5.944144E-1,2.6638983E-3,1.318569E0,1.471164E-4,-5.8215642E-3,2.7235516E-4,-5.0717586E-1,-4.7945017E-1,-2.924758E-3,-1.1845971E-3,4.1370633E-1,2.1580782E0,4.2747145E0,-2.6737114E-3,8.0790074E-4,2.0708977E-1,-1.2102944E-3,-1.5012704E-1,4.0298575E-1,-0E0,1.0341965E0,-0E0,-6.45328E-4,4.955413E-3,3.0840786E0,-1.971942E-1,-1.243315E-1,1.6789479E-4,-1.3021388E0,7.9696566E-1,1.1959924E0,-5.807108E-1,-6.9612813E-1,-1.5991069E-3,-2.634076E-3,-0E0,1.0114617E-2,-6.762611E-1,-6.841038E-1,-7.06565E-1,-3.3797256E-3,-5.2087253E-1,-7.9070614E-4,-0E0,-5.402207E-1,-2.6455254E-3,-4.7200343E-1,2.2930119E-3,2.10012E-4,2.296265E-4,-2.0254325E-4,-3.01648E-3,-0E0,-2.0131876E-3,-0E0,-4.807202E-3,-0E0,-0E0,5.034085E-3,2.6827483E-4,-4.3392644E-4,-0E0,4.3852418E-4,-0E0,-2.0043815E-4,4.2619696E-3,1.0151293E-3,-0E0,5.354004E-4,-4.0339762E-3,-0E0,-0E0,1.4797347E-3,-0E0,8.803011E-4,-6.776813E-4,-0E0,8.9439325E-4,-0E0,-1.282764E-3,-0E0,2.2641779E-4,1.7153893E-3,2.490201E-3,-0E0,-0E0,7.992795E-4,-0E0,-2.117762E-3,-0E0,5.7867273E-5,3.9735902E-4,-0E0,-3.1150435E-4,-0E0,-0E0,1.0512062E-2,6.3340424E-4,-7.810465E-4,4.062191E-3,-0E0,-0E0,7.4015645E-4,-4.881049E-4,-0E0,-0E0,1.2976708E-4,-0E0,-2.1605007E-5,2.4272632E-4,-0E0,-0E0,5.272822E-4,-0E0,3.340534E-4,-4.55049E-4,-0E0,-0E0,2.2031197E-4,2.5326517E-4,1.18862685E-4,-0E0,-4.1509722E-4,-0E0,1.5148752E-4,6.75384E-5,2.8609884E-5,-0E0,-4.1918476E-5,-0E0,6.2178326E-5,2.8399041E-5,-1.3890502E-5,-0E0,-1.1639423E-4,-0E0,-1.4211696E-3,-7.709303E-4,-0E0,-0E0,2.5285853E-3,-3.5217538E-4,2.2800724E-4,-2.0656926E-3,-0E0,1.4901918E-5,-3.9518817E-4,4.386485E-6,-1.553732E-4,1.3032615E-4,-0E0,-3.1952185E-4,-0E0,-4.805893E-5,1.01367594E-4,6.762425E-5,-0E0,-2.739699E-4,2.7762762E-6,1.1106314E-5,3.070973E-4,-1.3080723E-5,-6.909205E-5,1.0053775E-3,-0E0,4.301263E-4,-3.369001E-4,2.2041939E-5,-1.3313295E-5,-4.2982894E-5,-1.4409175E-5,5.4694516E-5,-1.6735305E-4,-0E0,6.3412206E-4,-2.0208697E-6,2.946951E-5,-8.309058E-6,-3.6462327E-5,7.001523E-4,-0E0,-1.5668897E-3,-3.4322645E-4,-2.0072584E-4,-0E0,-1.9061707E-5,2.6848965E-4,-9.538731E-4,-0E0,7.2659913E-4,3.670779E-5,-0E0,-5.5686218E-5,-0E0,-6.9816184E-4,-0E0,5.35062E-4,-3.6157962E-4,-0E0,-0E0,-5.2939956E-3,4.8535687E-4,-4.703349E-5,-4.3760655E-3,-8.6305104E-4],"split_indices":[13,29,9,6,27,19,7,9,29,6,6,9,8,7,13,90,11,27,61,51,81,0,5,65,9,75,11,11,14,19,27,29,41,0,0,72,6,29,35,27,33,81,11,0,37,72,6,33,23,29,7,4,24,6,4,0,20,22,15,22,14,22,45,20,27,101,30,29,23,22,14,0,9,0,0,15,19,29,27,33,34,95,92,0,0,81,20,0,32,73,23,2,31,101,7,15,11,4,55,7,79,102,9,14,9,4,22,26,9,79,27,61,6,4,72,74,4,9,5,53,0,22,72,99,11,0,23,0,0,34,10,20,55,29,23,0,0,0,0,84,7,20,6,22,66,6,0,5,6,29,65,0,0,0,0,5,0,33,53,19,35,35,49,6,74,0,23,6,19,9,13,96,4,55,19,6,27,43,0,0,5,5,75,74,20,4,4,72,48,20,64,11,5,0,33,0,0,0,9,13,4,79,33,4,9,20,0,70,72,0,0,0,12,0,41,5,56,0,5,72,5,0,0,0,0,0,0,0,0,0,0,0,0,0,0,0,0,0,0,0,0,0,0,0,0,0,0,0,0,0,0,0,0,0,0,0,0,0,0,0,0,0,0,0,0,0,0,0,0,0,0,0,0,0,0,0,0,0,0,0,0,0,0,0,0,0,0,0,0,0,0,0,0,0,0,0,0,0,0,0,0,0,0,0,0,0,0,0,0,0,0,0,0,0,0,0,0,0,0,0,0,0,0,0,0,0,0,0,0,0,0,0,0,0,0,0,0,0,0,0,0,0,0,0,0,0,0,0,0,0,0,0,0,0,0,0,0,0,0,0,0,0,0,0,0,0,0,0,0,0,0,0,0,0,0,0,0,0,0],"split_type":[0,0,0,0,0,0,0,0,0,0,0,0,0,0,0,0,0,0,0,0,0,0,0,0,0,0,0,0,0,0,0,0,0,0,0,0,0,0,0,0,0,0,0,0,0,0,0,0,0,0,0,0,0,0,0,0,0,0,0,0,0,0,0,0,0,0,0,0,0,0,0,0,0,0,0,0,0,0,0,0,0,0,0,0,0,0,0,0,0,0,0,0,0,0,0,0,0,0,0,0,0,0,0,0,0,0,0,0,0,0,0,0,0,0,0,0,0,0,0,0,0,0,0,0,0,0,0,0,0,0,0,0,0,0,0,0,0,0,0,0,0,0,0,0,0,0,0,0,0,0,0,0,0,0,0,0,0,0,0,0,0,0,0,0,0,0,0,0,0,0,0,0,0,0,0,0,0,0,0,0,0,0,0,0,0,0,0,0,0,0,0,0,0,0,0,0,0,0,0,0,0,0,0,0,0,0,0,0,0,0,0,0,0,0,0,0,0,0,0,0,0,0,0,0,0,0,0,0,0,0,0,0,0,0,0,0,0,0,0,0,0,0,0,0,0,0,0,0,0,0,0,0,0,0,0,0,0,0,0,0,0,0,0,0,0,0,0,0,0,0,0,0,0,0,0,0,0,0,0,0,0,0,0,0,0,0,0,0,0,0,0,0,0,0,0,0,0,0,0,0,0,0,0,0,0,0,0,0,0,0,0,0,0,0,0,0,0,0,0,0,0,0,0,0,0,0,0,0,0,0,0,0,0,0,0,0,0,0,0,0,0,0,0,0,0,0,0,0,0,0,0,0,0,0,0,0,0,0,0,0,0,0,0,0,0,0,0,0,0,0,0,0,0,0,0,0,0,0,0],"sum_hessian":[3.09998E5,1.186E3,3.08812E5,7.97E2,3.89E2,1.00954E5,2.07858E5,4.04E2,3.93E2,3.17E2,7.2E1,3.8739E4,6.2215E4,2.06773E5,1.085E3,3.99E2,5E0,3.77E2,1.6E1,1.78E2,1.39E2,1.2E1,6E1,6.79E2,3.806E4,1.85E2,6.203E4,3.6E1,2.06737E5,7.17E2,3.68E2,3.29E2,7E1,3E0,2E0,1.76E2,2.01E2,7E0,9E0,4.5E1,1.33E2,4.4E1,9.5E1,1E0,1.1E1,4.1E1,1.9E1,3.48E2,3.31E2,1.1811E4,2.6249E4,3.4E1,1.51E2,3.097E3,5.8933E4,3E0,3.3E1,9.4653E4,1.12084E5,4.6E2,2.57E2,2.95E2,7.3E1,2.59E2,7E1,3.4E1,3.6E1,7E0,1.69E2,1.54E2,4.7E1,1E0,6E0,5E0,4E0,4E0,4.1E1,4E1,9.3E1,2E1,2.4E1,8.6E1,9E0,5E0,6E0,8E0,3.3E1,1E0,1.8E1,4.1E1,3.07E2,2.28E2,1.03E2,1.318E3,1.0493E4,4.391E3,2.1858E4,1.3E1,2.1E1,1.8E1,1.33E2,2.271E3,8.26E2,4.8281E4,1.0652E4,2.7E1,6E0,1.04E2,9.4549E4,2.27E2,1.11857E5,7.6E1,3.84E2,2E0,2.55E2,1.21E2,1.74E2,8E0,6.5E1,2.58E2,1E0,5.6E1,1.4E1,2.3E1,1.1E1,3E0,3.3E1,3E0,4E0,1.29E2,4E1,6E1,9.4E1,6E0,4.1E1,5E0,1E0,3E0,1E0,3.3E1,8E0,2.7E1,1.3E1,6.2E1,3.1E1,1.1E1,9E0,1.7E1,7E0,4.3E1,4.3E1,7E0,2E0,1E0,5E0,5E0,3E0,2.2E1,1.1E1,8E0,1E1,2.9E1,1.2E1,6.2E1,2.45E2,3.6E1,1.92E2,5.5E1,4.8E1,1.163E3,1.55E2,1.355E3,9.138E3,1.78E2,4.213E3,2.0146E4,1.712E3,9E0,4E0,5E0,1.6E1,7E0,1.1E1,8E0,1.25E2,8.13E2,1.458E3,1.96E2,6.3E2,1.255E3,4.7026E4,4.51E2,1.0201E4,9E0,1.8E1,1E0,5E0,2E0,1.02E2,5.0666E4,4.3883E4,1.71E2,5.6E1,9.8514E4,1.3343E4,2E1,5.6E1,2.9E2,9.4E1,1E0,1E0,2.6E1,2.29E2,4.4E1,7.7E1,4.9E1,1.25E2,1E0,7E0,2.3E1,4.2E1,5E0,2.53E2,2.9E1,2.7E1,1.1E1,3E0,8E0,1.5E1,1E1,1E0,1E0,2E0,1.1E1,2.2E1,5.7E1,7.2E1,3.4E1,6E0,7E0,5.3E1,4.4E1,5E1,4E0,2E0,3.1E1,1E1,2.5E1,8E0,4E0,4E0,2.1E1,6E0,8E0,5E0,5.2E1,1E1,2.5E1,6E0,6E0,5E0,1E0,1.6E1,2E0,5E0,3E1,1.3E1,1.7E1,2.6E1,1E0,4E0,1.5E1,7E0,7E0,4E0,5E0,3E0,7E0,3E0,4E0,2.5E1,3E0,9E0,4.1E1,2.1E1,5E0,2.4E2,4.5E1,1.47E2,2.6E1,2.9E1,4E1,8E0,4.43E2,7.2E2,1.38E2,1.7E1,1.82E2,1.173E3,4.686E3,4.452E3,1.22E2,5.6E1,2.64E2,3.949E3,1.8884E4,1.262E3,1.544E3,1.68E2,3E0,6E0,8E0,8E0,3E0,4E0,3E0,8E0,5E0,3E0,8.7E1,3.8E1,7E2,1.13E2,1.179E3,2.79E2,9.7E1,9.9E1,3.25E2,3.05E2,8.35E2,4.2E2,3E1,4.6996E4,3.85E2,6.6E1,8.597E3,1.604E3,1.3E1,5E0,7.7E1,2.5E1,1.025E4,4.0416E4,2.3911E4,1.9972E4,1.41E2,3E1,2.3E1,3.3E1,9.4592E4,3.922E3,9.685E3,3.658E3,5E0,1.5E1,1.2E1,4.4E1,2.19E2,7.1E1,4.8E1,4.6E1,1.1E1,1.5E1,1.6E1,2.13E2,2.4E1,2E1,2E0,7.5E1,1.3E1,3.6E1,7.3E1,5.2E1,1E0,6E0,1.3E1,1E1,5E0,3.7E1],"tree_param":{"num_deleted":"0","num_feature":"103","num_nodes":"379","size_leaf_vector":"1"}},{"base_weights":[3.4122065E-6,3.6308959E-3,-1.0479799E-5,-2.480008E-4,5.4266807E-3,2.3676851E-4,-1.8095484E-4,1.1373115E-3,-9.818912E-2,6.1624747E-2,3.5108854E-3,1.5927929E-3,1.7658244E-4,6.013356E-5,-3.163479E-4,-1.3735206E-2,5.693907E-3,-0E0,-8.830448E-3,2.876757E-2,1.9407319E-2,3.917373E-2,2.8059613E-3,2.2699462E-2,1.4767392E-3,-1.4145378E-2,1.8028037E-4,8.423181E-4,-1.170154E-4,-5.514497E-4,-8.444779E-5,-2.533331E-2,6.082142E-3,8.877023E-2,4.401572E-3,-0E0,4.3181464E-2,1.0548853E-1,8.530835E-3,-1.0097811E-2,4.6123797E-3,3.0171258E-2,-0E0,1.53041E-3,-2.8543833E-3,-1.9568682E-3,-3.2195759E-3,4.3956417E-4,1.5081033E-5,2.4286122E-3,4.9830024E-4,-1.178461E-3,-7.268612E-5,-5.3813425E-4,-1.4531608E-2,-4.9476836E-5,-4.867896E-4,-9.121467E-3,-4.8908725E-2,4.8077133E-2,-0E0,6.9136657E-3,-0E0,-1.9772274E-2,5.4991865E-3,-0E0,5.953152E-2,7.2099157E-3,-0E0,-0E0,2.7267061E-2,-8.0343045E-2,2.842666E-4,6.3467636E-3,-2.6022831E-3,-0E0,4.5235727E-2,1.4731928E-3,6.594037E-2,-0E0,-5.4232366E-3,6.419129E-4,2.4001489E-5,2.582822E-5,-9.765726E-4,3.204208E-3,5.628339E-4,8.2546193E-4,1.0079279E-4,-8.234398E-3,-9.329184E-4,-8.046197E-5,5.337202E-3,-2.9094098E-2,-5.334066E-4,-0E0,-1.7812371E-2,-8.716388E-5,1.7896932E-4,-1.2759124E-3,-2.1616949E-4,-2.6080286E-2,-0E0,-6.1056603E-2,-0E0,3.399276E-3,-0E0,-0E0,-8.733323E-3,-3.138557E-2,-0E0,3.6157016E-5,9.815583E-3,-0E0,2.4824656E-4,7.2547704E-2,-0E0,-0E0,-1.1658944E-4,1.569317E-3,-0E0,-0E0,-1.1862525E-1,-5.581602E-3,1.0056857E-2,5.4291645E-3,4.1566506E-2,-2.311224E-2,1.9539609E-3,-0E0,2.368734E-3,-1.4965078E-2,1.5524527E-3,6.320853E-3,-0E0,-8.876778E-3,-0E0,8.635667E-4,2.6343463E-4,2.4964777E-4,-1.5597028E-4,2.1882885E-5,3.6360056E-3,5.137678E-4,-2.0715117E-3,3.5235612E-3,-1.5660287E-3,-3.6155162E-4,2.3937658E-3,1.1133292E-3,-0E0,4.6330504E-4,1.5648227E-5,-4.943255E-5,-2.057497E-2,2.4265514E-3,-1.349258E-3,2.362943E-3,-8.6774424E-5,-0E0,2.0507822E-2,-2.5760361E-3,-0E0,-5.436121E-4,8.386842E-3,3.593481E-5,-0E0,-0E0,-2.2061149E-2,-9.583364E-5,6.95226E-4,-2.3738154E-5,4.8159854E-4,-1.8303675E-3,8.7286363E-4,-0E0,-1.040629E-3,-0E0,-1.5569027E-3,-3.5761108E-4,7.673075E-4,-3.7007553E-3,-0E0,1.9466432E-4,-0E0,-0E0,-6.4696284E-4,-0E0,-1.8256948E-3,1.8188673E-4,-2.4358926E-6,4.917143E-3,4.1947738E-4,-0E0,4.426095E-3,-1.4058817E-3,-8.472622E-3,-9.4522483E-4,-0E0,-0E0,7.6316454E-4,1.3456123E-3,1.9645982E-4,-0E0,6.0375426E-3,-2.173176E-4,-2.45974E-3,-1.4763965E-5,1.061986E-3,-0E0,-1.3318362E-3,8.216297E-5,-2.1441013E-4,-0E0,-5.1872135E-4,4.375144E-5,-1.1681202E-3,2.3359868E-4,1.0218436E-5,2.3366787E-5,2.081482E-6,6.2235056E-5,-1.01979895E-5,5.5232304E-6,-3.7565285E-6,-0E0,3.6548646E-4,5.526158E-4,-0E0,-0E0,-1.5752476E-4,7.093433E-5,2.0361638E-4,-0E0,-1.0180691E-3,7.75307E-6,-6.357091E-5,-0E0,1.8498294E-4,2.7945016E-5,7.177735E-5,5.029666E-6,-2.3400805E-4,8.8219E-5,3.1966683E-6,6.814761E-6,-2.7792861E-5,-4.3505986E-4,-0E0,-0E0,-1.2352172E-3,-0E0,3.6846017E-4,-3.084183E-5,-1.5945156E-4,-0E0,2.1025557E-4,-3.652354E-6,-8.383132E-5,3.4178997E-4,-2.2356848E-4,2.3101794E-3,-0E0,-2.524044E-5,-9.6386844E-5,6.743984E-4,-0E0,-0E0,-1.1654868E-3,-4.3302343E-6,-4.0064206E-5,-0E0,1.2163255E-4,-8.534243E-6,1.5213028E-5,-0E0,2.990219E-5,-6.0893653E-5,-2.1172396E-4,2.8358964E-4,-0E0,-3.8854796E-6,9.498902E-5,1.4679784E-4,-7.158286E-5],"categories":[],"categories_nodes":[],"categories_segments":[],"categories_sizes":[],"default_left":[0,0,0,0,0,0,0,0,0,0,0,0,0,0,0,0,0,0,0,0,0,0,0,0,0,0,0,0,0,0,0,0,0,0,0,0,0,0,0,0,0,0,0,0,0,0,0,0,0,0,0,0,0,0,0,0,0,0,0,0,0,0,0,0,0,0,0,0,0,0,0,0,0,0,0,0,0,0,0,0,0,0,0,0,0,0,0,0,0,0,0,0,0,0,0,0,0,0,0,0,0,0,0,0,0,0,0,0,0,0,0,0,0,0,0,0,0,0,0,0,0,0,0,0,0,0,0,0,0,0,0,0,0,0,0,0,0,0,0,0,0,0,0,0,0,0,0,0,0,0,0,0,0,0,0,0,0,0,0,0,0,0,0,0,0,0,0,0,0,0,0,0,0,0,0,0,0,0,0,0,0,0,0,0,0,0,0,0,0,0,0,0,0,0,0,0,0,0,0,0,0,0,0,0,0,0,0,0,0,0,0,0,0,0,0,0,0,0,0,0,0,0,0,0,0,0,0,0,0,0,0,0,0,0,0,0,0,0,0,0,0,0,0,0,0,0,0,0,0,0,0,0,0,0,0,0,0,0,0,0,0,0,0,0,0,0,0,0,0,0,0,0,0,0,0,0,0,0,0,0,0,0,0,0,0],"id":3,"left_children":[1,3,5,7,9,11,13,15,17,19,21,23,25,27,29,31,33,-1,-1,35,-1,37,39,41,43,45,47,49,51,53,55,57,59,61,63,-1,65,67,69,71,73,75,-1,77,-1,79,-1,81,83,85,87,89,91,93,95,97,99,101,103,105,107,-1,-1,109,111,113,115,-1,-1,117,119,121,123,125,127,-1,129,131,133,-1,135,137,139,141,143,145,147,149,151,153,155,157,159,161,163,165,167,169,171,173,175,177,179,181,-1,-1,-1,183,185,187,-1,189,191,-1,-1,193,-1,-1,-1,-1,-1,-1,195,197,199,201,203,205,207,-1,-1,209,211,-1,-1,213,-1,215,217,219,221,223,225,227,229,231,233,235,237,239,241,243,245,247,249,251,253,255,257,259,261,-1,-1,263,265,-1,-1,-1,267,269,271,273,275,277,279,281,283,-1,-1,-1,-1,-1,-1,-1,-1,-1,-1,-1,-1,-1,-1,-1,-1,-1,-1,-1,-1,-1,-1,-1,-1,-1,-1,-1,-1,-1,-1,-1,-1,-1,-1,-1,-1,-1,-1,-1,-1,-1,-1,-1,-1,-1,-1,-1,-1,-1,-1,-1,-1,-1,-1,-1,-1,-1,-1,-1,-1,-1,-1,-1,-1,-1,-1,-1,-1,-1,-1,-1,-1,-1,-1,-1,-1,-1,-1,-1,-1,-1,-1,-1,-1,-1,-1,-1,-1,-1,-1,-1,-1,-1,-1,-1,-1,-1,-1,-1,-1,-1,-1,-1,-1,-1,-1,-1,-1],"loss_changes":[1.597033E-2,8.94019E-3,1.2998527E-2,5.925276E-2,8.434397E-2,1.0079446E-2,5.994226E-3,2.3539197E-2,3.7880506E-2,2.3720789E-1,1.6357742E-2,1.0488188E-2,4.9803173E-3,9.147473E-3,6.3348394E-3,2.0121157E-2,2.0715967E-2,0E0,0E0,1.1940811E-2,0E0,1.512829E-2,1.8222682E-2,6.7895334E-3,1.0942583E-2,8.112017E-3,5.1106657E-3,6.3638557E-3,2.3825779E-3,9.3008615E-3,7.806835E-4,1.4447231E-2,1.0822693E-2,1.5722487E-2,5.936013E-3,0E0,7.453099E-3,9.169348E-3,3.8002764E-3,7.517592E-2,9.299116E-3,9.644987E-3,0E0,1.2571635E-2,0E0,4.515492E-4,0E0,3.8529532E-3,6.9106807E-4,2.6939856E-3,1.2177553E-3,2.6274375E-3,1.6302378E-3,4.8678424E-3,2.8830683E-3,4.6247395E-4,8.14548E-4,6.0732155E-3,1.4330916E-2,2.5400994E-3,6.9406535E-4,0E0,0E0,1.8571382E-3,5.3603295E-3,1.2571775E-4,3.293246E-3,0E0,0E0,1.6855443E-5,4.887157E-4,4.3494165E-2,4.9875258E-3,1.421921E-2,1.399763E-2,0E0,5.4870173E-4,5.4883603E-3,2.0081464E-2,0E0,4.99895E-4,2.5035152E-3,6.358249E-4,6.7501003E-4,1.2836398E-3,2.4221307E-3,1.322211E-3,1.3319284E-3,9.677574E-5,3.502952E-3,2.6775107E-3,5.620158E-4,5.622196E-3,3.0651456E-3,4.497044E-3,2.6342734E-6,1.6092667E-3,2.6159524E-4,4.986436E-4,1.3565302E-3,5.88027E-4,1.8519443E-3,2.5777058E-3,1.7223787E-2,0E0,0E0,0E0,9.246183E-5,6.62072E-4,4.426092E-4,0E0,3.9838316E-4,6.9309073E-3,0E0,0E0,5.1687136E-3,0E0,0E0,0E0,0E0,0E0,0E0,2.1628812E-2,4.7684475E-3,2.6622657E-3,1.540505E-2,3.887508E-2,7.888934E-3,6.4372383E-3,0E0,0E0,5.0171334E-3,2.5053285E-3,0E0,0E0,2.7006445E-4,0E0,3.168379E-3,2.5550043E-3,2.7020805E-4,4.5621593E-4,6.3104974E-4,9.729497E-4,8.002196E-4,8.4494613E-4,1.0548495E-3,3.1813234E-3,3.0113204E-4,5.0711026E-4,5.2168965E-4,8.478362E-4,1.6431048E-4,2.3516998E-4,4.6174298E-4,1.3663634E-3,2.0181276E-3,2.0421373E-3,6.2482094E-4,9.403173E-4,1.0337617E-3,7.96512E-3,0E0,0E0,2.8692875E-3,3.2375925E-3,0E0,0E0,0E0,6.184634E-4,2.172536E-4,3.6094565E-4,1.9019398E-4,1.8721516E-4,7.47256E-4,1.0240929E-3,3.5934377E-4,9.261759E-4,0E0,0E0,0E0,0E0,0E0,0E0,0E0,0E0,0E0,0E0,0E0,0E0,0E0,0E0,0E0,0E0,0E0,0E0,0E0,0E0,0E0,0E0,0E0,0E0,0E0,0E0,0E0,0E0,0E0,0E0,0E0,0E0,0E0,0E0,0E0,0E0,0E0,0E0,0E0,0E0,0E0,0E0,0E0,0E0,0E0,0E0,0E0,0E0,0E0,0E0,0E0,0E0,0E0,0E0,0E0,0E0,0E0,0E0,0E0,0E0,0E0,0E0,0E0,0E0,0E0,0E0,0E0,0E0,0E0,0E0,0E0,0E0,0E0,0E0,0E0,0E0,0E0,0E0,0E0,0E0,0E0,0E0,0E0,0E0,0E0,0E0,0E0,0E0,0E0,0E0,0E0,0E0,0E0,0E0,0E0,0E0,0E0,0E0,0E0,0E0,0E0,0E0,0E0,0E0,0E0,0E0,0E0,0E0],"parents":[2147483647,0,0,1,1,2,2,3,3,4,4,5,5,6,6,7,7,8,8,9,9,10,10,11,11,12,12,13,13,14,14,15,15,16,16,19,19,21,21,22,22,23,23,24,24,25,25,26,26,27,27,28,28,29,29,30,30,31,31,32,32,33,33,34,34,36,36,37,37,38,38,39,39,40,40,41,41,43,43,45,45,47,47,48,48,49,49,50,50,51,51,52,52,53,53,54,54,55,55,56,56,57,57,58,58,59,59,60,60,63,63,64,64,65,65,66,66,69,69,70,70,71,71,72,72,73,73,74,74,76,76,77,77,78,78,80,80,81,81,82,82,83,83,84,84,85,85,86,86,87,87,88,88,89,89,90,90,91,91,92,92,93,93,94,94,95,95,96,96,97,97,98,98,99,99,100,100,101,101,102,102,103,103,107,107,108,108,109,109,111,111,112,112,115,115,122,122,123,123,124,124,125,125,126,126,127,127,128,128,131,131,132,132,135,135,137,137,138,138,139,139,140,140,141,141,142,142,143,143,144,144,145,145,146,146,147,147,148,148,149,149,150,150,151,151,152,152,153,153,154,154,155,155,156,156,157,157,158,158,159,159,160,160,163,163,164,164,168,168,169,169,170,170,171,171,172,172,173,173,174,174,175,175,176,176],"right_children":[2,4,6,8,10,12,14,16,18,20,22,24,26,28,30,32,34,-1,-1,36,-1,38,40,42,44,46,48,50,52,54,56,58,60,62,64,-1,66,68,70,72,74,76,-1,78,-1,80,-1,82,84,86,88,90,92,94,96,98,100,102,104,106,108,-1,-1,110,112,114,116,-1,-1,118,120,122,124,126,128,-1,130,132,134,-1,136,138,140,142,144,146,148,150,152,154,156,158,160,162,164,166,168,170,172,174,176,178,180,182,-1,-1,-1,184,186,188,-1,190,192,-1,-1,194,-1,-1,-1,-1,-1,-1,196,198,200,202,204,206,208,-1,-1,210,212,-1,-1,214,-1,216,218,220,222,224,226,228,230,232,234,236,238,240,242,244,246,248,250,252,254,256,258,260,262,-1,-1,264,266,-1,-1,-1,268,270,272,274,276,278,280,282,284,-1,-1,-1,-1,-1,-1,-1,-1,-1,-1,-1,-1,-1,-1,-1,-1,-1,-1,-1,-1,-1,-1,-1,-1,-1,-1,-1,-1,-1,-1,-1,-1,-1,-1,-1,-1,-1,-1,-1,-1,-1,-1,-1,-1,-1,-1,-1,-1,-1,-1,-1,-1,-1,-1,-1,-1,-1,-1,-1,-1,-1,-1,-1,-1,-1,-1,-1,-1,-1,-1,-1,-1,-1,-1,-1,-1,-1,-1,-1,-1,-1,-1,-1,-1,-1,-1,-1,-1,-1,-1,-1,-1,-1,-1,-1,-1,-1,-1,-1,-1,-1,-1,-1,-1,-1,-1,-1,-1],"split_conditions":[-4.6821675E0,3.2632845E-4,-2.6388003E-3,-4.1012332E-1,3.578776E-4,-7.034991E-1,-4.117472E-2,-1.9933342E-3,2.8644714E-3,-4.02663E-1,-7.0462114E-1,-3.67689E-2,-7.019197E-1,-5.4101855E-1,-6.821013E-1,1.788959E0,2.0862964E-3,-0E0,-8.830448E-3,-5.66835E-2,1.9407319E-2,-3.420034E-2,-1.1731389E-3,1.419451E-3,5.6211323E-2,-7.024417E-1,-9.685305E-4,-9.0834934E-1,-3.0693896E-3,1.7823143E-1,1.0570245E0,-5.6632066E-1,-3.0888656E-1,-7.048769E-1,-1.2495031E-3,-0E0,-8.7750894E-1,4.759222E-2,-2.6885658E-3,-1.6217527E-1,-1.2849624E-3,1.4494007E0,-0E0,-4.788189E-1,-2.8543833E-3,-2.3174705E-2,-3.2195759E-3,-7.652261E-3,-2.8176485E-3,1.0806844E-3,-2.5146624E-1,-2.7827926E-3,6.4995866E0,-1.1660998E-1,-8.6905666E-2,8.272817E-1,2.4217814E-2,-3.050555E-4,1.0007292E0,-2.0679113E-2,-1.980026E-2,6.9136657E-3,-0E0,7.071028E-1,2.695429E-3,-7.035959E-1,-1.1509282E-3,7.2099157E-3,-0E0,-4.9941793E-1,-4.7672412E-1,-2.779689E-1,1.1590443E-3,1.4143338E0,-4.15122E-4,-0E0,-5.15354E-1,-1.8853558E-2,-5.234656E-1,-0E0,-1.024326E-2,-6.7817837E-1,-5.8905977E-1,1.6132288E-4,-6.9192594E-1,-5.9276325E-1,-5.010425E-4,-2.7624362E-3,-1.0100969E0,9.107435E-2,-1.4361472E-1,-2.69971E-3,2.8982047E-2,-6.9043475E-1,-4.0245643E-1,-6.788417E-1,-3.1474832E-1,-2.4268655E-3,-1.9454269E-3,3.4343149E-3,1.2254663E0,2.4801397E0,-1.2051834E-3,-1.4050001E-3,-0E0,3.399276E-3,-0E0,-4.6153866E-2,-2.7130404E-3,-8.6905666E-2,-0E0,-1.6482012E-2,-7.07606E-1,-0E0,2.4824656E-4,-7.048579E-1,-0E0,-0E0,-1.1658944E-4,1.569317E-3,-0E0,-0E0,-2.023783E-3,-1.1875184E-3,4.0492948E-4,-7.024375E-1,6.3296285E0,-9.544611E-2,1.3697038E-3,-0E0,2.368734E-3,1.6521353E-4,-5.3079253E-1,6.320853E-3,-0E0,-5.1329363E-2,-0E0,1.947943E-1,-1.4031297E0,-4.663467E-3,-3.667535E-2,-1.8530485E-1,8.5178186E-4,-9.7098335E-4,-2.1986388E-1,-7.066072E-1,1.3660176E0,1.096494E0,-5.94383E-1,-5.5479467E-1,1.0570245E0,-7.065977E-1,-5.764412E-2,-9.998938E-1,-9.912334E-1,3.8697386E0,2.3296217E-2,2.2306263E-3,3.3536627E0,2.9531363E-3,-6.846719E-1,-2.5760361E-3,-0E0,2.762824E0,-6.83898E-1,3.593481E-5,-0E0,-0E0,-2.3347912E-3,-2.5307613E-3,9.949564E-4,2.0875394E0,-3.102934E-3,2.7059097E0,4.056891E-1,2.8495966E-3,-5.851413E-4,-0E0,-1.5569027E-3,-3.5761108E-4,7.673075E-4,-3.7007553E-3,-0E0,1.9466432E-4,-0E0,-0E0,-6.4696284E-4,-0E0,-1.8256948E-3,1.8188673E-4,-2.4358926E-6,4.917143E-3,4.1947738E-4,-0E0,4.426095E-3,-1.4058817E-3,-8.472622E-3,-9.4522483E-4,-0E0,-0E0,7.6316454E-4,1.3456123E-3,1.9645982E-4,-0E0,6.0375426E-3,-2.173176E-4,-2.45974E-3,-1.4763965E-5,1.061986E-3,-0E0,-1.3318362E-3,8.216297E-5,-2.1441013E-4,-0E0,-5.1872135E-4,4.375144E-5,-1.1681202E-3,2.3359868E-4,1.0218436E-5,2.3366787E-5,2.081482E-6,6.2235056E-5,-1.01979895E-5,5.5232304E-6,-3.7565285E-6,-0E0,3.6548646E-4,5.526158E-4,-0E0,-0E0,-1.5752476E-4,7.093433E-5,2.0361638E-4,-0E0,-1.0180691E-3,7.75307E-6,-6.357091E-5,-0E0,1.8498294E-4,2.7945016E-5,7.177735E-5,5.029666E-6,-2.3400805E-4,8.8219E-5,3.1966683E-6,6.814761E-6,-2.7792861E-5,-4.3505986E-4,-0E0,-0E0,-1.2352172E-3,-0E0,3.6846017E-4,-3.084183E-5,-1.5945156E-4,-0E0,2.1025557E-4,-3.652354E-6,-8.383132E-5,3.4178997E-4,-2.2356848E-4,2.3101794E-3,-0E0,-2.524044E-5,-9.6386844E-5,6.743984E-4,-0E0,-0E0,-1.1654868E-3,-4.3302343E-6,-4.0064206E-5,-0E0,1.2163255E-4,-8.534243E-6,1.5213028E-5,-0E0,2.990219E-5,-6.0893653E-5,-2.1172396E-4,2.8358964E-4,-0E0,-3.8854796E-6,9.498902E-5,1.4679784E-4,-7.158286E-5],"split_indices":[13,53,6,18,53,25,13,83,49,18,2,6,26,5,26,28,55,0,0,23,0,23,98,43,23,0,87,13,75,6,27,19,32,0,74,0,32,6,72,22,60,28,0,19,0,6,0,6,63,95,13,72,27,21,21,6,22,88,31,22,6,0,0,35,49,0,98,0,0,31,5,23,61,34,76,0,5,23,5,0,22,14,19,96,14,19,60,67,33,6,22,70,23,0,5,14,37,71,70,55,6,27,98,94,0,0,0,21,72,21,0,22,25,0,0,12,0,0,0,0,0,0,94,98,53,26,28,23,44,0,0,53,18,0,0,21,0,22,6,6,23,5,53,90,22,14,35,27,19,18,27,14,27,34,32,27,6,85,27,6,2,0,0,13,1,0,0,0,42,71,38,5,71,27,0,85,54,0,0,0,0,0,0,0,0,0,0,0,0,0,0,0,0,0,0,0,0,0,0,0,0,0,0,0,0,0,0,0,0,0,0,0,0,0,0,0,0,0,0,0,0,0,0,0,0,0,0,0,0,0,0,0,0,0,0,0,0,0,0,0,0,0,0,0,0,0,0,0,0,0,0,0,0,0,0,0,0,0,0,0,0,0,0,0,0,0,0,0,0,0,0,0,0,0,0,0,0,0,0,0,0,0,0,0,0],"split_type":[0,0,0,0,0,0,0,0,0,0,0,0,0,0,0,0,0,0,0,0,0,0,0,0,0,0,0,0,0,0,0,0,0,0,0,0,0,0,0,0,0,0,0,0,0,0,0,0,0,0,0,0,0,0,0,0,0,0,0,0,0,0,0,0,0,0,0,0,0,0,0,0,0,0,0,0,0,0,0,0,0,0,0,0,0,0,0,0,0,0,0,0,0,0,0,0,0,0,0,0,0,0,0,0,0,0,0,0,0,0,0,0,0,0,0,0,0,0,0,0,0,0,0,0,0,0,0,0,0,0,0,0,0,0,0,0,0,0,0,0,0,0,0,0,0,0,0,0,0,0,0,0,0,0,0,0,0,0,0,0,0,0,0,0,0,0,0,0,0,0,0,0,0,0,0,0,0,0,0,0,0,0,0,0,0,0,0,0,0,0,0,0,0,0,0,0,0,0,0,0,0,0,0,0,0,0,0,0,0,0,0,0,0,0,0,0,0,0,0,0,0,0,0,0,0,0,0,0,0,0,0,0,0,0,0,0,0,0,0,0,0,0,0,0,0,0,0,0,0,0,0,0,0,0,0,0,0,0,0,0,0,0,0,0,0,0,0,0,0,0,0,0,0,0,0,0,0,0,0,0,0,0,0,0,0],"sum_hessian":[3.09731E5,1.209E3,3.08522E5,3.65E2,8.44E2,1.2567E5,1.82852E5,3.59E2,6E0,2.6E1,8.18E2,5.27E3,1.204E5,6.5493E4,1.17359E5,7.9E1,2.8E2,3E0,3E0,2.4E1,2E0,1.3E1,8.05E2,2.4E1,5.246E3,2.4E1,1.20376E5,1.2198E4,5.3295E4,5.8063E4,5.9296E4,5.3E1,2.6E1,3E0,2.77E2,7E0,1.7E1,3E0,1E1,9.2E1,7.13E2,2.1E1,3E0,5.243E3,3E0,2.1E1,3E0,4.6612E4,7.3764E4,2.122E3,1.0076E4,2.046E3,5.1249E4,5.8015E4,4.8E1,5.4783E4,4.513E3,3.4E1,1.9E1,5E0,2.1E1,2E0,1E0,8E0,2.69E2,6E0,1.1E1,2E0,1E0,4E0,6E0,1.3E1,7.9E1,5.86E2,1.27E2,7E0,1.4E1,5.24E3,3E0,3E0,1.8E1,3.1186E4,1.5426E4,7.3073E4,6.91E2,1.461E3,6.61E2,5.389E3,4.687E3,5.5E1,1.991E3,5.1194E4,5.5E1,6E0,5.8009E4,7E0,4.1E1,4.7401E4,7.382E3,1.058E3,3.455E3,1.3E1,2.1E1,1.6E1,3E0,3E0,2E0,1.2E1,9E0,5E0,3E0,1.29E2,1.4E2,1E0,5E0,8E0,3E0,1E0,3E0,5E0,1E0,4E0,9E0,4.3E1,3.6E1,5.74E2,1.2E1,2.7E1,1E2,1E0,1.3E1,1.9E1,5.221E3,2E0,1E0,1.3E1,5E0,1.9501E4,1.1685E4,7.091E3,8.335E3,7.3021E4,5.2E1,2.54E2,4.37E2,1.389E3,7.2E1,4.03E2,2.58E2,4.037E3,1.352E3,6.68E2,4.019E3,3.8E1,1.7E1,1.93E2,1.798E3,9.1E1,5.1103E4,3.8E1,1.7E1,3E0,3E0,5.7954E4,5.5E1,5E0,2E0,1.1E1,3E1,4.7008E4,3.93E2,4.223E3,3.159E3,8.78E2,1.8E2,2.763E3,6.92E2,2E0,1.1E1,1.3E1,8E0,1.4E1,2E0,6E0,6E0,1E0,8E0,1E0,4E0,3E1,9.9E1,1E0,1.39E2,2E0,6E0,4E0,5E0,1.7E1,2.6E1,9E0,2.7E1,3.3E1,5.41E2,8E0,4E0,1.8E1,9E0,8.5E1,1.5E1,6E0,1.3E1,5.158E3,6.3E1,1E0,1.2E1,1.9496E4,5E0,1.32E2,1.1553E4,3.23E3,3.861E3,2.07E2,8.128E3,3.8708E4,3.4313E4,2.1E1,3.1E1,7E0,2.47E2,1.63E2,2.74E2,3.25E2,1.064E3,6.4E1,8E0,1.87E2,2.16E2,1.13E2,1.45E2,1.598E3,2.439E3,1.314E3,3.8E1,9.8E1,5.7E2,3.463E3,5.56E2,6E0,3.2E1,3E0,1.4E1,1.35E2,5.8E1,1.325E3,4.73E2,2.7E1,6.4E1,5.0728E4,3.75E2,1E1,2.8E1,7E0,1E1,5.6444E4,1.51E3,3.9E1,1.6E1,2E0,2.8E1,4.6541E4,4.67E2,3E2,9.3E1,3.127E3,1.096E3,5.87E2,2.572E3,7.33E2,1.45E2,3.6E1,1.44E2,2.668E3,9.5E1,3.9E1,6.53E2],"tree_param":{"num_deleted":"0","num_feature":"103","num_nodes":"285","size_leaf_vector":"1"}},{"base_weights":[-4.2729525E-6,4.301519E-4,-1.6802581E-4,1.0794539E-3,1.3137075E-4,-1.5271147E-4,-2.9376205E-3,5.4196646E-3,9.1364817E-4,3.7720252E-3,1.0446227E-4,6.7785103E-3,-1.6059176E-4,-5.5739363E-3,2.6167033E-3,3.658159E-2,4.5404634E-3,2.3455918E-3,7.695408E-4,1.182134E-2,7.0539356E-4,1.20768236E-4,-4.9127215E-3,9.323635E-3,-4.859656E-3,-2.9092535E-4,-4.9537528E-5,-2.6416516E-2,-4.385832E-3,4.0975116E-2,5.05029E-4,1.6646322E-2,6.6200593E-3,-0E0,6.0182195E-3,2.631592E-3,-3.1163022E-3,8.215342E-4,-8.288681E-4,2.0396754E-2,-2.1549768E-3,-6.0816403E-3,2.8758585E-3,6.372832E-4,3.8096034E-5,-8.150493E-3,5.4081433E-2,6.523787E-2,7.673556E-3,-2.2015743E-2,2.7016182E-3,-6.173226E-5,-5.459973E-4,2.569965E-3,-5.508223E-5,-9.354737E-3,-6.7101456E-2,-2.492525E-2,-3.7175848E-3,6.2350325E-2,-0E0,7.5755967E-3,-5.038714E-4,-0E0,2.7312547E-2,1.623979E-3,-4.0086366E-2,6.7271646E-3,-9.513443E-3,7.525302E-5,3.074702E-3,-0E0,-6.5880297E-3,1.1930467E-3,6.1231805E-4,1.5644408E-3,-1.9727254E-3,6.7124926E-3,5.7491545E-2,2.660357E-3,-2.6402162E-2,-0E0,-1.1021468E-2,9.4967993E-4,1.2058775E-2,1.6003862E-2,6.0043286E-4,-1.6732104E-2,4.519476E-5,-3.2674966E-3,-6.4658575E-2,5.768541E-3,-0E0,6.4237528E-3,-0E0,5.9565273E-4,1.4292103E-2,-0E0,-7.31563E-2,-0E0,7.640024E-3,2.8111073E-4,-2.559358E-4,-6.9584575E-4,-1.1246735E-4,3.6759637E-3,-6.015556E-4,-1.9757745E-5,-3.35821E-4,-1.882725E-2,-0E0,-8.000455E-2,-0E0,-0E0,-3.7767615E-2,-4.6373066E-3,2.25148E-3,-0E0,7.612057E-2,9.843288E-3,-0E0,3.1398245E-4,-5.6462106E-3,-8.265683E-3,4.6339698E-4,1.7095952E-3,-0E0,2.011484E-2,-9.4052026E-4,-0E0,-9.601331E-2,2.7217424E-2,6.0884375E-3,-4.150534E-2,-0E0,-5.502192E-4,1.4534163E-3,2.7845646E-3,8.436627E-3,2.030119E-3,-0E0,-0E0,-9.557782E-3,1.3901892E-3,-0E0,8.9067244E-4,3.9522548E-4,-0E0,3.438335E-3,-4.4263103E-3,9.704078E-4,1.4788546E-2,-1.6598923E-3,6.664099E-2,-0E0,-0E0,7.759426E-3,-0E0,-2.2599776E-3,2.0611843E-3,-0E0,-1.5091222E-2,-0E0,3.4752812E-3,-1.3835847E-3,-0E0,1.2903908E-2,3.4414645E-2,-0E0,6.2153983E-4,-1.48977E-3,-1.958105E-2,-0E0,8.641546E-5,-5.52017E-4,-7.4784313E-3,1.2027036E-2,-0E0,-1.8222176E-1,2.4859137E-3,-1.4406196E-3,7.6669496E-3,4.567479E-2,-4.4300565E-3,-0E0,4.8050293E-4,-0E0,7.751463E-4,8.289939E-5,-4.99623E-4,-8.305202E-5,-6.0079043E-4,-1.3961794E-3,-1.1268129E-3,7.9709294E-5,-0E0,5.442868E-3,-2.9688352E-3,-0E0,-4.091931E-5,5.6800037E-4,-1.9498737E-4,-7.183332E-4,-2.4535773E-2,-0E0,-0E0,3.4040678E-3,-6.2961983E-3,-3.8717824E-4,-0E0,-6.004417E-2,-5.0167367E-3,1.4557587E-2,-1.6660708E-3,6.1325775E-3,-0E0,4.0905443E-3,1.3246139E-3,1.9497186E-2,2.652072E-3,-2.9205177E-3,3.455924E-4,-1.1417093E-2,-0E0,-5.1060336E-4,1.4638022E-4,3.0833029E-3,-2.389492E-3,7.868359E-5,1.6232661E-4,-0E0,-6.3507813E-3,-0E0,1.7873198E-3,-0E0,3.550121E-4,-8.058787E-4,-0E0,-3.782548E-3,-4.619768E-4,1.9723161E-4,-5.636496E-5,-0E0,1.19808516E-4,-0E0,5.9898517E-5,1.726732E-4,5.6930736E-4,-0E0,-0E0,1.834636E-4,-0E0,-5.6182904E-5,-0E0,2.2894643E-4,-5.8797846E-4,-0E0,9.8341836E-5,4.860522E-5,1.808985E-5,-1.7383569E-5,6.202232E-5,2.4986628E-5,2.2373242E-5,-0E0,-6.12705E-5,1.101391E-5,-0E0,2.3483687E-4,-3.156531E-4,4.0133044E-5,-9.210445E-4,1.09407425E-4,1.1956216E-3,-0E0,-0E0,-4.1574138E-4,3.8172693E-3,-0E0,4.4800618E-4,-0E0,-0E0,1.784309E-4,-3.1311287E-5,-0E0,-8.758413E-4,-0E0,-0E0,3.0572864E-4,4.1657007E-5,-2.0872451E-4,7.158873E-4,-0E0,-0E0,1.9451183E-3,2.9941084E-5,7.771215E-4,-0E0,-1.1553147E-3,5.9505506E-5,2.9121463E-6,-3.3607303E-5,4.7825798E-4,-1.092744E-3,-8.4302206E-5,4.550934E-6,2.7296362E-3,-3.7963814E-4,4.4454713E-4,-1.1018351E-2,-0E0,3.9077486E-4,-0E0,-0E0,5.941609E-4,1.1512578E-3,6.3192896E-3,2.0197114E-5,1.03501974E-4,6.1980413E-6,-4.3607677E-5,3.4926452E-6,-3.5953173E-5,2.1062404E-5,-7.794487E-6,1.4699087E-4,-3.0777486E-5,-6.249891E-5,-2.8238847E-4,-1.1898734E-4,-3.0738065E-5,2.1644298E-6,5.432622E-4,-0E0,-9.740781E-5,-0E0,3.2844237E-4,-0E0,-1.9732064E-4,-2.4856552E-6,4.9343857E-6,-7.099793E-7,3.9857427E-5,1.0122991E-5,-1.7200136E-5,-2.3376922E-5,-1.1407463E-4,-1.5849347E-3,-0E0,-0E0,6.349438E-4,-0E0,-4.217827E-3,-1.2922165E-4,-4.514587E-4,1.4429474E-3,-0E0,-0E0,-4.899942E-4,5.40808E-4,-0E0,-0E0,1.582169E-4,-0E0,1.1783051E-3,-4.7283167E-5,2.4485163E-4,-5.058378E-4,-0E0,-0E0,2.544312E-4,-0E0,-7.45682E-4],"categories":[],"categories_nodes":[],"categories_segments":[],"categories_sizes":[],"default_left":[0,0,0,0,0,0,0,0,0,0,0,0,0,0,0,0,0,0,0,0,0,0,0,0,0,0,0,0,0,0,0,0,0,0,0,0,0,0,0,0,0,0,0,0,0,0,0,0,0,0,0,0,0,0,0,0,0,0,0,0,0,0,0,0,0,0,0,0,0,0,0,0,0,0,0,0,0,0,0,0,0,0,0,0,0,0,0,0,0,0,0,0,0,0,0,0,0,0,0,0,0,0,0,0,0,0,0,0,0,0,0,0,0,0,0,0,0,0,0,0,0,0,0,0,0,0,0,0,0,0,0,0,0,0,0,0,0,0,0,0,0,0,0,0,0,0,0,0,0,0,0,0,0,0,0,0,0,0,0,0,0,0,0,0,0,0,0,0,0,0,0,0,0,0,0,0,0,0,0,0,0,0,0,0,0,0,0,0,0,0,0,0,0,0,0,0,0,0,0,0,0,0,0,0,0,0,0,0,0,0,0,0,0,0,0,0,0,0,0,0,0,0,0,0,0,0,0,0,0,0,0,0,0,0,0,0,0,0,0,0,0,0,0,0,0,0,0,0,0,0,0,0,0,0,0,0,0,0,0,0,0,0,0,0,0,0,0,0,0,0,0,0,0,0,0,0,0,0,0,0,0,0,0,0,0,0,0,0,0,0,0,0,0,0,0,0,0,0,0,0,0,0,0,0,0,0,0,0,0,0,0,0,0,0,0,0,0,0,0,0,0,0,0,0,0,0,0,0,0,0,0,0,0,0,0,0,0,0,0,0,0,0,0,0,0,0,0,0,0,0,0,0,0,0,0,0,0,0,0,0,0,0,0,0,0,0,0,0,0,0,0,0,0],"id":4,"left_children":[1,3,5,7,9,11,13,15,17,19,21,23,25,27,29,31,33,35,37,39,41,43,45,47,49,51,53,55,57,59,61,63,-1,65,67,69,71,73,75,77,79,81,83,85,87,89,91,93,95,97,99,101,103,105,107,109,111,113,115,117,-1,119,121,123,125,127,129,131,133,135,137,139,141,143,145,147,149,151,153,155,157,159,161,163,165,167,169,171,173,175,177,-1,-1,-1,-1,179,181,-1,183,-1,185,187,189,191,193,195,197,199,201,203,205,207,-1,-1,209,211,213,-1,215,217,-1,219,221,223,-1,-1,-1,225,227,229,231,233,235,237,239,241,243,245,247,249,251,253,255,257,259,261,263,265,267,269,271,273,275,277,-1,-1,279,-1,-1,281,283,285,-1,287,289,-1,291,293,-1,295,-1,297,-1,299,301,303,305,307,309,311,-1,313,315,-1,-1,-1,-1,317,319,321,323,325,327,329,331,333,335,337,-1,339,341,343,345,347,-1,-1,349,-1,-1,-1,351,353,355,357,359,-1,-1,361,363,365,367,369,371,-1,-1,-1,-1,-1,-1,-1,-1,-1,-1,-1,-1,-1,-1,-1,-1,-1,-1,-1,-1,-1,-1,-1,-1,-1,-1,-1,-1,-1,-1,-1,-1,-1,-1,-1,-1,-1,-1,-1,-1,-1,-1,-1,-1,-1,-1,-1,-1,-1,-1,-1,-1,-1,-1,-1,-1,-1,-1,-1,-1,-1,-1,-1,-1,-1,-1,-1,-1,-1,-1,-1,-1,-1,-1,-1,-1,-1,-1,-1,-1,-1,-1,-1,-1,-1,-1,-1,-1,-1,-1,-1,-1,-1,-1,-1,-1,-1,-1,-1,-1,-1,-1,-1,-1,-1,-1,-1,-1,-1,-1,-1,-1,-1,-1,-1,-1,-1,-1,-1,-1,-1,-1,-1,-1,-1,-1,-1,-1,-1,-1,-1,-1,-1,-1,-1,-1,-1,-1,-1,-1,-1,-1,-1,-1,-1,-1,-1,-1,-1,-1],"loss_changes":[2.2027675E-2,1.6310653E-2,9.247519E-3,1.8499099E-2,5.3053303E-3,1.1579286E-2,1.7914116E-2,2.2066029E-2,4.977377E-3,8.597992E-3,4.242455E-3,7.562831E-3,3.2062829E-3,1.7414548E-2,2.6233193E-2,2.9000223E-2,6.66357E-3,3.5141017E-3,1.939971E-3,1.3945683E-2,4.072488E-3,2.389803E-3,2.7368689E-2,1.1489654E-2,6.6203205E-3,5.9361886E-3,1.5101868E-3,2.0127326E-2,7.94345E-3,1.4441727E-2,3.2620602E-3,3.4565898E-3,0E0,1.677868E-2,7.601805E-3,2.1589994E-3,1.4581983E-3,1.5819212E-3,1.8892931E-3,2.7601957E-2,6.3626617E-3,2.4897188E-3,2.8918188E-3,2.7402353E-3,4.2568445E-3,3.736246E-2,3.380665E-2,1.7212747E-2,7.884146E-3,1.4623698E-2,7.2738307E-4,3.6087339E-3,3.0597113E-3,1.0726908E-3,1.1651078E-3,3.4272731E-3,6.369576E-3,6.198258E-3,4.4564037E-3,9.576552E-3,0E0,1.189694E-3,1.7997309E-3,6.322865E-4,2.7814703E-3,1.1787383E-2,3.0784775E-2,5.6846533E-3,6.5140454E-3,3.9735885E-4,1.719499E-3,1.2405364E-4,1.7284807E-3,1.9738143E-3,7.584137E-4,7.181319E-4,3.8490375E-3,4.7704885E-3,9.40343E-3,5.5087986E-4,2.032924E-3,4.7158137E-5,2.1055387E-3,1.4182834E-3,5.1069586E-4,2.941181E-3,2.0637119E-3,7.9532294E-4,1.1783884E-3,9.156811E-3,8.973344E-2,0E0,0E0,0E0,0E0,3.1613172E-3,1.4611449E-2,0E0,2.392931E-3,0E0,2.3608754E-4,1.8165577E-3,1.408305E-3,2.1803863E-3,2.5587566E-3,1.5899839E-3,1.5636919E-4,1.2888078E-3,6.2055874E-4,3.0289055E-3,1.1703553E-4,1.34130195E-2,0E0,0E0,1.0517202E-2,4.006466E-3,1.7871798E-3,0E0,1.4849678E-3,1.7064274E-3,0E0,1.8123861E-3,3.1165257E-3,4.3169304E-5,0E0,0E0,0E0,1.5018513E-2,2.5607212E-2,4.3213888E-5,2.9975735E-3,4.8125545E-3,1.4255481E-2,8.955773E-3,8.7976654E-4,1.2914118E-4,3.1480964E-4,1.3938975E-3,1.986147E-3,1.8695452E-4,1.1489728E-5,1.4886276E-4,1.5636766E-3,1.3720952E-3,1.3568535E-4,6.778273E-4,1.7752452E-4,7.136497E-5,6.4973463E-4,3.344546E-3,3.1530592E-3,2.7575507E-3,7.8392477E-4,7.907867E-3,0E0,0E0,8.234143E-5,0E0,0E0,8.14657E-5,3.9608026E-6,1.1533787E-3,0E0,1.2946228E-3,8.67155E-4,0E0,5.819518E-4,1.646392E-4,0E0,1.0150832E-3,0E0,9.035296E-4,0E0,1.3273377E-3,2.825625E-3,7.8099715E-3,8.299684E-3,5.2421435E-4,1.4401481E-2,1.8246135E-3,0E0,2.2486527E-3,1.0543758E-2,0E0,0E0,0E0,0E0,2.3568342E-3,4.7457017E-4,1.8403311E-3,7.303019E-4,1.4194371E-3,1.8873038E-3,1.0400589E-3,3.0341065E-3,6.8695146E-5,1.0910993E-3,9.797129E-5,0E0,1.2311657E-4,5.5645104E-4,5.9754064E-4,1.0442176E-3,2.0630965E-3,0E0,0E0,8.666593E-4,0E0,0E0,0E0,7.088784E-3,5.3956416E-3,2.5308996E-3,6.915784E-4,1.8418902E-3,0E0,0E0,1.784876E-4,1.1549727E-3,1.6806149E-3,1.9539776E-3,3.6270602E-4,1.7284062E-3,0E0,0E0,0E0,0E0,0E0,0E0,0E0,0E0,0E0,0E0,0E0,0E0,0E0,0E0,0E0,0E0,0E0,0E0,0E0,0E0,0E0,0E0,0E0,0E0,0E0,0E0,0E0,0E0,0E0,0E0,0E0,0E0,0E0,0E0,0E0,0E0,0E0,0E0,0E0,0E0,0E0,0E0,0E0,0E0,0E0,0E0,0E0,0E0,0E0,0E0,0E0,0E0,0E0,0E0,0E0,0E0,0E0,0E0,0E0,0E0,0E0,0E0,0E0,0E0,0E0,0E0,0E0,0E0,0E0,0E0,0E0,0E0,0E0,0E0,0E0,0E0,0E0,0E0,0E0,0E0,0E0,0E0,0E0,0E0,0E0,0E0,0E0,0E0,0E0,0E0,0E0,0E0,0E0,0E0,0E0,0E0,0E0,0E0,0E0,0E0,0E0,0E0,0E0,0E0,0E0,0E0,0E0,0E0,0E0,0E0,0E0,0E0,0E0,0E0,0E0,0E0,0E0,0E0,0E0,0E0,0E0,0E0,0E0,0E0,0E0,0E0,0E0,0E0,0E0,0E0,0E0,0E0,0E0,0E0,0E0,0E0,0E0,0E0,0E0,0E0,0E0,0E0,0E0,0E0,0E0,0E0,0E0,0E0,0E0,0E0],"parents":[2147483647,0,0,1,1,2,2,3,3,4,4,5,5,6,6,7,7,8,8,9,9,10,10,11,11,12,12,13,13,14,14,15,15,16,16,17,17,18,18,19,19,20,20,21,21,22,22,23,23,24,24,25,25,26,26,27,27,28,28,29,29,30,30,31,31,33,33,34,34,35,35,36,36,37,37,38,38,39,39,40,40,41,41,42,42,43,43,44,44,45,45,46,46,47,47,48,48,49,49,50,50,51,51,52,52,53,53,54,54,55,55,56,56,57,57,58,58,59,59,61,61,62,62,63,63,64,64,65,65,66,66,67,67,68,68,69,69,70,70,71,71,72,72,73,73,74,74,75,75,76,76,77,77,78,78,79,79,80,80,81,81,82,82,83,83,84,84,85,85,86,86,87,87,88,88,89,89,90,90,95,95,96,96,98,98,100,100,101,101,102,102,103,103,104,104,105,105,106,106,107,107,108,108,109,109,110,110,111,111,114,114,115,115,116,116,118,118,119,119,121,121,122,122,123,123,127,127,128,128,129,129,130,130,131,131,132,132,133,133,134,134,135,135,136,136,137,137,138,138,139,139,140,140,141,141,142,142,143,143,144,144,145,145,146,146,147,147,148,148,149,149,150,150,151,151,152,152,153,153,156,156,159,159,160,160,161,161,163,163,164,164,166,166,167,167,169,169,171,171,173,173,174,174,175,175,176,176,177,177,178,178,179,179,181,181,182,182,187,187,188,188,189,189,190,190,191,191,192,192,193,193,194,194,195,195,196,196,197,197,199,199,200,200,201,201,202,202,203,203,206,206,210,210,211,211,212,212,213,213,214,214,217,217,218,218,219,219,220,220,221,221,222,222],"right_children":[2,4,6,8,10,12,14,16,18,20,22,24,26,28,30,32,34,36,38,40,42,44,46,48,50,52,54,56,58,60,62,64,-1,66,68,70,72,74,76,78,80,82,84,86,88,90,92,94,96,98,100,102,104,106,108,110,112,114,116,118,-1,120,122,124,126,128,130,132,134,136,138,140,142,144,146,148,150,152,154,156,158,160,162,164,166,168,170,172,174,176,178,-1,-1,-1,-1,180,182,-1,184,-1,186,188,190,192,194,196,198,200,202,204,206,208,-1,-1,210,212,214,-1,216,218,-1,220,222,224,-1,-1,-1,226,228,230,232,234,236,238,240,242,244,246,248,250,252,254,256,258,260,262,264,266,268,270,272,274,276,278,-1,-1,280,-1,-1,282,284,286,-1,288,290,-1,292,294,-1,296,-1,298,-1,300,302,304,306,308,310,312,-1,314,316,-1,-1,-1,-1,318,320,322,324,326,328,330,332,334,336,338,-1,340,342,344,346,348,-1,-1,350,-1,-1,-1,352,354,356,358,360,-1,-1,362,364,366,368,370,372,-1,-1,-1,-1,-1,-1,-1,-1,-1,-1,-1,-1,-1,-1,-1,-1,-1,-1,-1,-1,-1,-1,-1,-1,-1,-1,-1,-1,-1,-1,-1,-1,-1,-1,-1,-1,-1,-1,-1,-1,-1,-1,-1,-1,-1,-1,-1,-1,-1,-1,-1,-1,-1,-1,-1,-1,-1,-1,-1,-1,-1,-1,-1,-1,-1,-1,-1,-1,-1,-1,-1,-1,-1,-1,-1,-1,-1,-1,-1,-1,-1,-1,-1,-1,-1,-1,-1,-1,-1,-1,-1,-1,-1,-1,-1,-1,-1,-1,-1,-1,-1,-1,-1,-1,-1,-1,-1,-1,-1,-1,-1,-1,-1,-1,-1,-1,-1,-1,-1,-1,-1,-1,-1,-1,-1,-1,-1,-1,-1,-1,-1,-1,-1,-1,-1,-1,-1,-1,-1,-1,-1,-1,-1,-1,-1,-1,-1,-1,-1,-1],"split_conditions":[-2.2351648E-1,2.2599157E-3,4.1709547E0,-3.3336527E0,-2.69971E-3,-4.6821675E0,-2.70087E-1,-3.8318487E-3,-1.6368922E0,-9.002104E-2,6.4995866E0,-9.4310136E-4,-6.757019E-1,-1.3986482E-1,-4.6821675E0,-1.2710278E-3,-2.2358544E0,-3.7446475E-1,1.8058066E0,-2.7077869E-3,-1.4388766E-3,-6.866661E-1,6.4197844E-1,-2.3894752E-3,2.5015068E-3,1.173456E-1,-3.5125053E0,9.38875E-1,-3.614726E-4,3.7346026E-1,-3.2106644E-1,-2.1031176E-1,6.6200593E-3,-1.1901809E-3,1.8052325E0,3.0857022E-4,2.2982515E-4,-6.988795E-1,-4.3443355E-1,6.4995866E0,2.568529E-3,2.4128996E-3,1.9080912E-3,-1.68083E-1,-6.873857E-1,3.8052905E-1,-7.040768E-1,-7.0659643E-1,3.168039E-1,-1.1374014E-3,6.94309E-2,-8.037908E-2,2.3773035E-1,1.0878546E0,7.4961245E-1,-7.235789E-2,-1.0222883E-3,-9.9946696E-1,-9.837707E-4,-1.1049578E0,-0E0,-2.5857592E-3,4.756375E0,-2.2659424E-1,-6.8293387E-1,-1.6983784E-3,-2.635473E-3,-2.7886975E-1,-3.1474832E-1,-5.399736E-1,3.3536627E0,-3.8736302E-1,-4.9941793E-1,-2.7760484E-3,-1.295496E-2,-5.932362E-1,-4.908197E-1,-1.9468289E-3,-6.722106E-1,-6.0447335E-1,6.3296285E0,-2.7560182E0,1.5716796E-4,-9.644221E-4,-1.5169764E0,-5.2740216E-2,-4.1012332E-1,9.5165795E-1,1.5122569E0,-6.574384E-2,5.0548947E-1,5.768541E-3,-0E0,6.4237528E-3,-0E0,-7.0408607E-1,-2.734666E-4,-0E0,-6.857905E-1,-0E0,-8.0526865E-4,-6.8690425E-1,-7.014907E-1,1.0084271E0,2.3404895E-3,-1.1830629E0,-1.3397115E-1,8.65299E-1,1.1959924E0,1.378037E0,-3.0458406E-1,-6.873937E-1,-0E0,-0E0,-7.1805495E-1,-2.5726324E-3,-5.0574344E-1,-0E0,-1.4370231E-1,-3.8860396E-1,-0E0,1.4266144E0,-1.1228974E-1,-4.333047E-1,4.6339698E-4,1.7095952E-3,-0E0,6.4995866E0,-9.679455E-4,-3.185185E-2,-7.001503E-1,4.870362E0,-4.02663E-1,-1.0100969E0,7.818665E-1,1.5807076E-1,-4.5052764E-1,-1.543235E-2,3.714614E-3,-2.6643504E-3,2.3473628E0,-3.288536E-1,1.621307E-2,-7.017256E-1,-9.954331E-4,-8.262774E-2,2.6638983E-3,6.1282444E-1,-2.651888E-3,-1.1550852E-3,-3.7095302E-3,-2.3782012E0,3.659537E0,6.0090923E-1,-0E0,-0E0,-2.3224493E-3,-0E0,-2.2599776E-3,-5.287663E-1,-4.4924203E-1,-6.843683E-1,-0E0,-5.149619E-1,1.9961951E0,-0E0,1.3403571E0,1.8058066E0,-0E0,1.2470986E-3,-1.48977E-3,-1.271076E-1,-0E0,-2.7560182E0,1.629588E-3,-2.9034559E-3,3.365271E-2,-5.148885E-1,-7.029206E-1,-9.4382605E-4,-1.4406196E-3,-3.1474832E-1,-4.02663E-1,-4.4300565E-3,-0E0,4.8050293E-4,-0E0,-5.5455333E-1,1.2112343E-2,-1.4019464E-2,-8.134324E-3,-1.710529E0,3.8697386E0,-7.742314E-1,-3.9371136E-1,-1.0472139E-3,-1.1523452E-3,-2.0906542E-4,-0E0,1.2254663E0,3.1034243E-1,-7.946671E-1,2.913058E-3,-9.1771374E-4,-0E0,-0E0,-4.9574873E-1,-6.2961983E-3,-3.8717824E-4,-0E0,-6.858499E-2,-4.9693665E-1,-7.1805495E-1,1.9858003E-2,1.3266148E-3,-0E0,4.0905443E-3,-1.3787602E-3,-2.527498E-1,1.2801332E0,-1.6562471E-3,6.411088E-1,-5.032145E-1,-0E0,-5.1060336E-4,1.4638022E-4,3.0833029E-3,-2.389492E-3,7.868359E-5,1.6232661E-4,-0E0,-6.3507813E-3,-0E0,1.7873198E-3,-0E0,3.550121E-4,-8.058787E-4,-0E0,-3.782548E-3,-4.619768E-4,1.9723161E-4,-5.636496E-5,-0E0,1.19808516E-4,-0E0,5.9898517E-5,1.726732E-4,5.6930736E-4,-0E0,-0E0,1.834636E-4,-0E0,-5.6182904E-5,-0E0,2.2894643E-4,-5.8797846E-4,-0E0,9.8341836E-5,4.860522E-5,1.808985E-5,-1.7383569E-5,6.202232E-5,2.4986628E-5,2.2373242E-5,-0E0,-6.12705E-5,1.101391E-5,-0E0,2.3483687E-4,-3.156531E-4,4.0133044E-5,-9.210445E-4,1.09407425E-4,1.1956216E-3,-0E0,-0E0,-4.1574138E-4,3.8172693E-3,-0E0,4.4800618E-4,-0E0,-0E0,1.784309E-4,-3.1311287E-5,-0E0,-8.758413E-4,-0E0,-0E0,3.0572864E-4,4.1657007E-5,-2.0872451E-4,7.158873E-4,-0E0,-0E0,1.9451183E-3,2.9941084E-5,7.771215E-4,-0E0,-1.1553147E-3,5.9505506E-5,2.9121463E-6,-3.3607303E-5,4.7825798E-4,-1.092744E-3,-8.4302206E-5,4.550934E-6,2.7296362E-3,-3.7963814E-4,4.4454713E-4,-1.1018351E-2,-0E0,3.9077486E-4,-0E0,-0E0,5.941609E-4,1.1512578E-3,6.3192896E-3,2.0197114E-5,1.03501974E-4,6.1980413E-6,-4.3607677E-5,3.4926452E-6,-3.5953173E-5,2.1062404E-5,-7.794487E-6,1.4699087E-4,-3.0777486E-5,-6.249891E-5,-2.8238847E-4,-1.1898734E-4,-3.0738065E-5,2.1644298E-6,5.432622E-4,-0E0,-9.740781E-5,-0E0,3.2844237E-4,-0E0,-1.9732064E-4,-2.4856552E-6,4.9343857E-6,-7.099793E-7,3.9857427E-5,1.0122991E-5,-1.7200136E-5,-2.3376922E-5,-1.1407463E-4,-1.5849347E-3,-0E0,-0E0,6.349438E-4,-0E0,-4.217827E-3,-1.2922165E-4,-4.514587E-4,1.4429474E-3,-0E0,-0E0,-4.899942E-4,5.40808E-4,-0E0,-0E0,1.582169E-4,-0E0,1.1783051E-3,-4.7283167E-5,2.4485163E-4,-5.058378E-4,-0E0,-0E0,2.544312E-4,-0E0,-7.45682E-4],"split_indices":[9,55,9,9,70,13,18,41,9,23,27,81,26,21,13,42,20,5,27,72,87,14,29,62,55,9,15,30,45,32,19,6,0,74,13,79,79,2,29,27,55,55,68,6,10,29,8,10,102,74,29,13,4,23,27,30,81,31,87,32,0,75,27,5,10,100,72,21,37,18,27,13,31,67,6,19,5,95,20,23,28,9,6,98,30,23,18,13,29,29,30,0,0,0,0,10,76,0,0,0,87,29,26,9,85,20,33,4,9,36,22,0,0,0,33,72,30,0,29,19,0,20,29,18,0,0,0,27,81,6,3,28,18,33,20,33,5,21,23,72,4,5,23,9,87,4,6,36,72,74,41,9,4,32,0,0,100,0,0,18,2,2,0,18,4,0,20,27,0,84,0,6,0,9,43,75,23,5,0,81,0,37,18,0,0,0,0,18,6,21,6,13,27,15,19,87,97,45,0,6,9,30,49,98,0,0,19,0,0,0,20,5,33,21,61,0,0,60,18,4,100,6,20,0,0,0,0,0,0,0,0,0,0,0,0,0,0,0,0,0,0,0,0,0,0,0,0,0,0,0,0,0,0,0,0,0,0,0,0,0,0,0,0,0,0,0,0,0,0,0,0,0,0,0,0,0,0,0,0,0,0,0,0,0,0,0,0,0,0,0,0,0,0,0,0,0,0,0,0,0,0,0,0,0,0,0,0,0,0,0,0,0,0,0,0,0,0,0,0,0,0,0,0,0,0,0,0,0,0,0,0,0,0,0,0,0,0,0,0,0,0,0,0,0,0,0,0,0,0,0,0,0,0,0,0,0,0,0,0,0,0,0,0,0,0,0,0,0,0,0,0,0,0],"split_type":[0,0,0,0,0,0,0,0,0,0,0,0,0,0,0,0,0,0,0,0,0,0,0,0,0,0,0,0,0,0,0,0,0,0,0,0,0,0,0,0,0,0,0,0,0,0,0,0,0,0,0,0,0,0,0,0,0,0,0,0,0,0,0,0,0,0,0,0,0,0,0,0,0,0,0,0,0,0,0,0,0,0,0,0,0,0,0,0,0,0,0,0,0,0,0,0,0,0,0,0,0,0,0,0,0,0,0,0,0,0,0,0,0,0,0,0,0,0,0,0,0,0,0,0,0,0,0,0,0,0,0,0,0,0,0,0,0,0,0,0,0,0,0,0,0,0,0,0,0,0,0,0,0,0,0,0,0,0,0,0,0,0,0,0,0,0,0,0,0,0,0,0,0,0,0,0,0,0,0,0,0,0,0,0,0,0,0,0,0,0,0,0,0,0,0,0,0,0,0,0,0,0,0,0,0,0,0,0,0,0,0,0,0,0,0,0,0,0,0,0,0,0,0,0,0,0,0,0,0,0,0,0,0,0,0,0,0,0,0,0,0,0,0,0,0,0,0,0,0,0,0,0,0,0,0,0,0,0,0,0,0,0,0,0,0,0,0,0,0,0,0,0,0,0,0,0,0,0,0,0,0,0,0,0,0,0,0,0,0,0,0,0,0,0,0,0,0,0,0,0,0,0,0,0,0,0,0,0,0,0,0,0,0,0,0,0,0,0,0,0,0,0,0,0,0,0,0,0,0,0,0,0,0,0,0,0,0,0,0,0,0,0,0,0,0,0,0,0,0,0,0,0,0,0,0,0,0,0,0,0,0,0,0,0,0,0,0,0,0,0,0,0,0],"sum_hessian":[3.10014E5,8.47E4,2.25314E5,2.6587E4,5.8113E4,2.24111E5,1.203E3,9.56E2,2.5631E4,3.99E2,5.7714E4,2.4E2,2.23871E5,8.28E2,3.75E2,2.3E1,9.33E2,2.28E3,2.3351E4,1.01E2,2.98E2,5.7547E4,1.67E2,2.04E2,3.6E1,1.02581E5,1.2129E5,4E1,7.88E2,1.7E1,3.58E2,2E1,3E0,2.18E2,7.15E2,2.184E3,9.6E1,2.2676E4,6.75E2,6.7E1,3.4E1,6.1E1,2.37E2,7.773E3,4.9774E4,1.6E2,7E0,4E0,2E2,1.5E1,2.1E1,5.4238E4,4.8343E4,2.18E2,1.21072E5,3E1,1E1,2E1,7.68E2,1.1E1,6E0,5.7E1,3.01E2,8E0,1.2E1,2.08E2,1E1,6.9E2,2.5E1,3.56E2,1.828E3,4.1E1,5.5E1,7.997E3,1.4679E4,1.9E2,4.85E2,5.1E1,1.6E1,2.5E1,9E0,2.2E1,3.9E1,2.05E2,3.2E1,1.2E1,7.761E3,1.5E1,4.9759E4,1.49E2,1.1E1,4E0,3E0,2E0,2E0,1.04E2,9.6E1,1.1E1,4E0,6E0,1.5E1,1.9427E4,3.4811E4,3.5754E4,1.2589E4,1.85E2,3.3E1,1.07857E5,1.3215E4,1.7E1,1.3E1,8E0,2E0,7E0,1.3E1,6.8E2,8.8E1,2E0,9E0,4.6E1,1.1E1,2.43E2,5.8E1,4E0,4E0,1E1,2E0,3E1,1.78E2,5E0,5E0,1.6E1,6.74E2,5E0,2E1,1.95E2,1.61E2,1.752E3,7.6E1,3E1,1.1E1,1E1,4.5E1,6.911E3,1.086E3,6.23E3,8.449E3,9E1,1E2,2.83E2,2.02E2,3.2E1,1.9E1,1.4E1,2E0,1.3E1,1.2E1,5E0,4E0,1.1E1,1.1E1,3E1,9E0,1.19E2,8.6E1,1E0,3.1E1,5E0,7E0,7.759E3,2E0,1.3E1,2E0,4.6703E4,3.056E3,1.22E2,2.7E1,7E0,4E0,1.01E2,3E0,8.2E1,1.4E1,3E0,1E0,1.2E1,3E0,5.418E3,1.4009E4,1.4207E4,2.0604E4,3.1607E4,4.147E3,2.088E3,1.0501E4,4.7E1,1.38E2,1.9E1,1.4E1,1.04273E5,3.584E3,9.85E3,3.365E3,1.5E1,2E0,3E0,1E1,4E0,4E0,5E0,8E0,6.72E2,8E0,3.1E1,5.7E1,1E0,8E0,3E1,1.6E1,1.59E2,8.4E1,2E1,3.8E1,1E0,3E0,2.3E1,7E0,1.1E1,1.67E2,4E0,1E0,3E0,2E0,1.3E1,3E0,6.49E2,2.5E1,2E0,3E0,8E0,1.2E1,1.48E2,4.7E1,1.14E2,4.7E1,5.64E2,1.188E3,5.7E1,1.9E1,7E0,2.3E1,2E0,9E0,3E0,7E0,4.1E1,4E0,2.804E3,4.107E3,4.38E2,6.48E2,3.153E3,3.077E3,7.478E3,9.71E2,4.6E1,4.4E1,1.7E1,8.3E1,2.22E2,6.1E1,7E0,1.95E2,1.7E1,1.5E1,7E0,1.2E1,1.2E1,2E0,1E1,2E0,1E0,1E1,1E1,1E0,2.6E1,4E0,4.6E1,7.3E1,2.8E1,5.8E1,2.8E1,3E0,1E0,4E0,7.754E3,5E0,2E0,1.1E1,1.074E3,4.5629E4,3.03E3,2.6E1,3E1,9.2E1,2.3E1,4E0,2E0,5E0,3E0,1E0,4E1,6.1E1,3.2E1,5E1,1.2E1,2E0,4.271E3,1.147E3,1.3532E4,4.77E2,3.825E3,1.0382E4,2.427E3,1.8177E4,1.03E2,3.1504E4,4.032E3,1.15E2,5.49E2,1.539E3,1.0475E4,2.6E1,2.9E1,1.8E1,1.8E1,1.2E2,2E0,1.7E1,9.8768E4,5.505E3,8.89E2,2.695E3,2.503E3,7.347E3,2.955E3,4.1E2,1.1E1,4E0,4E0,6E0,3E0,5E0,4.34E2,2.38E2,5E0,3E0,2.3E1,8E0,3.4E1,2.3E1,7E0,2.3E1,3E0,1.3E1,4.4E1,1.15E2,2.6E1,5.8E1,6E0,1.4E1,8E0,3E1],"tree_param":{"num_deleted":"0","num_feature":"103","num_nodes":"373","size_leaf_vector":"1"}},{"base_weights":[7.305541E-6,4.5247697E-3,-1.0272744E-5,4.213303E-3,3.6318072E-3,3.1734241E-6,-3.8356727E-3,3.9329072E-3,6.2819935E-2,2.587381E-4,-1.6219215E-4,-2.5092447E-3,-1.2345605E-2,1.0701277E-3,8.592854E-3,3.6648333E-3,-0E0,1.10507E-3,1.1322218E-4,-3.159374E-5,-3.7543077E-4,-0E0,-4.044763E-3,-4.2482942E-2,-7.581626E-3,1.6915906E-3,-3.9656967E-2,3.9548516E-2,5.059123E-3,4.5073978E-3,9.7454514E-4,3.7603677E-4,4.650703E-6,3.0779636E-3,-4.004288E-5,-1.8913804E-4,-6.5075466E-4,-4.1605723E-3,1.4250806E-3,-9.82061E-3,-2.7064926E-3,-0E0,-5.9376042E-2,-0E0,-1.4802721E-2,4.9119913E-3,-2.5573687E-3,-5.021086E-2,-0E0,2.0455653E-2,1.818604E-2,-6.1159413E-3,5.650606E-3,3.7353733E-3,3.2853466E-2,1.5705972E-3,5.7700573E-4,8.412089E-4,9.8761906E-5,1.5413061E-5,-3.3342128E-3,1.8856388E-3,4.8192754E-2,-3.2882184E-5,-3.5489693E-3,4.176794E-4,-2.663473E-4,-7.483937E-4,3.401722E-4,-0E0,-6.980832E-3,-0E0,2.865014E-3,-0E0,-1.1695192E-2,-5.0194524E-3,-8.023834E-6,-6.193107E-3,-2.5766755E-2,-3.553829E-3,2.4340361E-2,3.0925209E-3,-2.1805568E-2,3.4977095E-3,4.0925574E-2,8.98142E-4,-7.251864E-2,-0E0,-5.7391267E-2,3.4137018E-2,-7.9452686E-2,1.2506352E-2,2.6256926E-4,4.3973704E-3,-1.1570485E-2,1.2629654E-2,8.070981E-3,4.0255117E-4,1.835711E-3,1.5725379E-3,4.066543E-4,1.2804832E-3,6.6832633E-4,1.670384E-4,-8.02526E-4,-1.49896825E-2,1.8848545E-5,-5.6459627E-4,-1.4786998E-2,-1.729539E-3,6.3079423E-3,3.686472E-3,-0E0,3.3025092E-3,-4.4681405E-5,-4.837105E-2,-1.921322E-3,2.2716464E-3,3.4650767E-4,-2.316917E-4,-1.3057009E-3,-6.017335E-4,-1.3912946E-3,4.256065E-3,2.010831E-4,4.0084887E-3,-3.721292E-4,-0E0,-9.920394E-3,2.3309596E-5,-1.9268786E-3,-0E0,3.8634723E-3,-0E0,-1.3416857E-2,-0E0,-6.734541E-3,-4.4658813E-3,3.9845053E-3,-0E0,-2.3119345E-3,-1.0649592E-2,2.4677431E-3,-0E0,1.8024003E-3,2.2036396E-3,-0E0,-0E0,-2.5380792E-2,-1.3880695E-3,